digraph Tree {
node [shape=box, style="filled", color="black"] ;
0 [label="chlorides <= 0.039\ngini = 0.193\nsamples = 3281\nvalue = [[3268, 13]\n[3164, 117]\n[2296, 985]\n[1814, 1467]\n[2705, 576]\n[3163, 118]\n[3276, 5]]", fillcolor="#fcefe5"] ;
1 [label="density <= 0.992\ngini = 0.195\nsamples = 1265\nvalue = [[1258, 7]\n[1235, 30]\n[1049, 216]\n[700, 565]\n[893, 372]\n[1195, 70]\n[1260, 5]]", fillcolor="#fcefe6"] ;
0 -> 1 [labeldistance=2.5, labelangle=45, headlabel="True"] ;
2 [label="total sulfur dioxide <= 85.5\ngini = 0.181\nsamples = 560\nvalue = [[557, 3]\n[548, 12]\n[533, 27]\n[317, 243]\n[330, 230]\n[519, 41]\n[556, 4]]", fillcolor="#fae8db"] ;
1 -> 2 ;
3 [label="pH <= 3.245\ngini = 0.188\nsamples = 120\nvalue = [[119, 1]\n[114, 6]\n[107, 13]\n[60, 60]\n[87, 33]\n[114, 6]\n[119, 1]]", fillcolor="#fbece0"] ;
2 -> 3 ;
4 [label="residual sugar <= 1.15\ngini = 0.161\nsamples = 75\nvalue = [[75, 0]\n[72, 3]\n[67, 8]\n[29, 46]\n[59, 16]\n[73, 2]\n[75, 0]]", fillcolor="#f8dcc9"] ;
3 -> 4 ;
5 [label="alcohol <= 11.4\ngini = 0.131\nsamples = 19\nvalue = [[19, 0]\n[18, 1]\n[14, 5]\n[6, 13]\n[19, 0]\n[19, 0]\n[19, 0]]", fillcolor="#f4cbae"] ;
4 -> 5 ;
6 [label="volatile acidity <= 0.25\ngini = 0.166\nsamples = 10\nvalue = [[10, 0]\n[9, 1]\n[5, 5]\n[6, 4]\n[10, 0]\n[10, 0]\n[10, 0]]", fillcolor="#f8dfcd"] ;
5 -> 6 ;
7 [label="chlorides <= 0.029\ngini = 0.127\nsamples = 6\nvalue = [[6, 0]\n[6, 0]\n[4, 2]\n[2, 4]\n[6, 0]\n[6, 0]\n[6, 0]]", fillcolor="#f4c9aa"] ;
6 -> 7 ;
8 [label="gini = 0.0\nsamples = 1\nvalue = [[1, 0]\n[1, 0]\n[0, 1]\n[1, 0]\n[1, 0]\n[1, 0]\n[1, 0]]", fillcolor="#e58139"] ;
7 -> 8 ;
9 [label="sulphates <= 0.445\ngini = 0.091\nsamples = 5\nvalue = [[5, 0]\n[5, 0]\n[4, 1]\n[1, 4]\n[5, 0]\n[5, 0]\n[5, 0]]", fillcolor="#f0b58a"] ;
7 -> 9 ;
10 [label="gini = 0.0\nsamples = 1\nvalue = [[1, 0]\n[1, 0]\n[0, 1]\n[1, 0]\n[1, 0]\n[1, 0]\n[1, 0]]", fillcolor="#e58139"] ;
9 -> 10 ;
11 [label="gini = 0.0\nsamples = 4\nvalue = [[4, 0]\n[4, 0]\n[4, 0]\n[0, 4]\n[4, 0]\n[4, 0]\n[4, 0]]", fillcolor="#e58139"] ;
9 -> 11 ;
12 [label="free sulfur dioxide <= 10.5\ngini = 0.107\nsamples = 4\nvalue = [[4, 0]\n[3, 1]\n[1, 3]\n[4, 0]\n[4, 0]\n[4, 0]\n[4, 0]]", fillcolor="#f2be98"] ;
6 -> 12 ;
13 [label="gini = 0.0\nsamples = 1\nvalue = [[1, 0]\n[0, 1]\n[1, 0]\n[1, 0]\n[1, 0]\n[1, 0]\n[1, 0]]", fillcolor="#e58139"] ;
12 -> 13 ;
14 [label="gini = 0.0\nsamples = 3\nvalue = [[3, 0]\n[3, 0]\n[0, 3]\n[3, 0]\n[3, 0]\n[3, 0]\n[3, 0]]", fillcolor="#e58139"] ;
12 -> 14 ;
15 [label="gini = 0.0\nsamples = 9\nvalue = [[9, 0]\n[9, 0]\n[9, 0]\n[0, 9]\n[9, 0]\n[9, 0]\n[9, 0]]", fillcolor="#e58139"] ;
5 -> 15 ;
16 [label="fixed acidity <= 6.75\ngini = 0.162\nsamples = 56\nvalue = [[56, 0]\n[54, 2]\n[53, 3]\n[23, 33]\n[40, 16]\n[54, 2]\n[56, 0]]", fillcolor="#f8ddc9"] ;
4 -> 16 ;
17 [label="alcohol <= 12.65\ngini = 0.12\nsamples = 37\nvalue = [[37, 0]\n[36, 1]\n[36, 1]\n[10, 27]\n[29, 8]\n[37, 0]\n[37, 0]]", fillcolor="#f3c5a4"] ;
16 -> 17 ;
18 [label="pH <= 2.92\ngini = 0.058\nsamples = 27\nvalue = [[27, 0]\n[27, 0]\n[26, 1]\n[3, 24]\n[25, 2]\n[27, 0]\n[27, 0]]", fillcolor="#eca26d"] ;
17 -> 18 ;
19 [label="gini = 0.0\nsamples = 1\nvalue = [[1, 0]\n[1, 0]\n[1, 0]\n[1, 0]\n[0, 1]\n[1, 0]\n[1, 0]]", fillcolor="#e58139"] ;
18 -> 19 ;
20 [label="citric acid <= 0.245\ngini = 0.041\nsamples = 26\nvalue = [[26, 0]\n[26, 0]\n[25, 1]\n[2, 24]\n[25, 1]\n[26, 0]\n[26, 0]]", fillcolor="#ea985e"] ;
18 -> 20 ;
21 [label="gini = 0.0\nsamples = 1\nvalue = [[1, 0]\n[1, 0]\n[0, 1]\n[1, 0]\n[1, 0]\n[1, 0]\n[1, 0]]", fillcolor="#e58139"] ;
20 -> 21 ;
22 [label="sulphates <= 0.615\ngini = 0.022\nsamples = 25\nvalue = [[25, 0]\n[25, 0]\n[25, 0]\n[1, 24]\n[24, 1]\n[25, 0]\n[25, 0]]", fillcolor="#e88d4d"] ;
20 -> 22 ;
23 [label="gini = 0.0\nsamples = 20\nvalue = [[20, 0]\n[20, 0]\n[20, 0]\n[0, 20]\n[20, 0]\n[20, 0]\n[20, 0]]", fillcolor="#e58139"] ;
22 -> 23 ;
24 [label="sulphates <= 0.68\ngini = 0.091\nsamples = 5\nvalue = [[5, 0]\n[5, 0]\n[5, 0]\n[1, 4]\n[4, 1]\n[5, 0]\n[5, 0]]", fillcolor="#f0b58a"] ;
22 -> 24 ;
25 [label="gini = 0.0\nsamples = 1\nvalue = [[1, 0]\n[1, 0]\n[1, 0]\n[1, 0]\n[0, 1]\n[1, 0]\n[1, 0]]", fillcolor="#e58139"] ;
24 -> 25 ;
26 [label="gini = 0.0\nsamples = 4\nvalue = [[4, 0]\n[4, 0]\n[4, 0]\n[0, 4]\n[4, 0]\n[4, 0]\n[4, 0]]", fillcolor="#e58139"] ;
24 -> 26 ;
27 [label="alcohol <= 12.85\ngini = 0.154\nsamples = 10\nvalue = [[10, 0]\n[9, 1]\n[10, 0]\n[7, 3]\n[4, 6]\n[10, 0]\n[10, 0]]", fillcolor="#f7d8c2"] ;
17 -> 27 ;
28 [label="gini = 0.0\nsamples = 4\nvalue = [[4, 0]\n[4, 0]\n[4, 0]\n[4, 0]\n[0, 4]\n[4, 0]\n[4, 0]]", fillcolor="#e58139"] ;
27 -> 28 ;
29 [label="sulphates <= 0.61\ngini = 0.175\nsamples = 6\nvalue = [[6, 0]\n[5, 1]\n[6, 0]\n[3, 3]\n[4, 2]\n[6, 0]\n[6, 0]]", fillcolor="#f9e4d5"] ;
27 -> 29 ;
30 [label="chlorides <= 0.034\ngini = 0.143\nsamples = 2\nvalue = [[2, 0]\n[1, 1]\n[2, 0]\n[2, 0]\n[1, 1]\n[2, 0]\n[2, 0]]", fillcolor="#f6d2b8"] ;
29 -> 30 ;
31 [label="gini = 0.0\nsamples = 1\nvalue = [[1, 0]\n[0, 1]\n[1, 0]\n[1, 0]\n[1, 0]\n[1, 0]\n[1, 0]]", fillcolor="#e58139"] ;
30 -> 31 ;
32 [label="gini = 0.0\nsamples = 1\nvalue = [[1, 0]\n[1, 0]\n[1, 0]\n[1, 0]\n[0, 1]\n[1, 0]\n[1, 0]]", fillcolor="#e58139"] ;
30 -> 32 ;
33 [label="pH <= 3.075\ngini = 0.107\nsamples = 4\nvalue = [[4, 0]\n[4, 0]\n[4, 0]\n[1, 3]\n[3, 1]\n[4, 0]\n[4, 0]]", fillcolor="#f2be98"] ;
29 -> 33 ;
34 [label="gini = 0.0\nsamples = 1\nvalue = [[1, 0]\n[1, 0]\n[1, 0]\n[1, 0]\n[0, 1]\n[1, 0]\n[1, 0]]", fillcolor="#e58139"] ;
33 -> 34 ;
35 [label="gini = 0.0\nsamples = 3\nvalue = [[3, 0]\n[3, 0]\n[3, 0]\n[0, 3]\n[3, 0]\n[3, 0]\n[3, 0]]", fillcolor="#e58139"] ;
33 -> 35 ;
36 [label="residual sugar <= 2.15\ngini = 0.199\nsamples = 19\nvalue = [[19, 0]\n[18, 1]\n[17, 2]\n[13, 6]\n[11, 8]\n[17, 2]\n[19, 0]]", fillcolor="#fcf2eb"] ;
16 -> 36 ;
37 [label="pH <= 3.01\ngini = 0.194\nsamples = 12\nvalue = [[12, 0]\n[11, 1]\n[10, 2]\n[6, 6]\n[10, 2]\n[11, 1]\n[12, 0]]", fillcolor="#fcefe6"] ;
36 -> 37 ;
38 [label="chlorides <= 0.033\ngini = 0.19\nsamples = 3\nvalue = [[3, 0]\n[3, 0]\n[2, 1]\n[3, 0]\n[2, 1]\n[2, 1]\n[3, 0]]", fillcolor="#fbede3"] ;
37 -> 38 ;
39 [label="gini = 0.0\nsamples = 1\nvalue = [[1, 0]\n[1, 0]\n[1, 0]\n[1, 0]\n[1, 0]\n[0, 1]\n[1, 0]]", fillcolor="#e58139"] ;
38 -> 39 ;
40 [label="volatile acidity <= 0.267\ngini = 0.143\nsamples = 2\nvalue = [[2, 0]\n[2, 0]\n[1, 1]\n[2, 0]\n[1, 1]\n[2, 0]\n[2, 0]]", fillcolor="#f6d2b8"] ;
38 -> 40 ;
41 [label="gini = 0.0\nsamples = 1\nvalue = [[1, 0]\n[1, 0]\n[1, 0]\n[1, 0]\n[0, 1]\n[1, 0]\n[1, 0]]", fillcolor="#e58139"] ;
40 -> 41 ;
42 [label="gini = 0.0\nsamples = 1\nvalue = [[1, 0]\n[1, 0]\n[0, 1]\n[1, 0]\n[1, 0]\n[1, 0]\n[1, 0]]", fillcolor="#e58139"] ;
40 -> 42 ;
43 [label="citric acid <= 0.405\ngini = 0.148\nsamples = 9\nvalue = [[9, 0]\n[8, 1]\n[8, 1]\n[3, 6]\n[8, 1]\n[9, 0]\n[9, 0]]", fillcolor="#f6d5bd"] ;
37 -> 43 ;
44 [label="density <= 0.99\ngini = 0.07\nsamples = 7\nvalue = [[7, 0]\n[6, 1]\n[7, 0]\n[1, 6]\n[7, 0]\n[7, 0]\n[7, 0]]", fillcolor="#eda977"] ;
43 -> 44 ;
45 [label="total sulfur dioxide <= 74.0\ngini = 0.143\nsamples = 2\nvalue = [[2, 0]\n[1, 1]\n[2, 0]\n[1, 1]\n[2, 0]\n[2, 0]\n[2, 0]]", fillcolor="#f6d2b8"] ;
44 -> 45 ;
46 [label="gini = 0.0\nsamples = 1\nvalue = [[1, 0]\n[0, 1]\n[1, 0]\n[1, 0]\n[1, 0]\n[1, 0]\n[1, 0]]", fillcolor="#e58139"] ;
45 -> 46 ;
47 [label="gini = 0.0\nsamples = 1\nvalue = [[1, 0]\n[1, 0]\n[1, 0]\n[0, 1]\n[1, 0]\n[1, 0]\n[1, 0]]", fillcolor="#e58139"] ;
45 -> 47 ;
48 [label="gini = 0.0\nsamples = 5\nvalue = [[5, 0]\n[5, 0]\n[5, 0]\n[0, 5]\n[5, 0]\n[5, 0]\n[5, 0]]", fillcolor="#e58139"] ;
44 -> 48 ;
49 [label="alcohol <= 12.35\ngini = 0.143\nsamples = 2\nvalue = [[2, 0]\n[2, 0]\n[1, 1]\n[2, 0]\n[1, 1]\n[2, 0]\n[2, 0]]", fillcolor="#f6d2b8"] ;
43 -> 49 ;
50 [label="gini = 0.0\nsamples = 1\nvalue = [[1, 0]\n[1, 0]\n[1, 0]\n[1, 0]\n[0, 1]\n[1, 0]\n[1, 0]]", fillcolor="#e58139"] ;
49 -> 50 ;
51 [label="gini = 0.0\nsamples = 1\nvalue = [[1, 0]\n[1, 0]\n[0, 1]\n[1, 0]\n[1, 0]\n[1, 0]\n[1, 0]]", fillcolor="#e58139"] ;
49 -> 51 ;
52 [label="volatile acidity <= 0.49\ngini = 0.07\nsamples = 7\nvalue = [[7, 0]\n[7, 0]\n[7, 0]\n[7, 0]\n[1, 6]\n[6, 1]\n[7, 0]]", fillcolor="#eda977"] ;
36 -> 52 ;
53 [label="gini = 0.0\nsamples = 6\nvalue = [[6, 0]\n[6, 0]\n[6, 0]\n[6, 0]\n[0, 6]\n[6, 0]\n[6, 0]]", fillcolor="#e58139"] ;
52 -> 53 ;
54 [label="gini = 0.0\nsamples = 1\nvalue = [[1, 0]\n[1, 0]\n[1, 0]\n[1, 0]\n[1, 0]\n[0, 1]\n[1, 0]]", fillcolor="#e58139"] ;
52 -> 54 ;
55 [label="alcohol <= 11.35\ngini = 0.21\nsamples = 45\nvalue = [[44, 1]\n[42, 3]\n[40, 5]\n[31, 14]\n[28, 17]\n[41, 4]\n[44, 1]]", fillcolor="#fef8f4"] ;
3 -> 55 ;
56 [label="pH <= 3.4\ngini = 0.148\nsamples = 9\nvalue = [[9, 0]\n[8, 1]\n[9, 0]\n[8, 1]\n[3, 6]\n[8, 1]\n[9, 0]]", fillcolor="#f6d5bd"] ;
55 -> 56 ;
57 [label="sulphates <= 0.545\ngini = 0.07\nsamples = 7\nvalue = [[7, 0]\n[7, 0]\n[7, 0]\n[7, 0]\n[1, 6]\n[6, 1]\n[7, 0]]", fillcolor="#eda977"] ;
56 -> 57 ;
58 [label="gini = 0.0\nsamples = 5\nvalue = [[5, 0]\n[5, 0]\n[5, 0]\n[5, 0]\n[0, 5]\n[5, 0]\n[5, 0]]", fillcolor="#e58139"] ;
57 -> 58 ;
59 [label="pH <= 3.295\ngini = 0.143\nsamples = 2\nvalue = [[2, 0]\n[2, 0]\n[2, 0]\n[2, 0]\n[1, 1]\n[1, 1]\n[2, 0]]", fillcolor="#f6d2b8"] ;
57 -> 59 ;
60 [label="gini = 0.0\nsamples = 1\nvalue = [[1, 0]\n[1, 0]\n[1, 0]\n[1, 0]\n[0, 1]\n[1, 0]\n[1, 0]]", fillcolor="#e58139"] ;
59 -> 60 ;
61 [label="gini = 0.0\nsamples = 1\nvalue = [[1, 0]\n[1, 0]\n[1, 0]\n[1, 0]\n[1, 0]\n[0, 1]\n[1, 0]]", fillcolor="#e58139"] ;
59 -> 61 ;
62 [label="citric acid <= 0.2\ngini = 0.143\nsamples = 2\nvalue = [[2, 0]\n[1, 1]\n[2, 0]\n[1, 1]\n[2, 0]\n[2, 0]\n[2, 0]]", fillcolor="#f6d2b8"] ;
56 -> 62 ;
63 [label="gini = 0.0\nsamples = 1\nvalue = [[1, 0]\n[0, 1]\n[1, 0]\n[1, 0]\n[1, 0]\n[1, 0]\n[1, 0]]", fillcolor="#e58139"] ;
62 -> 63 ;
64 [label="gini = 0.0\nsamples = 1\nvalue = [[1, 0]\n[1, 0]\n[1, 0]\n[0, 1]\n[1, 0]\n[1, 0]\n[1, 0]]", fillcolor="#e58139"] ;
62 -> 64 ;
65 [label="volatile acidity <= 0.157\ngini = 0.213\nsamples = 36\nvalue = [[35, 1]\n[34, 2]\n[31, 5]\n[23, 13]\n[25, 11]\n[33, 3]\n[35, 1]]", fillcolor="#fefaf7"] ;
55 -> 65 ;
66 [label="gini = 0.0\nsamples = 2\nvalue = [[2, 0]\n[2, 0]\n[2, 0]\n[2, 0]\n[2, 0]\n[0, 2]\n[2, 0]]", fillcolor="#e58139"] ;
65 -> 66 ;
67 [label="alcohol <= 12.55\ngini = 0.206\nsamples = 34\nvalue = [[33, 1]\n[32, 2]\n[29, 5]\n[21, 13]\n[23, 11]\n[33, 1]\n[33, 1]]", fillcolor="#fdf6f1"] ;
65 -> 67 ;
68 [label="pH <= 3.295\ngini = 0.196\nsamples = 23\nvalue = [[23, 0]\n[21, 2]\n[19, 4]\n[12, 11]\n[18, 5]\n[23, 0]\n[22, 1]]", fillcolor="#fcf0e7"] ;
67 -> 68 ;
69 [label="citric acid <= 0.36\ngini = 0.091\nsamples = 5\nvalue = [[5, 0]\n[5, 0]\n[5, 0]\n[4, 1]\n[1, 4]\n[5, 0]\n[5, 0]]", fillcolor="#f0b58a"] ;
68 -> 69 ;
70 [label="gini = 0.0\nsamples = 4\nvalue = [[4, 0]\n[4, 0]\n[4, 0]\n[4, 0]\n[0, 4]\n[4, 0]\n[4, 0]]", fillcolor="#e58139"] ;
69 -> 70 ;
71 [label="gini = 0.0\nsamples = 1\nvalue = [[1, 0]\n[1, 0]\n[1, 0]\n[0, 1]\n[1, 0]\n[1, 0]\n[1, 0]]", fillcolor="#e58139"] ;
69 -> 71 ;
72 [label="pH <= 3.36\ngini = 0.178\nsamples = 18\nvalue = [[18, 0]\n[16, 2]\n[14, 4]\n[8, 10]\n[17, 1]\n[18, 0]\n[17, 1]]", fillcolor="#fae6d8"] ;
68 -> 72 ;
73 [label="free sulfur dioxide <= 9.0\ngini = 0.106\nsamples = 9\nvalue = [[9, 0]\n[8, 1]\n[9, 0]\n[2, 7]\n[8, 1]\n[9, 0]\n[9, 0]]", fillcolor="#f1bd97"] ;
72 -> 73 ;
74 [label="gini = 0.0\nsamples = 1\nvalue = [[1, 0]\n[0, 1]\n[1, 0]\n[1, 0]\n[1, 0]\n[1, 0]\n[1, 0]]", fillcolor="#e58139"] ;
73 -> 74 ;
75 [label="fixed acidity <= 6.45\ngini = 0.062\nsamples = 8\nvalue = [[8, 0]\n[8, 0]\n[8, 0]\n[1, 7]\n[7, 1]\n[8, 0]\n[8, 0]]", fillcolor="#eca471"] ;
73 -> 75 ;
76 [label="gini = 0.0\nsamples = 7\nvalue = [[7, 0]\n[7, 0]\n[7, 0]\n[0, 7]\n[7, 0]\n[7, 0]\n[7, 0]]", fillcolor="#e58139"] ;
75 -> 76 ;
77 [label="gini = 0.0\nsamples = 1\nvalue = [[1, 0]\n[1, 0]\n[1, 0]\n[1, 0]\n[0, 1]\n[1, 0]\n[1, 0]]", fillcolor="#e58139"] ;
75 -> 77 ;
78 [label="volatile acidity <= 0.355\ngini = 0.19\nsamples = 9\nvalue = [[9, 0]\n[8, 1]\n[5, 4]\n[6, 3]\n[9, 0]\n[9, 0]\n[8, 1]]", fillcolor="#fbede3"] ;
72 -> 78 ;
79 [label="gini = 0.0\nsamples = 4\nvalue = [[4, 0]\n[4, 0]\n[0, 4]\n[4, 0]\n[4, 0]\n[4, 0]\n[4, 0]]", fillcolor="#e58139"] ;
78 -> 79 ;
80 [label="density <= 0.991\ngini = 0.16\nsamples = 5\nvalue = [[5, 0]\n[4, 1]\n[5, 0]\n[2, 3]\n[5, 0]\n[5, 0]\n[4, 1]]", fillcolor="#f8dcc8"] ;
78 -> 80 ;
81 [label="chlorides <= 0.024\ngini = 0.107\nsamples = 4\nvalue = [[4, 0]\n[4, 0]\n[4, 0]\n[1, 3]\n[4, 0]\n[4, 0]\n[3, 1]]", fillcolor="#f2be98"] ;
80 -> 81 ;
82 [label="gini = 0.0\nsamples = 1\nvalue = [[1, 0]\n[1, 0]\n[1, 0]\n[1, 0]\n[1, 0]\n[1, 0]\n[0, 1]]", fillcolor="#e58139"] ;
81 -> 82 ;
83 [label="gini = 0.0\nsamples = 3\nvalue = [[3, 0]\n[3, 0]\n[3, 0]\n[0, 3]\n[3, 0]\n[3, 0]\n[3, 0]]", fillcolor="#e58139"] ;
81 -> 83 ;
84 [label="gini = 0.0\nsamples = 1\nvalue = [[1, 0]\n[0, 1]\n[1, 0]\n[1, 0]\n[1, 0]\n[1, 0]\n[1, 0]]", fillcolor="#e58139"] ;
80 -> 84 ;
85 [label="pH <= 3.29\ngini = 0.184\nsamples = 11\nvalue = [[10, 1]\n[11, 0]\n[10, 1]\n[9, 2]\n[5, 6]\n[10, 1]\n[11, 0]]", fillcolor="#fbe9dd"] ;
67 -> 85 ;
86 [label="sulphates <= 0.37\ngini = 0.127\nsamples = 3\nvalue = [[3, 0]\n[3, 0]\n[2, 1]\n[1, 2]\n[3, 0]\n[3, 0]\n[3, 0]]", fillcolor="#f4c9aa"] ;
85 -> 86 ;
87 [label="gini = 0.0\nsamples = 1\nvalue = [[1, 0]\n[1, 0]\n[0, 1]\n[1, 0]\n[1, 0]\n[1, 0]\n[1, 0]]", fillcolor="#e58139"] ;
86 -> 87 ;
88 [label="gini = 0.0\nsamples = 2\nvalue = [[2, 0]\n[2, 0]\n[2, 0]\n[0, 2]\n[2, 0]\n[2, 0]\n[2, 0]]", fillcolor="#e58139"] ;
86 -> 88 ;
89 [label="citric acid <= 0.395\ngini = 0.116\nsamples = 8\nvalue = [[7, 1]\n[8, 0]\n[8, 0]\n[8, 0]\n[2, 6]\n[7, 1]\n[8, 0]]", fillcolor="#f3c3a0"] ;
85 -> 89 ;
90 [label="gini = 0.0\nsamples = 6\nvalue = [[6, 0]\n[6, 0]\n[6, 0]\n[6, 0]\n[0, 6]\n[6, 0]\n[6, 0]]", fillcolor="#e58139"] ;
89 -> 90 ;
91 [label="sulphates <= 0.38\ngini = 0.143\nsamples = 2\nvalue = [[1, 1]\n[2, 0]\n[2, 0]\n[2, 0]\n[2, 0]\n[1, 1]\n[2, 0]]", fillcolor="#f6d2b8"] ;
89 -> 91 ;
92 [label="gini = 0.0\nsamples = 1\nvalue = [[0, 1]\n[1, 0]\n[1, 0]\n[1, 0]\n[1, 0]\n[1, 0]\n[1, 0]]", fillcolor="#e58139"] ;
91 -> 92 ;
93 [label="gini = 0.0\nsamples = 1\nvalue = [[1, 0]\n[1, 0]\n[1, 0]\n[1, 0]\n[1, 0]\n[0, 1]\n[1, 0]]", fillcolor="#e58139"] ;
91 -> 93 ;
94 [label="citric acid <= 0.425\ngini = 0.177\nsamples = 440\nvalue = [[438, 2]\n[434, 6]\n[426, 14]\n[257, 183]\n[243, 197]\n[405, 35]\n[437, 3]]", fillcolor="#fae5d7"] ;
2 -> 94 ;
95 [label="pH <= 3.075\ngini = 0.175\nsamples = 403\nvalue = [[402, 1]\n[398, 5]\n[389, 14]\n[243, 160]\n[212, 191]\n[373, 30]\n[401, 2]]", fillcolor="#f9e4d4"] ;
94 -> 95 ;
96 [label="free sulfur dioxide <= 5.5\ngini = 0.18\nsamples = 84\nvalue = [[84, 0]\n[81, 3]\n[78, 6]\n[39, 45]\n[62, 22]\n[76, 8]\n[84, 0]]", fillcolor="#fae7d9"] ;
95 -> 96 ;
97 [label="gini = 0.0\nsamples = 2\nvalue = [[2, 0]\n[0, 2]\n[2, 0]\n[2, 0]\n[2, 0]\n[2, 0]\n[2, 0]]", fillcolor="#e58139"] ;
96 -> 97 ;
98 [label="sulphates <= 0.355\ngini = 0.175\nsamples = 82\nvalue = [[82, 0]\n[81, 1]\n[76, 6]\n[37, 45]\n[60, 22]\n[74, 8]\n[82, 0]]", fillcolor="#f9e4d5"] ;
96 -> 98 ;
99 [label="pH <= 2.98\ngini = 0.212\nsamples = 16\nvalue = [[16, 0]\n[16, 0]\n[11, 5]\n[13, 3]\n[12, 4]\n[12, 4]\n[16, 0]]", fillcolor="#fef9f6"] ;
98 -> 99 ;
100 [label="total sulfur dioxide <= 112.0\ngini = 0.091\nsamples = 5\nvalue = [[5, 0]\n[5, 0]\n[1, 4]\n[4, 1]\n[5, 0]\n[5, 0]\n[5, 0]]", fillcolor="#f0b58a"] ;
99 -> 100 ;
101 [label="gini = 0.0\nsamples = 1\nvalue = [[1, 0]\n[1, 0]\n[1, 0]\n[0, 1]\n[1, 0]\n[1, 0]\n[1, 0]]", fillcolor="#e58139"] ;
100 -> 101 ;
102 [label="gini = 0.0\nsamples = 4\nvalue = [[4, 0]\n[4, 0]\n[0, 4]\n[4, 0]\n[4, 0]\n[4, 0]\n[4, 0]]", fillcolor="#e58139"] ;
100 -> 102 ;
103 [label="sulphates <= 0.325\ngini = 0.198\nsamples = 11\nvalue = [[11, 0]\n[11, 0]\n[10, 1]\n[9, 2]\n[7, 4]\n[7, 4]\n[11, 0]]", fillcolor="#fcf1ea"] ;
99 -> 103 ;
104 [label="chlorides <= 0.031\ngini = 0.14\nsamples = 7\nvalue = [[7, 0]\n[7, 0]\n[7, 0]\n[7, 0]\n[4, 3]\n[3, 4]\n[7, 0]]", fillcolor="#f5d0b6"] ;
103 -> 104 ;
105 [label="gini = 0.0\nsamples = 1\nvalue = [[1, 0]\n[1, 0]\n[1, 0]\n[1, 0]\n[0, 1]\n[1, 0]\n[1, 0]]", fillcolor="#e58139"] ;
104 -> 105 ;
106 [label="fixed acidity <= 6.8\ngini = 0.127\nsamples = 6\nvalue = [[6, 0]\n[6, 0]\n[6, 0]\n[6, 0]\n[4, 2]\n[2, 4]\n[6, 0]]", fillcolor="#f4c9aa"] ;
104 -> 106 ;
107 [label="chlorides <= 0.033\ngini = 0.127\nsamples = 3\nvalue = [[3, 0]\n[3, 0]\n[3, 0]\n[3, 0]\n[1, 2]\n[2, 1]\n[3, 0]]", fillcolor="#f4c9aa"] ;
106 -> 107 ;
108 [label="gini = 0.0\nsamples = 1\nvalue = [[1, 0]\n[1, 0]\n[1, 0]\n[1, 0]\n[1, 0]\n[0, 1]\n[1, 0]]", fillcolor="#e58139"] ;
107 -> 108 ;
109 [label="gini = 0.0\nsamples = 2\nvalue = [[2, 0]\n[2, 0]\n[2, 0]\n[2, 0]\n[0, 2]\n[2, 0]\n[2, 0]]", fillcolor="#e58139"] ;
107 -> 109 ;
110 [label="gini = 0.0\nsamples = 3\nvalue = [[3, 0]\n[3, 0]\n[3, 0]\n[3, 0]\n[3, 0]\n[0, 3]\n[3, 0]]", fillcolor="#e58139"] ;
106 -> 110 ;
111 [label="fixed acidity <= 6.25\ngini = 0.179\nsamples = 4\nvalue = [[4, 0]\n[4, 0]\n[3, 1]\n[2, 2]\n[3, 1]\n[4, 0]\n[4, 0]]", fillcolor="#fae6d8"] ;
103 -> 111 ;
112 [label="gini = 0.0\nsamples = 1\nvalue = [[1, 0]\n[1, 0]\n[1, 0]\n[1, 0]\n[0, 1]\n[1, 0]\n[1, 0]]", fillcolor="#e58139"] ;
111 -> 112 ;
113 [label="chlorides <= 0.032\ngini = 0.127\nsamples = 3\nvalue = [[3, 0]\n[3, 0]\n[2, 1]\n[1, 2]\n[3, 0]\n[3, 0]\n[3, 0]]", fillcolor="#f4c9aa"] ;
111 -> 113 ;
114 [label="gini = 0.0\nsamples = 2\nvalue = [[2, 0]\n[2, 0]\n[2, 0]\n[0, 2]\n[2, 0]\n[2, 0]\n[2, 0]]", fillcolor="#e58139"] ;
113 -> 114 ;
115 [label="gini = 0.0\nsamples = 1\nvalue = [[1, 0]\n[1, 0]\n[0, 1]\n[1, 0]\n[1, 0]\n[1, 0]\n[1, 0]]", fillcolor="#e58139"] ;
113 -> 115 ;
116 [label="pH <= 3.005\ngini = 0.148\nsamples = 66\nvalue = [[66, 0]\n[65, 1]\n[65, 1]\n[24, 42]\n[48, 18]\n[62, 4]\n[66, 0]]", fillcolor="#f6d5bc"] ;
98 -> 116 ;
117 [label="free sulfur dioxide <= 37.5\ngini = 0.176\nsamples = 33\nvalue = [[33, 0]\n[33, 0]\n[32, 1]\n[17, 16]\n[21, 12]\n[29, 4]\n[33, 0]]", fillcolor="#fae5d6"] ;
116 -> 117 ;
118 [label="chlorides <= 0.029\ngini = 0.172\nsamples = 27\nvalue = [[27, 0]\n[27, 0]\n[26, 1]\n[12, 15]\n[20, 7]\n[23, 4]\n[27, 0]]", fillcolor="#f9e2d2"] ;
117 -> 118 ;
119 [label="total sulfur dioxide <= 117.0\ngini = 0.183\nsamples = 9\nvalue = [[9, 0]\n[9, 0]\n[9, 0]\n[7, 2]\n[5, 4]\n[6, 3]\n[9, 0]]", fillcolor="#fae9dc"] ;
118 -> 119 ;
120 [label="pH <= 2.91\ngini = 0.175\nsamples = 6\nvalue = [[6, 0]\n[6, 0]\n[6, 0]\n[4, 2]\n[5, 1]\n[3, 3]\n[6, 0]]", fillcolor="#f9e4d5"] ;
119 -> 120 ;
121 [label="gini = 0.0\nsamples = 1\nvalue = [[1, 0]\n[1, 0]\n[1, 0]\n[1, 0]\n[0, 1]\n[1, 0]\n[1, 0]]", fillcolor="#e58139"] ;
120 -> 121 ;
122 [label="free sulfur dioxide <= 35.5\ngini = 0.137\nsamples = 5\nvalue = [[5, 0]\n[5, 0]\n[5, 0]\n[3, 2]\n[5, 0]\n[2, 3]\n[5, 0]]", fillcolor="#f5cfb3"] ;
120 -> 122 ;
123 [label="fixed acidity <= 6.55\ngini = 0.127\nsamples = 3\nvalue = [[3, 0]\n[3, 0]\n[3, 0]\n[1, 2]\n[3, 0]\n[2, 1]\n[3, 0]]", fillcolor="#f4c9aa"] ;
122 -> 123 ;
124 [label="gini = 0.0\nsamples = 1\nvalue = [[1, 0]\n[1, 0]\n[1, 0]\n[1, 0]\n[1, 0]\n[0, 1]\n[1, 0]]", fillcolor="#e58139"] ;
123 -> 124 ;
125 [label="gini = 0.0\nsamples = 2\nvalue = [[2, 0]\n[2, 0]\n[2, 0]\n[0, 2]\n[2, 0]\n[2, 0]\n[2, 0]]", fillcolor="#e58139"] ;
123 -> 125 ;
126 [label="gini = 0.0\nsamples = 2\nvalue = [[2, 0]\n[2, 0]\n[2, 0]\n[2, 0]\n[2, 0]\n[0, 2]\n[2, 0]]", fillcolor="#e58139"] ;
122 -> 126 ;
127 [label="gini = 0.0\nsamples = 3\nvalue = [[3, 0]\n[3, 0]\n[3, 0]\n[3, 0]\n[0, 3]\n[3, 0]\n[3, 0]]", fillcolor="#e58139"] ;
119 -> 127 ;
128 [label="chlorides <= 0.037\ngini = 0.127\nsamples = 18\nvalue = [[18, 0]\n[18, 0]\n[17, 1]\n[5, 13]\n[15, 3]\n[17, 1]\n[18, 0]]", fillcolor="#f4c9aa"] ;
118 -> 128 ;
129 [label="citric acid <= 0.39\ngini = 0.073\nsamples = 14\nvalue = [[14, 0]\n[14, 0]\n[14, 0]\n[2, 12]\n[13, 1]\n[13, 1]\n[14, 0]]", fillcolor="#eeaa7a"] ;
128 -> 129 ;
130 [label="sulphates <= 0.4\ngini = 0.041\nsamples = 13\nvalue = [[13, 0]\n[13, 0]\n[13, 0]\n[1, 12]\n[13, 0]\n[12, 1]\n[13, 0]]", fillcolor="#ea985d"] ;
129 -> 130 ;
131 [label="fixed acidity <= 7.6\ngini = 0.127\nsamples = 3\nvalue = [[3, 0]\n[3, 0]\n[3, 0]\n[1, 2]\n[3, 0]\n[2, 1]\n[3, 0]]", fillcolor="#f4c9aa"] ;
130 -> 131 ;
132 [label="gini = 0.0\nsamples = 2\nvalue = [[2, 0]\n[2, 0]\n[2, 0]\n[0, 2]\n[2, 0]\n[2, 0]\n[2, 0]]", fillcolor="#e58139"] ;
131 -> 132 ;
133 [label="gini = 0.0\nsamples = 1\nvalue = [[1, 0]\n[1, 0]\n[1, 0]\n[1, 0]\n[1, 0]\n[0, 1]\n[1, 0]]", fillcolor="#e58139"] ;
131 -> 133 ;
134 [label="gini = 0.0\nsamples = 10\nvalue = [[10, 0]\n[10, 0]\n[10, 0]\n[0, 10]\n[10, 0]\n[10, 0]\n[10, 0]]", fillcolor="#e58139"] ;
130 -> 134 ;
135 [label="gini = 0.0\nsamples = 1\nvalue = [[1, 0]\n[1, 0]\n[1, 0]\n[1, 0]\n[0, 1]\n[1, 0]\n[1, 0]]", fillcolor="#e58139"] ;
129 -> 135 ;
136 [label="citric acid <= 0.295\ngini = 0.179\nsamples = 4\nvalue = [[4, 0]\n[4, 0]\n[3, 1]\n[3, 1]\n[2, 2]\n[4, 0]\n[4, 0]]", fillcolor="#fae6d8"] ;
128 -> 136 ;
137 [label="density <= 0.99\ngini = 0.143\nsamples = 2\nvalue = [[2, 0]\n[2, 0]\n[1, 1]\n[1, 1]\n[2, 0]\n[2, 0]\n[2, 0]]", fillcolor="#f6d2b8"] ;
136 -> 137 ;
138 [label="gini = 0.0\nsamples = 1\nvalue = [[1, 0]\n[1, 0]\n[1, 0]\n[0, 1]\n[1, 0]\n[1, 0]\n[1, 0]]", fillcolor="#e58139"] ;
137 -> 138 ;
139 [label="gini = 0.0\nsamples = 1\nvalue = [[1, 0]\n[1, 0]\n[0, 1]\n[1, 0]\n[1, 0]\n[1, 0]\n[1, 0]]", fillcolor="#e58139"] ;
137 -> 139 ;
140 [label="gini = 0.0\nsamples = 2\nvalue = [[2, 0]\n[2, 0]\n[2, 0]\n[2, 0]\n[0, 2]\n[2, 0]\n[2, 0]]", fillcolor="#e58139"] ;
136 -> 140 ;
141 [label="chlorides <= 0.026\ngini = 0.079\nsamples = 6\nvalue = [[6, 0]\n[6, 0]\n[6, 0]\n[5, 1]\n[1, 5]\n[6, 0]\n[6, 0]]", fillcolor="#eeae80"] ;
117 -> 141 ;
142 [label="gini = 0.0\nsamples = 1\nvalue = [[1, 0]\n[1, 0]\n[1, 0]\n[0, 1]\n[1, 0]\n[1, 0]\n[1, 0]]", fillcolor="#e58139"] ;
141 -> 142 ;
143 [label="gini = 0.0\nsamples = 5\nvalue = [[5, 0]\n[5, 0]\n[5, 0]\n[5, 0]\n[0, 5]\n[5, 0]\n[5, 0]]", fillcolor="#e58139"] ;
141 -> 143 ;
144 [label="chlorides <= 0.024\ngini = 0.099\nsamples = 33\nvalue = [[33, 0]\n[32, 1]\n[33, 0]\n[7, 26]\n[27, 6]\n[33, 0]\n[33, 0]]", fillcolor="#f1b991"] ;
116 -> 144 ;
145 [label="residual sugar <= 2.2\ngini = 0.143\nsamples = 2\nvalue = [[2, 0]\n[1, 1]\n[2, 0]\n[2, 0]\n[1, 1]\n[2, 0]\n[2, 0]]", fillcolor="#f6d2b8"] ;
144 -> 145 ;
146 [label="gini = 0.0\nsamples = 1\nvalue = [[1, 0]\n[1, 0]\n[1, 0]\n[1, 0]\n[0, 1]\n[1, 0]\n[1, 0]]", fillcolor="#e58139"] ;
145 -> 146 ;
147 [label="gini = 0.0\nsamples = 1\nvalue = [[1, 0]\n[0, 1]\n[1, 0]\n[1, 0]\n[1, 0]\n[1, 0]\n[1, 0]]", fillcolor="#e58139"] ;
145 -> 147 ;
148 [label="density <= 0.989\ngini = 0.077\nsamples = 31\nvalue = [[31, 0]\n[31, 0]\n[31, 0]\n[5, 26]\n[26, 5]\n[31, 0]\n[31, 0]]", fillcolor="#eead7e"] ;
144 -> 148 ;
149 [label="gini = 0.0\nsamples = 1\nvalue = [[1, 0]\n[1, 0]\n[1, 0]\n[1, 0]\n[0, 1]\n[1, 0]\n[1, 0]]", fillcolor="#e58139"] ;
148 -> 149 ;
150 [label="fixed acidity <= 7.05\ngini = 0.066\nsamples = 30\nvalue = [[30, 0]\n[30, 0]\n[30, 0]\n[4, 26]\n[26, 4]\n[30, 0]\n[30, 0]]", fillcolor="#eda674"] ;
148 -> 150 ;
151 [label="gini = 0.0\nsamples = 22\nvalue = [[22, 0]\n[22, 0]\n[22, 0]\n[0, 22]\n[22, 0]\n[22, 0]\n[22, 0]]", fillcolor="#e58139"] ;
150 -> 151 ;
152 [label="density <= 0.991\ngini = 0.143\nsamples = 8\nvalue = [[8, 0]\n[8, 0]\n[8, 0]\n[4, 4]\n[4, 4]\n[8, 0]\n[8, 0]]", fillcolor="#f6d2b8"] ;
150 -> 152 ;
153 [label="free sulfur dioxide <= 34.0\ngini = 0.107\nsamples = 4\nvalue = [[4, 0]\n[4, 0]\n[4, 0]\n[1, 3]\n[3, 1]\n[4, 0]\n[4, 0]]", fillcolor="#f2be98"] ;
152 -> 153 ;
154 [label="gini = 0.0\nsamples = 3\nvalue = [[3, 0]\n[3, 0]\n[3, 0]\n[0, 3]\n[3, 0]\n[3, 0]\n[3, 0]]", fillcolor="#e58139"] ;
153 -> 154 ;
155 [label="gini = 0.0\nsamples = 1\nvalue = [[1, 0]\n[1, 0]\n[1, 0]\n[1, 0]\n[0, 1]\n[1, 0]\n[1, 0]]", fillcolor="#e58139"] ;
153 -> 155 ;
156 [label="total sulfur dioxide <= 116.0\ngini = 0.107\nsamples = 4\nvalue = [[4, 0]\n[4, 0]\n[4, 0]\n[3, 1]\n[1, 3]\n[4, 0]\n[4, 0]]", fillcolor="#f2be98"] ;
152 -> 156 ;
157 [label="gini = 0.0\nsamples = 1\nvalue = [[1, 0]\n[1, 0]\n[1, 0]\n[0, 1]\n[1, 0]\n[1, 0]\n[1, 0]]", fillcolor="#e58139"] ;
156 -> 157 ;
158 [label="gini = 0.0\nsamples = 3\nvalue = [[3, 0]\n[3, 0]\n[3, 0]\n[3, 0]\n[0, 3]\n[3, 0]\n[3, 0]]", fillcolor="#e58139"] ;
156 -> 158 ;
159 [label="alcohol <= 10.625\ngini = 0.167\nsamples = 319\nvalue = [[318, 1]\n[317, 2]\n[311, 8]\n[204, 115]\n[150, 169]\n[297, 22]\n[317, 2]]", fillcolor="#f9e0ce"] ;
95 -> 159 ;
160 [label="gini = 0.0\nsamples = 9\nvalue = [[9, 0]\n[9, 0]\n[9, 0]\n[0, 9]\n[9, 0]\n[9, 0]\n[9, 0]]", fillcolor="#e58139"] ;
159 -> 160 ;
161 [label="free sulfur dioxide <= 16.5\ngini = 0.166\nsamples = 310\nvalue = [[309, 1]\n[308, 2]\n[302, 8]\n[204, 106]\n[141, 169]\n[288, 22]\n[308, 2]]", fillcolor="#f8dfcd"] ;
159 -> 161 ;
162 [label="free sulfur dioxide <= 11.5\ngini = 0.175\nsamples = 14\nvalue = [[14, 0]\n[12, 2]\n[12, 2]\n[6, 8]\n[12, 2]\n[14, 0]\n[14, 0]]", fillcolor="#f9e4d5"] ;
161 -> 162 ;
163 [label="fixed acidity <= 5.9\ngini = 0.183\nsamples = 5\nvalue = [[5, 0]\n[3, 2]\n[3, 2]\n[5, 0]\n[4, 1]\n[5, 0]\n[5, 0]]", fillcolor="#fae9dc"] ;
162 -> 163 ;
164 [label="sulphates <= 0.42\ngini = 0.127\nsamples = 3\nvalue = [[3, 0]\n[3, 0]\n[1, 2]\n[3, 0]\n[2, 1]\n[3, 0]\n[3, 0]]", fillcolor="#f4c9aa"] ;
163 -> 164 ;
165 [label="gini = 0.0\nsamples = 1\nvalue = [[1, 0]\n[1, 0]\n[1, 0]\n[1, 0]\n[0, 1]\n[1, 0]\n[1, 0]]", fillcolor="#e58139"] ;
164 -> 165 ;
166 [label="gini = 0.0\nsamples = 2\nvalue = [[2, 0]\n[2, 0]\n[0, 2]\n[2, 0]\n[2, 0]\n[2, 0]\n[2, 0]]", fillcolor="#e58139"] ;
164 -> 166 ;
167 [label="gini = 0.0\nsamples = 2\nvalue = [[2, 0]\n[0, 2]\n[2, 0]\n[2, 0]\n[2, 0]\n[2, 0]\n[2, 0]]", fillcolor="#e58139"] ;
163 -> 167 ;
168 [label="chlorides <= 0.026\ngini = 0.056\nsamples = 9\nvalue = [[9, 0]\n[9, 0]\n[9, 0]\n[1, 8]\n[8, 1]\n[9, 0]\n[9, 0]]", fillcolor="#eca16b"] ;
162 -> 168 ;
169 [label="density <= 0.99\ngini = 0.143\nsamples = 2\nvalue = [[2, 0]\n[2, 0]\n[2, 0]\n[1, 1]\n[1, 1]\n[2, 0]\n[2, 0]]", fillcolor="#f6d2b8"] ;
168 -> 169 ;
170 [label="gini = 0.0\nsamples = 1\nvalue = [[1, 0]\n[1, 0]\n[1, 0]\n[1, 0]\n[0, 1]\n[1, 0]\n[1, 0]]", fillcolor="#e58139"] ;
169 -> 170 ;
171 [label="gini = 0.0\nsamples = 1\nvalue = [[1, 0]\n[1, 0]\n[1, 0]\n[0, 1]\n[1, 0]\n[1, 0]\n[1, 0]]", fillcolor="#e58139"] ;
169 -> 171 ;
172 [label="gini = 0.0\nsamples = 7\nvalue = [[7, 0]\n[7, 0]\n[7, 0]\n[0, 7]\n[7, 0]\n[7, 0]\n[7, 0]]", fillcolor="#e58139"] ;
168 -> 172 ;
173 [label="total sulfur dioxide <= 164.5\ngini = 0.162\nsamples = 296\nvalue = [[295, 1]\n[296, 0]\n[290, 6]\n[198, 98]\n[129, 167]\n[274, 22]\n[294, 2]]", fillcolor="#f8ddc9"] ;
161 -> 173 ;
174 [label="citric acid <= 0.335\ngini = 0.156\nsamples = 284\nvalue = [[283, 1]\n[284, 0]\n[278, 6]\n[193, 91]\n[117, 167]\n[267, 17]\n[282, 2]]", fillcolor="#f7dac4"] ;
173 -> 174 ;
175 [label="volatile acidity <= 0.545\ngini = 0.147\nsamples = 205\nvalue = [[205, 0]\n[205, 0]\n[202, 3]\n[147, 58]\n[75, 130]\n[191, 14]\n[205, 0]]", fillcolor="#f6d4bc"] ;
174 -> 175 ;
176 [label="volatile acidity <= 0.438\ngini = 0.142\nsamples = 199\nvalue = [[199, 0]\n[199, 0]\n[198, 1]\n[144, 55]\n[70, 129]\n[185, 14]\n[199, 0]]", fillcolor="#f6d2b8"] ;
175 -> 176 ;
177 [label="fixed acidity <= 6.25\ngini = 0.139\nsamples = 176\nvalue = [[176, 0]\n[176, 0]\n[175, 1]\n[123, 53]\n[62, 114]\n[168, 8]\n[176, 0]]", fillcolor="#f5d0b5"] ;
176 -> 177 ;
178 [label="chlorides <= 0.03\ngini = 0.152\nsamples = 85\nvalue = [[85, 0]\n[85, 0]\n[85, 0]\n[51, 34]\n[38, 47]\n[81, 4]\n[85, 0]]", fillcolor="#f7d7c0"] ;
177 -> 178 ;
179 [label="citric acid <= 0.325\ngini = 0.132\nsamples = 39\nvalue = [[39, 0]\n[39, 0]\n[39, 0]\n[30, 9]\n[12, 27]\n[36, 3]\n[39, 0]]", fillcolor="#f4ccae"] ;
178 -> 179 ;
180 [label="alcohol <= 13.95\ngini = 0.121\nsamples = 37\nvalue = [[37, 0]\n[37, 0]\n[37, 0]\n[30, 7]\n[10, 27]\n[34, 3]\n[37, 0]]", fillcolor="#f3c6a5"] ;
179 -> 180 ;
181 [label="alcohol <= 11.05\ngini = 0.113\nsamples = 36\nvalue = [[36, 0]\n[36, 0]\n[36, 0]\n[29, 7]\n[9, 27]\n[34, 2]\n[36, 0]]", fillcolor="#f2c19e"] ;
180 -> 181 ;
182 [label="gini = 0.0\nsamples = 1\nvalue = [[1, 0]\n[1, 0]\n[1, 0]\n[0, 1]\n[1, 0]\n[1, 0]\n[1, 0]]", fillcolor="#e58139"] ;
181 -> 182 ;
183 [label="pH <= 3.215\ngini = 0.106\nsamples = 35\nvalue = [[35, 0]\n[35, 0]\n[35, 0]\n[29, 6]\n[8, 27]\n[33, 2]\n[35, 0]]", fillcolor="#f1bd98"] ;
181 -> 183 ;
184 [label="fixed acidity <= 6.05\ngini = 0.179\nsamples = 4\nvalue = [[4, 0]\n[4, 0]\n[4, 0]\n[2, 2]\n[3, 1]\n[3, 1]\n[4, 0]]", fillcolor="#fae6d8"] ;
183 -> 184 ;
185 [label="gini = 0.0\nsamples = 2\nvalue = [[2, 0]\n[2, 0]\n[2, 0]\n[0, 2]\n[2, 0]\n[2, 0]\n[2, 0]]", fillcolor="#e58139"] ;
184 -> 185 ;
186 [label="alcohol <= 12.7\ngini = 0.143\nsamples = 2\nvalue = [[2, 0]\n[2, 0]\n[2, 0]\n[2, 0]\n[1, 1]\n[1, 1]\n[2, 0]]", fillcolor="#f6d2b8"] ;
184 -> 186 ;
187 [label="gini = 0.0\nsamples = 1\nvalue = [[1, 0]\n[1, 0]\n[1, 0]\n[1, 0]\n[1, 0]\n[0, 1]\n[1, 0]]", fillcolor="#e58139"] ;
186 -> 187 ;
188 [label="gini = 0.0\nsamples = 1\nvalue = [[1, 0]\n[1, 0]\n[1, 0]\n[1, 0]\n[0, 1]\n[1, 0]\n[1, 0]]", fillcolor="#e58139"] ;
186 -> 188 ;
189 [label="residual sugar <= 4.55\ngini = 0.08\nsamples = 31\nvalue = [[31, 0]\n[31, 0]\n[31, 0]\n[27, 4]\n[5, 26]\n[30, 1]\n[31, 0]]", fillcolor="#eeae80"] ;
183 -> 189 ;
190 [label="volatile acidity <= 0.205\ngini = 0.068\nsamples = 30\nvalue = [[30, 0]\n[30, 0]\n[30, 0]\n[27, 3]\n[4, 26]\n[29, 1]\n[30, 0]]", fillcolor="#eda876"] ;
189 -> 190 ;
191 [label="volatile acidity <= 0.175\ngini = 0.143\nsamples = 4\nvalue = [[4, 0]\n[4, 0]\n[4, 0]\n[2, 2]\n[2, 2]\n[4, 0]\n[4, 0]]", fillcolor="#f6d2b8"] ;
190 -> 191 ;
192 [label="gini = 0.0\nsamples = 2\nvalue = [[2, 0]\n[2, 0]\n[2, 0]\n[2, 0]\n[0, 2]\n[2, 0]\n[2, 0]]", fillcolor="#e58139"] ;
191 -> 192 ;
193 [label="gini = 0.0\nsamples = 2\nvalue = [[2, 0]\n[2, 0]\n[2, 0]\n[0, 2]\n[2, 0]\n[2, 0]\n[2, 0]]", fillcolor="#e58139"] ;
191 -> 193 ;
194 [label="total sulfur dioxide <= 117.5\ngini = 0.041\nsamples = 26\nvalue = [[26, 0]\n[26, 0]\n[26, 0]\n[25, 1]\n[2, 24]\n[25, 1]\n[26, 0]]", fillcolor="#ea985e"] ;
190 -> 194 ;
195 [label="gini = 0.0\nsamples = 19\nvalue = [[19, 0]\n[19, 0]\n[19, 0]\n[19, 0]\n[0, 19]\n[19, 0]\n[19, 0]]", fillcolor="#e58139"] ;
194 -> 195 ;
196 [label="fixed acidity <= 5.55\ngini = 0.128\nsamples = 7\nvalue = [[7, 0]\n[7, 0]\n[7, 0]\n[6, 1]\n[2, 5]\n[6, 1]\n[7, 0]]", fillcolor="#f4caab"] ;
194 -> 196 ;
197 [label="volatile acidity <= 0.32\ngini = 0.143\nsamples = 2\nvalue = [[2, 0]\n[2, 0]\n[2, 0]\n[1, 1]\n[2, 0]\n[1, 1]\n[2, 0]]", fillcolor="#f6d2b8"] ;
196 -> 197 ;
198 [label="gini = 0.0\nsamples = 1\nvalue = [[1, 0]\n[1, 0]\n[1, 0]\n[0, 1]\n[1, 0]\n[1, 0]\n[1, 0]]", fillcolor="#e58139"] ;
197 -> 198 ;
199 [label="gini = 0.0\nsamples = 1\nvalue = [[1, 0]\n[1, 0]\n[1, 0]\n[1, 0]\n[1, 0]\n[0, 1]\n[1, 0]]", fillcolor="#e58139"] ;
197 -> 199 ;
200 [label="gini = 0.0\nsamples = 5\nvalue = [[5, 0]\n[5, 0]\n[5, 0]\n[5, 0]\n[0, 5]\n[5, 0]\n[5, 0]]", fillcolor="#e58139"] ;
196 -> 200 ;
201 [label="gini = 0.0\nsamples = 1\nvalue = [[1, 0]\n[1, 0]\n[1, 0]\n[0, 1]\n[1, 0]\n[1, 0]\n[1, 0]]", fillcolor="#e58139"] ;
189 -> 201 ;
202 [label="gini = 0.0\nsamples = 1\nvalue = [[1, 0]\n[1, 0]\n[1, 0]\n[1, 0]\n[1, 0]\n[0, 1]\n[1, 0]]", fillcolor="#e58139"] ;
180 -> 202 ;
203 [label="gini = 0.0\nsamples = 2\nvalue = [[2, 0]\n[2, 0]\n[2, 0]\n[0, 2]\n[2, 0]\n[2, 0]\n[2, 0]]", fillcolor="#e58139"] ;
179 -> 203 ;
204 [label="alcohol <= 11.2\ngini = 0.147\nsamples = 46\nvalue = [[46, 0]\n[46, 0]\n[46, 0]\n[21, 25]\n[26, 20]\n[45, 1]\n[46, 0]]", fillcolor="#f6d4bc"] ;
178 -> 204 ;
205 [label="fixed acidity <= 5.7\ngini = 0.107\nsamples = 8\nvalue = [[8, 0]\n[8, 0]\n[8, 0]\n[6, 2]\n[2, 6]\n[8, 0]\n[8, 0]]", fillcolor="#f2be98"] ;
204 -> 205 ;
206 [label="gini = 0.0\nsamples = 2\nvalue = [[2, 0]\n[2, 0]\n[2, 0]\n[0, 2]\n[2, 0]\n[2, 0]\n[2, 0]]", fillcolor="#e58139"] ;
205 -> 206 ;
207 [label="gini = 0.0\nsamples = 6\nvalue = [[6, 0]\n[6, 0]\n[6, 0]\n[6, 0]\n[0, 6]\n[6, 0]\n[6, 0]]", fillcolor="#e58139"] ;
205 -> 207 ;
208 [label="density <= 0.989\ngini = 0.142\nsamples = 38\nvalue = [[38, 0]\n[38, 0]\n[38, 0]\n[15, 23]\n[24, 14]\n[37, 1]\n[38, 0]]", fillcolor="#f6d2b8"] ;
204 -> 208 ;
209 [label="gini = 0.0\nsamples = 6\nvalue = [[6, 0]\n[6, 0]\n[6, 0]\n[0, 6]\n[6, 0]\n[6, 0]\n[6, 0]]", fillcolor="#e58139"] ;
208 -> 209 ;
210 [label="volatile acidity <= 0.285\ngini = 0.15\nsamples = 32\nvalue = [[32, 0]\n[32, 0]\n[32, 0]\n[15, 17]\n[18, 14]\n[31, 1]\n[32, 0]]", fillcolor="#f7d6bf"] ;
208 -> 210 ;
211 [label="free sulfur dioxide <= 58.0\ngini = 0.096\nsamples = 14\nvalue = [[14, 0]\n[14, 0]\n[14, 0]\n[3, 11]\n[11, 3]\n[14, 0]\n[14, 0]]", fillcolor="#f0b88f"] ;
210 -> 211 ;
212 [label="chlorides <= 0.037\ngini = 0.074\nsamples = 13\nvalue = [[13, 0]\n[13, 0]\n[13, 0]\n[2, 11]\n[11, 2]\n[13, 0]\n[13, 0]]", fillcolor="#eeab7b"] ;
211 -> 212 ;
213 [label="gini = 0.0\nsamples = 9\nvalue = [[9, 0]\n[9, 0]\n[9, 0]\n[0, 9]\n[9, 0]\n[9, 0]\n[9, 0]]", fillcolor="#e58139"] ;
212 -> 213 ;
214 [label="free sulfur dioxide <= 49.5\ngini = 0.143\nsamples = 4\nvalue = [[4, 0]\n[4, 0]\n[4, 0]\n[2, 2]\n[2, 2]\n[4, 0]\n[4, 0]]", fillcolor="#f6d2b8"] ;
212 -> 214 ;
215 [label="pH <= 3.14\ngini = 0.127\nsamples = 3\nvalue = [[3, 0]\n[3, 0]\n[3, 0]\n[2, 1]\n[1, 2]\n[3, 0]\n[3, 0]]", fillcolor="#f4c9aa"] ;
214 -> 215 ;
216 [label="gini = 0.0\nsamples = 1\nvalue = [[1, 0]\n[1, 0]\n[1, 0]\n[0, 1]\n[1, 0]\n[1, 0]\n[1, 0]]", fillcolor="#e58139"] ;
215 -> 216 ;
217 [label="gini = 0.0\nsamples = 2\nvalue = [[2, 0]\n[2, 0]\n[2, 0]\n[2, 0]\n[0, 2]\n[2, 0]\n[2, 0]]", fillcolor="#e58139"] ;
215 -> 217 ;
218 [label="gini = 0.0\nsamples = 1\nvalue = [[1, 0]\n[1, 0]\n[1, 0]\n[0, 1]\n[1, 0]\n[1, 0]\n[1, 0]]", fillcolor="#e58139"] ;
214 -> 218 ;
219 [label="gini = 0.0\nsamples = 1\nvalue = [[1, 0]\n[1, 0]\n[1, 0]\n[1, 0]\n[0, 1]\n[1, 0]\n[1, 0]]", fillcolor="#e58139"] ;
211 -> 219 ;
220 [label="chlorides <= 0.036\ngini = 0.146\nsamples = 18\nvalue = [[18, 0]\n[18, 0]\n[18, 0]\n[12, 6]\n[7, 11]\n[17, 1]\n[18, 0]]", fillcolor="#f6d4bb"] ;
210 -> 220 ;
221 [label="pH <= 3.25\ngini = 0.119\nsamples = 15\nvalue = [[15, 0]\n[15, 0]\n[15, 0]\n[12, 3]\n[4, 11]\n[14, 1]\n[15, 0]]", fillcolor="#f3c5a3"] ;
220 -> 221 ;
222 [label="density <= 0.99\ngini = 0.179\nsamples = 4\nvalue = [[4, 0]\n[4, 0]\n[4, 0]\n[2, 2]\n[3, 1]\n[3, 1]\n[4, 0]]", fillcolor="#fae6d8"] ;
221 -> 222 ;
223 [label="pH <= 3.18\ngini = 0.143\nsamples = 2\nvalue = [[2, 0]\n[2, 0]\n[2, 0]\n[2, 0]\n[1, 1]\n[1, 1]\n[2, 0]]", fillcolor="#f6d2b8"] ;
222 -> 223 ;
224 [label="gini = 0.0\nsamples = 1\nvalue = [[1, 0]\n[1, 0]\n[1, 0]\n[1, 0]\n[1, 0]\n[0, 1]\n[1, 0]]", fillcolor="#e58139"] ;
223 -> 224 ;
225 [label="gini = 0.0\nsamples = 1\nvalue = [[1, 0]\n[1, 0]\n[1, 0]\n[1, 0]\n[0, 1]\n[1, 0]\n[1, 0]]", fillcolor="#e58139"] ;
223 -> 225 ;
226 [label="gini = 0.0\nsamples = 2\nvalue = [[2, 0]\n[2, 0]\n[2, 0]\n[0, 2]\n[2, 0]\n[2, 0]\n[2, 0]]", fillcolor="#e58139"] ;
222 -> 226 ;
227 [label="free sulfur dioxide <= 24.5\ngini = 0.047\nsamples = 11\nvalue = [[11, 0]\n[11, 0]\n[11, 0]\n[10, 1]\n[1, 10]\n[11, 0]\n[11, 0]]", fillcolor="#eb9c63"] ;
221 -> 227 ;
228 [label="gini = 0.0\nsamples = 1\nvalue = [[1, 0]\n[1, 0]\n[1, 0]\n[0, 1]\n[1, 0]\n[1, 0]\n[1, 0]]", fillcolor="#e58139"] ;
227 -> 228 ;
229 [label="gini = 0.0\nsamples = 10\nvalue = [[10, 0]\n[10, 0]\n[10, 0]\n[10, 0]\n[0, 10]\n[10, 0]\n[10, 0]]", fillcolor="#e58139"] ;
227 -> 229 ;
230 [label="gini = 0.0\nsamples = 3\nvalue = [[3, 0]\n[3, 0]\n[3, 0]\n[0, 3]\n[3, 0]\n[3, 0]\n[3, 0]]", fillcolor="#e58139"] ;
220 -> 230 ;
231 [label="sulphates <= 0.705\ngini = 0.118\nsamples = 91\nvalue = [[91, 0]\n[91, 0]\n[90, 1]\n[72, 19]\n[24, 67]\n[87, 4]\n[91, 0]]", fillcolor="#f3c4a2"] ;
177 -> 231 ;
232 [label="free sulfur dioxide <= 43.5\ngini = 0.113\nsamples = 89\nvalue = [[89, 0]\n[89, 0]\n[88, 1]\n[72, 17]\n[22, 67]\n[85, 4]\n[89, 0]]", fillcolor="#f2c19d"] ;
231 -> 232 ;
233 [label="volatile acidity <= 0.415\ngini = 0.124\nsamples = 78\nvalue = [[78, 0]\n[78, 0]\n[77, 1]\n[61, 17]\n[22, 56]\n[74, 4]\n[78, 0]]", fillcolor="#f4c7a8"] ;
232 -> 233 ;
234 [label="chlorides <= 0.025\ngini = 0.119\nsamples = 76\nvalue = [[76, 0]\n[76, 0]\n[75, 1]\n[61, 15]\n[20, 56]\n[72, 4]\n[76, 0]]", fillcolor="#f3c4a3"] ;
233 -> 234 ;
235 [label="density <= 0.991\ngini = 0.162\nsamples = 9\nvalue = [[9, 0]\n[9, 0]\n[9, 0]\n[4, 5]\n[6, 3]\n[8, 1]\n[9, 0]]", fillcolor="#f8ddca"] ;
234 -> 235 ;
236 [label="residual sugar <= 1.85\ngini = 0.127\nsamples = 3\nvalue = [[3, 0]\n[3, 0]\n[3, 0]\n[3, 0]\n[1, 2]\n[2, 1]\n[3, 0]]", fillcolor="#f4c9aa"] ;
235 -> 236 ;
237 [label="gini = 0.0\nsamples = 1\nvalue = [[1, 0]\n[1, 0]\n[1, 0]\n[1, 0]\n[1, 0]\n[0, 1]\n[1, 0]]", fillcolor="#e58139"] ;
236 -> 237 ;
238 [label="gini = 0.0\nsamples = 2\nvalue = [[2, 0]\n[2, 0]\n[2, 0]\n[2, 0]\n[0, 2]\n[2, 0]\n[2, 0]]", fillcolor="#e58139"] ;
236 -> 238 ;
239 [label="citric acid <= 0.325\ngini = 0.079\nsamples = 6\nvalue = [[6, 0]\n[6, 0]\n[6, 0]\n[1, 5]\n[5, 1]\n[6, 0]\n[6, 0]]", fillcolor="#eeae80"] ;
235 -> 239 ;
240 [label="gini = 0.0\nsamples = 5\nvalue = [[5, 0]\n[5, 0]\n[5, 0]\n[0, 5]\n[5, 0]\n[5, 0]\n[5, 0]]", fillcolor="#e58139"] ;
239 -> 240 ;
241 [label="gini = 0.0\nsamples = 1\nvalue = [[1, 0]\n[1, 0]\n[1, 0]\n[1, 0]\n[0, 1]\n[1, 0]\n[1, 0]]", fillcolor="#e58139"] ;
239 -> 241 ;
242 [label="alcohol <= 10.95\ngini = 0.1\nsamples = 67\nvalue = [[67, 0]\n[67, 0]\n[66, 1]\n[57, 10]\n[14, 53]\n[64, 3]\n[67, 0]]", fillcolor="#f1ba92"] ;
234 -> 242 ;
243 [label="fixed acidity <= 6.5\ngini = 0.127\nsamples = 3\nvalue = [[3, 0]\n[3, 0]\n[3, 0]\n[1, 2]\n[2, 1]\n[3, 0]\n[3, 0]]", fillcolor="#f4c9aa"] ;
242 -> 243 ;
244 [label="gini = 0.0\nsamples = 1\nvalue = [[1, 0]\n[1, 0]\n[1, 0]\n[1, 0]\n[0, 1]\n[1, 0]\n[1, 0]]", fillcolor="#e58139"] ;
243 -> 244 ;
245 [label="gini = 0.0\nsamples = 2\nvalue = [[2, 0]\n[2, 0]\n[2, 0]\n[0, 2]\n[2, 0]\n[2, 0]\n[2, 0]]", fillcolor="#e58139"] ;
243 -> 245 ;
246 [label="sulphates <= 0.39\ngini = 0.092\nsamples = 64\nvalue = [[64, 0]\n[64, 0]\n[63, 1]\n[56, 8]\n[12, 52]\n[61, 3]\n[64, 0]]", fillcolor="#f0b58b"] ;
242 -> 246 ;
247 [label="fixed acidity <= 6.95\ngini = 0.127\nsamples = 12\nvalue = [[12, 0]\n[12, 0]\n[12, 0]\n[8, 4]\n[4, 8]\n[12, 0]\n[12, 0]]", fillcolor="#f4c9aa"] ;
246 -> 247 ;
248 [label="free sulfur dioxide <= 29.0\ngini = 0.14\nsamples = 7\nvalue = [[7, 0]\n[7, 0]\n[7, 0]\n[3, 4]\n[4, 3]\n[7, 0]\n[7, 0]]", fillcolor="#f5d0b6"] ;
247 -> 248 ;
249 [label="gini = 0.0\nsamples = 3\nvalue = [[3, 0]\n[3, 0]\n[3, 0]\n[0, 3]\n[3, 0]\n[3, 0]\n[3, 0]]", fillcolor="#e58139"] ;
248 -> 249 ;
250 [label="free sulfur dioxide <= 33.0\ngini = 0.107\nsamples = 4\nvalue = [[4, 0]\n[4, 0]\n[4, 0]\n[3, 1]\n[1, 3]\n[4, 0]\n[4, 0]]", fillcolor="#f2be98"] ;
248 -> 250 ;
251 [label="gini = 0.0\nsamples = 2\nvalue = [[2, 0]\n[2, 0]\n[2, 0]\n[2, 0]\n[0, 2]\n[2, 0]\n[2, 0]]", fillcolor="#e58139"] ;
250 -> 251 ;
252 [label="density <= 0.99\ngini = 0.143\nsamples = 2\nvalue = [[2, 0]\n[2, 0]\n[2, 0]\n[1, 1]\n[1, 1]\n[2, 0]\n[2, 0]]", fillcolor="#f6d2b8"] ;
250 -> 252 ;
253 [label="gini = 0.0\nsamples = 1\nvalue = [[1, 0]\n[1, 0]\n[1, 0]\n[0, 1]\n[1, 0]\n[1, 0]\n[1, 0]]", fillcolor="#e58139"] ;
252 -> 253 ;
254 [label="gini = 0.0\nsamples = 1\nvalue = [[1, 0]\n[1, 0]\n[1, 0]\n[1, 0]\n[0, 1]\n[1, 0]\n[1, 0]]", fillcolor="#e58139"] ;
252 -> 254 ;
255 [label="gini = 0.0\nsamples = 5\nvalue = [[5, 0]\n[5, 0]\n[5, 0]\n[5, 0]\n[0, 5]\n[5, 0]\n[5, 0]]", fillcolor="#e58139"] ;
247 -> 255 ;
256 [label="residual sugar <= 1.35\ngini = 0.078\nsamples = 52\nvalue = [[52, 0]\n[52, 0]\n[51, 1]\n[48, 4]\n[8, 44]\n[49, 3]\n[52, 0]]", fillcolor="#eead7f"] ;
246 -> 256 ;
257 [label="pH <= 3.155\ngini = 0.143\nsamples = 4\nvalue = [[4, 0]\n[4, 0]\n[4, 0]\n[2, 2]\n[2, 2]\n[4, 0]\n[4, 0]]", fillcolor="#f6d2b8"] ;
256 -> 257 ;
258 [label="gini = 0.0\nsamples = 2\nvalue = [[2, 0]\n[2, 0]\n[2, 0]\n[2, 0]\n[0, 2]\n[2, 0]\n[2, 0]]", fillcolor="#e58139"] ;
257 -> 258 ;
259 [label="gini = 0.0\nsamples = 2\nvalue = [[2, 0]\n[2, 0]\n[2, 0]\n[0, 2]\n[2, 0]\n[2, 0]\n[2, 0]]", fillcolor="#e58139"] ;
257 -> 259 ;
260 [label="fixed acidity <= 6.35\ngini = 0.065\nsamples = 48\nvalue = [[48, 0]\n[48, 0]\n[47, 1]\n[46, 2]\n[6, 42]\n[45, 3]\n[48, 0]]", fillcolor="#eda673"] ;
256 -> 260 ;
261 [label="gini = 0.0\nsamples = 1\nvalue = [[1, 0]\n[1, 0]\n[0, 1]\n[1, 0]\n[1, 0]\n[1, 0]\n[1, 0]]", fillcolor="#e58139"] ;
260 -> 261 ;
262 [label="density <= 0.991\ngini = 0.056\nsamples = 47\nvalue = [[47, 0]\n[47, 0]\n[47, 0]\n[45, 2]\n[5, 42]\n[44, 3]\n[47, 0]]", fillcolor="#eca16b"] ;
260 -> 262 ;
263 [label="chlorides <= 0.028\ngini = 0.104\nsamples = 23\nvalue = [[23, 0]\n[23, 0]\n[23, 0]\n[21, 2]\n[5, 18]\n[20, 3]\n[23, 0]]", fillcolor="#f1bc95"] ;
262 -> 263 ;
264 [label="fixed acidity <= 6.85\ngini = 0.143\nsamples = 2\nvalue = [[2, 0]\n[2, 0]\n[2, 0]\n[1, 1]\n[2, 0]\n[1, 1]\n[2, 0]]", fillcolor="#f6d2b8"] ;
263 -> 264 ;
265 [label="gini = 0.0\nsamples = 1\nvalue = [[1, 0]\n[1, 0]\n[1, 0]\n[1, 0]\n[1, 0]\n[0, 1]\n[1, 0]]", fillcolor="#e58139"] ;
264 -> 265 ;
266 [label="gini = 0.0\nsamples = 1\nvalue = [[1, 0]\n[1, 0]\n[1, 0]\n[0, 1]\n[1, 0]\n[1, 0]\n[1, 0]]", fillcolor="#e58139"] ;
264 -> 266 ;
267 [label="chlorides <= 0.036\ngini = 0.073\nsamples = 21\nvalue = [[21, 0]\n[21, 0]\n[21, 0]\n[20, 1]\n[3, 18]\n[19, 2]\n[21, 0]]", fillcolor="#edaa7a"] ;
263 -> 267 ;
268 [label="residual sugar <= 3.35\ngini = 0.033\nsamples = 16\nvalue = [[16, 0]\n[16, 0]\n[16, 0]\n[15, 1]\n[1, 15]\n[16, 0]\n[16, 0]]", fillcolor="#e99457"] ;
267 -> 268 ;
269 [label="gini = 0.0\nsamples = 10\nvalue = [[10, 0]\n[10, 0]\n[10, 0]\n[10, 0]\n[0, 10]\n[10, 0]\n[10, 0]]", fillcolor="#e58139"] ;
268 -> 269 ;
270 [label="gini = 0.079\nsamples = 6\nvalue = [[6, 0]\n[6, 0]\n[6, 0]\n[5, 1]\n[1, 5]\n[6, 0]\n[6, 0]]", fillcolor="#eeae80"] ;
268 -> 270 ;
271 [label="alcohol <= 12.8\ngini = 0.137\nsamples = 5\nvalue = [[5, 0]\n[5, 0]\n[5, 0]\n[5, 0]\n[2, 3]\n[3, 2]\n[5, 0]]", fillcolor="#f5cfb3"] ;
267 -> 271 ;
272 [label="gini = 0.127\nsamples = 3\nvalue = [[3, 0]\n[3, 0]\n[3, 0]\n[3, 0]\n[2, 1]\n[1, 2]\n[3, 0]]", fillcolor="#f4c9aa"] ;
271 -> 272 ;
273 [label="gini = 0.0\nsamples = 2\nvalue = [[2, 0]\n[2, 0]\n[2, 0]\n[2, 0]\n[0, 2]\n[2, 0]\n[2, 0]]", fillcolor="#e58139"] ;
271 -> 273 ;
274 [label="gini = 0.0\nsamples = 24\nvalue = [[24, 0]\n[24, 0]\n[24, 0]\n[24, 0]\n[0, 24]\n[24, 0]\n[24, 0]]", fillcolor="#e58139"] ;
262 -> 274 ;
275 [label="gini = 0.0\nsamples = 2\nvalue = [[2, 0]\n[2, 0]\n[2, 0]\n[0, 2]\n[2, 0]\n[2, 0]\n[2, 0]]", fillcolor="#e58139"] ;
233 -> 275 ;
276 [label="gini = 0.0\nsamples = 11\nvalue = [[11, 0]\n[11, 0]\n[11, 0]\n[11, 0]\n[0, 11]\n[11, 0]\n[11, 0]]", fillcolor="#e58139"] ;
232 -> 276 ;
277 [label="gini = 0.0\nsamples = 2\nvalue = [[2, 0]\n[2, 0]\n[2, 0]\n[0, 2]\n[2, 0]\n[2, 0]\n[2, 0]]", fillcolor="#e58139"] ;
231 -> 277 ;
278 [label="sulphates <= 0.375\ngini = 0.143\nsamples = 23\nvalue = [[23, 0]\n[23, 0]\n[23, 0]\n[21, 2]\n[8, 15]\n[17, 6]\n[23, 0]]", fillcolor="#f6d2b8"] ;
176 -> 278 ;
279 [label="citric acid <= 0.07\ngini = 0.137\nsamples = 5\nvalue = [[5, 0]\n[5, 0]\n[5, 0]\n[3, 2]\n[5, 0]\n[2, 3]\n[5, 0]]", fillcolor="#f5cfb3"] ;
278 -> 279 ;
280 [label="gini = 0.0\nsamples = 2\nvalue = [[2, 0]\n[2, 0]\n[2, 0]\n[2, 0]\n[2, 0]\n[0, 2]\n[2, 0]]", fillcolor="#e58139"] ;
279 -> 280 ;
281 [label="sulphates <= 0.305\ngini = 0.127\nsamples = 3\nvalue = [[3, 0]\n[3, 0]\n[3, 0]\n[1, 2]\n[3, 0]\n[2, 1]\n[3, 0]]", fillcolor="#f4c9aa"] ;
279 -> 281 ;
282 [label="gini = 0.0\nsamples = 1\nvalue = [[1, 0]\n[1, 0]\n[1, 0]\n[1, 0]\n[1, 0]\n[0, 1]\n[1, 0]]", fillcolor="#e58139"] ;
281 -> 282 ;
283 [label="gini = 0.0\nsamples = 2\nvalue = [[2, 0]\n[2, 0]\n[2, 0]\n[0, 2]\n[2, 0]\n[2, 0]\n[2, 0]]", fillcolor="#e58139"] ;
281 -> 283 ;
284 [label="residual sugar <= 3.4\ngini = 0.079\nsamples = 18\nvalue = [[18, 0]\n[18, 0]\n[18, 0]\n[18, 0]\n[3, 15]\n[15, 3]\n[18, 0]]", fillcolor="#eeae80"] ;
278 -> 284 ;
285 [label="fixed acidity <= 6.05\ngini = 0.134\nsamples = 8\nvalue = [[8, 0]\n[8, 0]\n[8, 0]\n[8, 0]\n[3, 5]\n[5, 3]\n[8, 0]]", fillcolor="#f5cdb0"] ;
284 -> 285 ;
286 [label="residual sugar <= 2.05\ngini = 0.107\nsamples = 4\nvalue = [[4, 0]\n[4, 0]\n[4, 0]\n[4, 0]\n[3, 1]\n[1, 3]\n[4, 0]]", fillcolor="#f2be98"] ;
285 -> 286 ;
287 [label="gini = 0.0\nsamples = 1\nvalue = [[1, 0]\n[1, 0]\n[1, 0]\n[1, 0]\n[0, 1]\n[1, 0]\n[1, 0]]", fillcolor="#e58139"] ;
286 -> 287 ;
288 [label="gini = 0.0\nsamples = 3\nvalue = [[3, 0]\n[3, 0]\n[3, 0]\n[3, 0]\n[3, 0]\n[0, 3]\n[3, 0]]", fillcolor="#e58139"] ;
286 -> 288 ;
289 [label="gini = 0.0\nsamples = 4\nvalue = [[4, 0]\n[4, 0]\n[4, 0]\n[4, 0]\n[0, 4]\n[4, 0]\n[4, 0]]", fillcolor="#e58139"] ;
285 -> 289 ;
290 [label="gini = 0.0\nsamples = 10\nvalue = [[10, 0]\n[10, 0]\n[10, 0]\n[10, 0]\n[0, 10]\n[10, 0]\n[10, 0]]", fillcolor="#e58139"] ;
284 -> 290 ;
291 [label="residual sugar <= 5.4\ngini = 0.175\nsamples = 6\nvalue = [[6, 0]\n[6, 0]\n[4, 2]\n[3, 3]\n[5, 1]\n[6, 0]\n[6, 0]]", fillcolor="#f9e4d5"] ;
175 -> 291 ;
292 [label="total sulfur dioxide <= 125.0\ngini = 0.137\nsamples = 5\nvalue = [[5, 0]\n[5, 0]\n[3, 2]\n[2, 3]\n[5, 0]\n[5, 0]\n[5, 0]]", fillcolor="#f5cfb3"] ;
291 -> 292 ;
293 [label="sulphates <= 0.375\ngini = 0.127\nsamples = 3\nvalue = [[3, 0]\n[3, 0]\n[1, 2]\n[2, 1]\n[3, 0]\n[3, 0]\n[3, 0]]", fillcolor="#f4c9aa"] ;
292 -> 293 ;
294 [label="gini = 0.0\nsamples = 2\nvalue = [[2, 0]\n[2, 0]\n[0, 2]\n[2, 0]\n[2, 0]\n[2, 0]\n[2, 0]]", fillcolor="#e58139"] ;
293 -> 294 ;
295 [label="gini = 0.0\nsamples = 1\nvalue = [[1, 0]\n[1, 0]\n[1, 0]\n[0, 1]\n[1, 0]\n[1, 0]\n[1, 0]]", fillcolor="#e58139"] ;
293 -> 295 ;
296 [label="gini = 0.0\nsamples = 2\nvalue = [[2, 0]\n[2, 0]\n[2, 0]\n[0, 2]\n[2, 0]\n[2, 0]\n[2, 0]]", fillcolor="#e58139"] ;
292 -> 296 ;
297 [label="gini = 0.0\nsamples = 1\nvalue = [[1, 0]\n[1, 0]\n[1, 0]\n[1, 0]\n[0, 1]\n[1, 0]\n[1, 0]]", fillcolor="#e58139"] ;
291 -> 297 ;
298 [label="alcohol <= 12.75\ngini = 0.172\nsamples = 79\nvalue = [[78, 1]\n[79, 0]\n[76, 3]\n[46, 33]\n[42, 37]\n[76, 3]\n[77, 2]]", fillcolor="#f9e3d2"] ;
174 -> 298 ;
299 [label="density <= 0.99\ngini = 0.173\nsamples = 67\nvalue = [[66, 1]\n[67, 0]\n[64, 3]\n[35, 32]\n[40, 27]\n[65, 2]\n[65, 2]]", fillcolor="#f9e3d3"] ;
298 -> 299 ;
300 [label="residual sugar <= 0.9\ngini = 0.115\nsamples = 12\nvalue = [[12, 0]\n[12, 0]\n[12, 0]\n[3, 9]\n[10, 2]\n[11, 1]\n[12, 0]]", fillcolor="#f2c2a0"] ;
299 -> 300 ;
301 [label="gini = 0.0\nsamples = 1\nvalue = [[1, 0]\n[1, 0]\n[1, 0]\n[1, 0]\n[1, 0]\n[0, 1]\n[1, 0]]", fillcolor="#e58139"] ;
300 -> 301 ;
302 [label="density <= 0.989\ngini = 0.085\nsamples = 11\nvalue = [[11, 0]\n[11, 0]\n[11, 0]\n[2, 9]\n[9, 2]\n[11, 0]\n[11, 0]]", fillcolor="#efb185"] ;
300 -> 302 ;
303 [label="gini = 0.0\nsamples = 1\nvalue = [[1, 0]\n[1, 0]\n[1, 0]\n[1, 0]\n[0, 1]\n[1, 0]\n[1, 0]]", fillcolor="#e58139"] ;
302 -> 303 ;
304 [label="free sulfur dioxide <= 42.5\ngini = 0.051\nsamples = 10\nvalue = [[10, 0]\n[10, 0]\n[10, 0]\n[1, 9]\n[9, 1]\n[10, 0]\n[10, 0]]", fillcolor="#eb9e67"] ;
302 -> 304 ;
305 [label="gini = 0.0\nsamples = 8\nvalue = [[8, 0]\n[8, 0]\n[8, 0]\n[0, 8]\n[8, 0]\n[8, 0]\n[8, 0]]", fillcolor="#e58139"] ;
304 -> 305 ;
306 [label="chlorides <= 0.029\ngini = 0.143\nsamples = 2\nvalue = [[2, 0]\n[2, 0]\n[2, 0]\n[1, 1]\n[1, 1]\n[2, 0]\n[2, 0]]", fillcolor="#f6d2b8"] ;
304 -> 306 ;
307 [label="gini = 0.0\nsamples = 1\nvalue = [[1, 0]\n[1, 0]\n[1, 0]\n[0, 1]\n[1, 0]\n[1, 0]\n[1, 0]]", fillcolor="#e58139"] ;
306 -> 307 ;
308 [label="gini = 0.0\nsamples = 1\nvalue = [[1, 0]\n[1, 0]\n[1, 0]\n[1, 0]\n[0, 1]\n[1, 0]\n[1, 0]]", fillcolor="#e58139"] ;
306 -> 308 ;
309 [label="residual sugar <= 1.25\ngini = 0.175\nsamples = 55\nvalue = [[54, 1]\n[55, 0]\n[52, 3]\n[32, 23]\n[30, 25]\n[54, 1]\n[53, 2]]", fillcolor="#fae4d5"] ;
299 -> 309 ;
310 [label="fixed acidity <= 7.85\ngini = 0.116\nsamples = 8\nvalue = [[7, 1]\n[8, 0]\n[7, 1]\n[2, 6]\n[8, 0]\n[8, 0]\n[8, 0]]", fillcolor="#f3c3a0"] ;
309 -> 310 ;
311 [label="pH <= 3.125\ngini = 0.07\nsamples = 7\nvalue = [[7, 0]\n[7, 0]\n[6, 1]\n[1, 6]\n[7, 0]\n[7, 0]\n[7, 0]]", fillcolor="#eda977"] ;
310 -> 311 ;
312 [label="alcohol <= 11.75\ngini = 0.143\nsamples = 2\nvalue = [[2, 0]\n[2, 0]\n[1, 1]\n[1, 1]\n[2, 0]\n[2, 0]\n[2, 0]]", fillcolor="#f6d2b8"] ;
311 -> 312 ;
313 [label="gini = 0.0\nsamples = 1\nvalue = [[1, 0]\n[1, 0]\n[0, 1]\n[1, 0]\n[1, 0]\n[1, 0]\n[1, 0]]", fillcolor="#e58139"] ;
312 -> 313 ;
314 [label="gini = 0.0\nsamples = 1\nvalue = [[1, 0]\n[1, 0]\n[1, 0]\n[0, 1]\n[1, 0]\n[1, 0]\n[1, 0]]", fillcolor="#e58139"] ;
312 -> 314 ;
315 [label="gini = 0.0\nsamples = 5\nvalue = [[5, 0]\n[5, 0]\n[5, 0]\n[0, 5]\n[5, 0]\n[5, 0]\n[5, 0]]", fillcolor="#e58139"] ;
311 -> 315 ;
316 [label="gini = 0.0\nsamples = 1\nvalue = [[0, 1]\n[1, 0]\n[1, 0]\n[1, 0]\n[1, 0]\n[1, 0]\n[1, 0]]", fillcolor="#e58139"] ;
310 -> 316 ;
317 [label="volatile acidity <= 0.235\ngini = 0.166\nsamples = 47\nvalue = [[47, 0]\n[47, 0]\n[45, 2]\n[30, 17]\n[22, 25]\n[46, 1]\n[45, 2]]", fillcolor="#f8dfcd"] ;
309 -> 317 ;
318 [label="chlorides <= 0.026\ngini = 0.1\nsamples = 19\nvalue = [[19, 0]\n[19, 0]\n[18, 1]\n[16, 3]\n[4, 15]\n[19, 0]\n[19, 0]]", fillcolor="#f1ba92"] ;
317 -> 318 ;
319 [label="residual sugar <= 1.775\ngini = 0.143\nsamples = 2\nvalue = [[2, 0]\n[2, 0]\n[1, 1]\n[1, 1]\n[2, 0]\n[2, 0]\n[2, 0]]", fillcolor="#f6d2b8"] ;
318 -> 319 ;
320 [label="gini = 0.0\nsamples = 1\nvalue = [[1, 0]\n[1, 0]\n[0, 1]\n[1, 0]\n[1, 0]\n[1, 0]\n[1, 0]]", fillcolor="#e58139"] ;
319 -> 320 ;
321 [label="gini = 0.0\nsamples = 1\nvalue = [[1, 0]\n[1, 0]\n[1, 0]\n[0, 1]\n[1, 0]\n[1, 0]\n[1, 0]]", fillcolor="#e58139"] ;
319 -> 321 ;
322 [label="sulphates <= 0.35\ngini = 0.059\nsamples = 17\nvalue = [[17, 0]\n[17, 0]\n[17, 0]\n[15, 2]\n[2, 15]\n[17, 0]\n[17, 0]]", fillcolor="#eca36e"] ;
318 -> 322 ;
323 [label="gini = 0.0\nsamples = 1\nvalue = [[1, 0]\n[1, 0]\n[1, 0]\n[0, 1]\n[1, 0]\n[1, 0]\n[1, 0]]", fillcolor="#e58139"] ;
322 -> 323 ;
324 [label="fixed acidity <= 6.45\ngini = 0.033\nsamples = 16\nvalue = [[16, 0]\n[16, 0]\n[16, 0]\n[15, 1]\n[1, 15]\n[16, 0]\n[16, 0]]", fillcolor="#e99457"] ;
322 -> 324 ;
325 [label="fixed acidity <= 5.9\ngini = 0.127\nsamples = 3\nvalue = [[3, 0]\n[3, 0]\n[3, 0]\n[2, 1]\n[1, 2]\n[3, 0]\n[3, 0]]", fillcolor="#f4c9aa"] ;
324 -> 325 ;
326 [label="gini = 0.0\nsamples = 2\nvalue = [[2, 0]\n[2, 0]\n[2, 0]\n[2, 0]\n[0, 2]\n[2, 0]\n[2, 0]]", fillcolor="#e58139"] ;
325 -> 326 ;
327 [label="gini = 0.0\nsamples = 1\nvalue = [[1, 0]\n[1, 0]\n[1, 0]\n[0, 1]\n[1, 0]\n[1, 0]\n[1, 0]]", fillcolor="#e58139"] ;
325 -> 327 ;
328 [label="gini = 0.0\nsamples = 13\nvalue = [[13, 0]\n[13, 0]\n[13, 0]\n[13, 0]\n[0, 13]\n[13, 0]\n[13, 0]]", fillcolor="#e58139"] ;
324 -> 328 ;
329 [label="fixed acidity <= 6.55\ngini = 0.176\nsamples = 28\nvalue = [[28, 0]\n[28, 0]\n[27, 1]\n[14, 14]\n[18, 10]\n[27, 1]\n[26, 2]]", fillcolor="#fae5d6"] ;
317 -> 329 ;
330 [label="volatile acidity <= 0.39\ngini = 0.113\nsamples = 11\nvalue = [[11, 0]\n[11, 0]\n[11, 0]\n[8, 3]\n[3, 8]\n[11, 0]\n[11, 0]]", fillcolor="#f2c19e"] ;
329 -> 330 ;
331 [label="residual sugar <= 6.15\ngini = 0.056\nsamples = 9\nvalue = [[9, 0]\n[9, 0]\n[9, 0]\n[8, 1]\n[1, 8]\n[9, 0]\n[9, 0]]", fillcolor="#eca16b"] ;
330 -> 331 ;
332 [label="gini = 0.0\nsamples = 8\nvalue = [[8, 0]\n[8, 0]\n[8, 0]\n[8, 0]\n[0, 8]\n[8, 0]\n[8, 0]]", fillcolor="#e58139"] ;
331 -> 332 ;
333 [label="gini = 0.0\nsamples = 1\nvalue = [[1, 0]\n[1, 0]\n[1, 0]\n[0, 1]\n[1, 0]\n[1, 0]\n[1, 0]]", fillcolor="#e58139"] ;
331 -> 333 ;
334 [label="gini = 0.0\nsamples = 2\nvalue = [[2, 0]\n[2, 0]\n[2, 0]\n[0, 2]\n[2, 0]\n[2, 0]\n[2, 0]]", fillcolor="#e58139"] ;
330 -> 334 ;
335 [label="sulphates <= 0.415\ngini = 0.156\nsamples = 17\nvalue = [[17, 0]\n[17, 0]\n[16, 1]\n[6, 11]\n[15, 2]\n[16, 1]\n[15, 2]]", fillcolor="#f7dac4"] ;
329 -> 335 ;
336 [label="total sulfur dioxide <= 127.0\ngini = 0.206\nsamples = 5\nvalue = [[5, 0]\n[5, 0]\n[5, 0]\n[4, 1]\n[3, 2]\n[4, 1]\n[4, 1]]", fillcolor="#fdf6f0"] ;
335 -> 336 ;
337 [label="citric acid <= 0.35\ngini = 0.19\nsamples = 3\nvalue = [[3, 0]\n[3, 0]\n[3, 0]\n[2, 1]\n[3, 0]\n[2, 1]\n[2, 1]]", fillcolor="#fbede3"] ;
336 -> 337 ;
338 [label="gini = 0.0\nsamples = 1\nvalue = [[1, 0]\n[1, 0]\n[1, 0]\n[1, 0]\n[1, 0]\n[1, 0]\n[0, 1]]", fillcolor="#e58139"] ;
337 -> 338 ;
339 [label="alcohol <= 12.5\ngini = 0.143\nsamples = 2\nvalue = [[2, 0]\n[2, 0]\n[2, 0]\n[1, 1]\n[2, 0]\n[1, 1]\n[2, 0]]", fillcolor="#f6d2b8"] ;
337 -> 339 ;
340 [label="gini = 0.0\nsamples = 1\nvalue = [[1, 0]\n[1, 0]\n[1, 0]\n[0, 1]\n[1, 0]\n[1, 0]\n[1, 0]]", fillcolor="#e58139"] ;
339 -> 340 ;
341 [label="gini = 0.0\nsamples = 1\nvalue = [[1, 0]\n[1, 0]\n[1, 0]\n[1, 0]\n[1, 0]\n[0, 1]\n[1, 0]]", fillcolor="#e58139"] ;
339 -> 341 ;
342 [label="gini = 0.0\nsamples = 2\nvalue = [[2, 0]\n[2, 0]\n[2, 0]\n[2, 0]\n[0, 2]\n[2, 0]\n[2, 0]]", fillcolor="#e58139"] ;
336 -> 342 ;
343 [label="fixed acidity <= 6.75\ngini = 0.083\nsamples = 12\nvalue = [[12, 0]\n[12, 0]\n[11, 1]\n[2, 10]\n[12, 0]\n[12, 0]\n[11, 1]]", fillcolor="#efb083"] ;
335 -> 343 ;
344 [label="pH <= 3.27\ngini = 0.143\nsamples = 2\nvalue = [[2, 0]\n[2, 0]\n[1, 1]\n[1, 1]\n[2, 0]\n[2, 0]\n[2, 0]]", fillcolor="#f6d2b8"] ;
343 -> 344 ;
345 [label="gini = 0.0\nsamples = 1\nvalue = [[1, 0]\n[1, 0]\n[0, 1]\n[1, 0]\n[1, 0]\n[1, 0]\n[1, 0]]", fillcolor="#e58139"] ;
344 -> 345 ;
346 [label="gini = 0.0\nsamples = 1\nvalue = [[1, 0]\n[1, 0]\n[1, 0]\n[0, 1]\n[1, 0]\n[1, 0]\n[1, 0]]", fillcolor="#e58139"] ;
344 -> 346 ;
347 [label="pH <= 3.275\ngini = 0.051\nsamples = 10\nvalue = [[10, 0]\n[10, 0]\n[10, 0]\n[1, 9]\n[10, 0]\n[10, 0]\n[9, 1]]", fillcolor="#eb9e67"] ;
343 -> 347 ;
348 [label="gini = 0.0\nsamples = 8\nvalue = [[8, 0]\n[8, 0]\n[8, 0]\n[0, 8]\n[8, 0]\n[8, 0]\n[8, 0]]", fillcolor="#e58139"] ;
347 -> 348 ;
349 [label="density <= 0.991\ngini = 0.143\nsamples = 2\nvalue = [[2, 0]\n[2, 0]\n[2, 0]\n[1, 1]\n[2, 0]\n[2, 0]\n[1, 1]]", fillcolor="#f6d2b8"] ;
347 -> 349 ;
350 [label="gini = 0.0\nsamples = 1\nvalue = [[1, 0]\n[1, 0]\n[1, 0]\n[1, 0]\n[1, 0]\n[1, 0]\n[0, 1]]", fillcolor="#e58139"] ;
349 -> 350 ;
351 [label="gini = 0.0\nsamples = 1\nvalue = [[1, 0]\n[1, 0]\n[1, 0]\n[0, 1]\n[1, 0]\n[1, 0]\n[1, 0]]", fillcolor="#e58139"] ;
349 -> 351 ;
352 [label="fixed acidity <= 7.2\ngini = 0.083\nsamples = 12\nvalue = [[12, 0]\n[12, 0]\n[12, 0]\n[11, 1]\n[2, 10]\n[11, 1]\n[12, 0]]", fillcolor="#efb083"] ;
298 -> 352 ;
353 [label="residual sugar <= 1.2\ngini = 0.047\nsamples = 11\nvalue = [[11, 0]\n[11, 0]\n[11, 0]\n[11, 0]\n[1, 10]\n[10, 1]\n[11, 0]]", fillcolor="#eb9c63"] ;
352 -> 353 ;
354 [label="chlorides <= 0.033\ngini = 0.143\nsamples = 2\nvalue = [[2, 0]\n[2, 0]\n[2, 0]\n[2, 0]\n[1, 1]\n[1, 1]\n[2, 0]]", fillcolor="#f6d2b8"] ;
353 -> 354 ;
355 [label="gini = 0.0\nsamples = 1\nvalue = [[1, 0]\n[1, 0]\n[1, 0]\n[1, 0]\n[1, 0]\n[0, 1]\n[1, 0]]", fillcolor="#e58139"] ;
354 -> 355 ;
356 [label="gini = 0.0\nsamples = 1\nvalue = [[1, 0]\n[1, 0]\n[1, 0]\n[1, 0]\n[0, 1]\n[1, 0]\n[1, 0]]", fillcolor="#e58139"] ;
354 -> 356 ;
357 [label="gini = 0.0\nsamples = 9\nvalue = [[9, 0]\n[9, 0]\n[9, 0]\n[9, 0]\n[0, 9]\n[9, 0]\n[9, 0]]", fillcolor="#e58139"] ;
353 -> 357 ;
358 [label="gini = 0.0\nsamples = 1\nvalue = [[1, 0]\n[1, 0]\n[1, 0]\n[0, 1]\n[1, 0]\n[1, 0]\n[1, 0]]", fillcolor="#e58139"] ;
352 -> 358 ;
359 [label="free sulfur dioxide <= 57.0\ngini = 0.139\nsamples = 12\nvalue = [[12, 0]\n[12, 0]\n[12, 0]\n[5, 7]\n[12, 0]\n[7, 5]\n[12, 0]]", fillcolor="#f5d0b5"] ;
173 -> 359 ;
360 [label="density <= 0.991\ngini = 0.12\nsamples = 10\nvalue = [[10, 0]\n[10, 0]\n[10, 0]\n[3, 7]\n[10, 0]\n[7, 3]\n[10, 0]]", fillcolor="#f3c5a4"] ;
359 -> 360 ;
361 [label="density <= 0.991\ngini = 0.143\nsamples = 6\nvalue = [[6, 0]\n[6, 0]\n[6, 0]\n[3, 3]\n[6, 0]\n[3, 3]\n[6, 0]]", fillcolor="#f6d2b8"] ;
360 -> 361 ;
362 [label="sulphates <= 0.58\ngini = 0.107\nsamples = 4\nvalue = [[4, 0]\n[4, 0]\n[4, 0]\n[1, 3]\n[4, 0]\n[3, 1]\n[4, 0]]", fillcolor="#f2be98"] ;
361 -> 362 ;
363 [label="gini = 0.0\nsamples = 2\nvalue = [[2, 0]\n[2, 0]\n[2, 0]\n[0, 2]\n[2, 0]\n[2, 0]\n[2, 0]]", fillcolor="#e58139"] ;
362 -> 363 ;
364 [label="volatile acidity <= 0.19\ngini = 0.143\nsamples = 2\nvalue = [[2, 0]\n[2, 0]\n[2, 0]\n[1, 1]\n[2, 0]\n[1, 1]\n[2, 0]]", fillcolor="#f6d2b8"] ;
362 -> 364 ;
365 [label="gini = 0.0\nsamples = 1\nvalue = [[1, 0]\n[1, 0]\n[1, 0]\n[1, 0]\n[1, 0]\n[0, 1]\n[1, 0]]", fillcolor="#e58139"] ;
364 -> 365 ;
366 [label="gini = 0.0\nsamples = 1\nvalue = [[1, 0]\n[1, 0]\n[1, 0]\n[0, 1]\n[1, 0]\n[1, 0]\n[1, 0]]", fillcolor="#e58139"] ;
364 -> 366 ;
367 [label="gini = 0.0\nsamples = 2\nvalue = [[2, 0]\n[2, 0]\n[2, 0]\n[2, 0]\n[2, 0]\n[0, 2]\n[2, 0]]", fillcolor="#e58139"] ;
361 -> 367 ;
368 [label="gini = 0.0\nsamples = 4\nvalue = [[4, 0]\n[4, 0]\n[4, 0]\n[0, 4]\n[4, 0]\n[4, 0]\n[4, 0]]", fillcolor="#e58139"] ;
360 -> 368 ;
369 [label="gini = 0.0\nsamples = 2\nvalue = [[2, 0]\n[2, 0]\n[2, 0]\n[2, 0]\n[2, 0]\n[0, 2]\n[2, 0]]", fillcolor="#e58139"] ;
359 -> 369 ;
370 [label="residual sugar <= 4.85\ngini = 0.162\nsamples = 37\nvalue = [[36, 1]\n[36, 1]\n[37, 0]\n[14, 23]\n[31, 6]\n[32, 5]\n[36, 1]]", fillcolor="#f8ddc9"] ;
94 -> 370 ;
371 [label="sulphates <= 0.395\ngini = 0.115\nsamples = 28\nvalue = [[27, 1]\n[28, 0]\n[28, 0]\n[7, 21]\n[23, 5]\n[28, 0]\n[27, 1]]", fillcolor="#f2c2a0"] ;
370 -> 371 ;
372 [label="density <= 0.991\ngini = 0.143\nsamples = 6\nvalue = [[6, 0]\n[6, 0]\n[6, 0]\n[3, 3]\n[3, 3]\n[6, 0]\n[6, 0]]", fillcolor="#f6d2b8"] ;
371 -> 372 ;
373 [label="sulphates <= 0.32\ngini = 0.107\nsamples = 4\nvalue = [[4, 0]\n[4, 0]\n[4, 0]\n[3, 1]\n[1, 3]\n[4, 0]\n[4, 0]]", fillcolor="#f2be98"] ;
372 -> 373 ;
374 [label="gini = 0.0\nsamples = 1\nvalue = [[1, 0]\n[1, 0]\n[1, 0]\n[0, 1]\n[1, 0]\n[1, 0]\n[1, 0]]", fillcolor="#e58139"] ;
373 -> 374 ;
375 [label="gini = 0.0\nsamples = 3\nvalue = [[3, 0]\n[3, 0]\n[3, 0]\n[3, 0]\n[0, 3]\n[3, 0]\n[3, 0]]", fillcolor="#e58139"] ;
373 -> 375 ;
376 [label="gini = 0.0\nsamples = 2\nvalue = [[2, 0]\n[2, 0]\n[2, 0]\n[0, 2]\n[2, 0]\n[2, 0]\n[2, 0]]", fillcolor="#e58139"] ;
372 -> 376 ;
377 [label="volatile acidity <= 0.265\ngini = 0.091\nsamples = 22\nvalue = [[21, 1]\n[22, 0]\n[22, 0]\n[4, 18]\n[20, 2]\n[22, 0]\n[21, 1]]", fillcolor="#f0b58a"] ;
371 -> 377 ;
378 [label="citric acid <= 0.485\ngini = 0.139\nsamples = 13\nvalue = [[12, 1]\n[13, 0]\n[13, 0]\n[4, 9]\n[11, 2]\n[13, 0]\n[12, 1]]", fillcolor="#f5d0b5"] ;
377 -> 378 ;
379 [label="pH <= 3.445\ngini = 0.062\nsamples = 8\nvalue = [[7, 1]\n[8, 0]\n[8, 0]\n[1, 7]\n[8, 0]\n[8, 0]\n[8, 0]]", fillcolor="#eca471"] ;
378 -> 379 ;
380 [label="gini = 0.0\nsamples = 7\nvalue = [[7, 0]\n[7, 0]\n[7, 0]\n[0, 7]\n[7, 0]\n[7, 0]\n[7, 0]]", fillcolor="#e58139"] ;
379 -> 380 ;
381 [label="gini = 0.0\nsamples = 1\nvalue = [[0, 1]\n[1, 0]\n[1, 0]\n[1, 0]\n[1, 0]\n[1, 0]\n[1, 0]]", fillcolor="#e58139"] ;
379 -> 381 ;
382 [label="fixed acidity <= 7.35\ngini = 0.183\nsamples = 5\nvalue = [[5, 0]\n[5, 0]\n[5, 0]\n[3, 2]\n[3, 2]\n[5, 0]\n[4, 1]]", fillcolor="#fae9dc"] ;
378 -> 382 ;
383 [label="total sulfur dioxide <= 121.0\ngini = 0.127\nsamples = 3\nvalue = [[3, 0]\n[3, 0]\n[3, 0]\n[3, 0]\n[1, 2]\n[3, 0]\n[2, 1]]", fillcolor="#f4c9aa"] ;
382 -> 383 ;
384 [label="gini = 0.0\nsamples = 1\nvalue = [[1, 0]\n[1, 0]\n[1, 0]\n[1, 0]\n[1, 0]\n[1, 0]\n[0, 1]]", fillcolor="#e58139"] ;
383 -> 384 ;
385 [label="gini = 0.0\nsamples = 2\nvalue = [[2, 0]\n[2, 0]\n[2, 0]\n[2, 0]\n[0, 2]\n[2, 0]\n[2, 0]]", fillcolor="#e58139"] ;
383 -> 385 ;
386 [label="gini = 0.0\nsamples = 2\nvalue = [[2, 0]\n[2, 0]\n[2, 0]\n[0, 2]\n[2, 0]\n[2, 0]\n[2, 0]]", fillcolor="#e58139"] ;
382 -> 386 ;
387 [label="gini = 0.0\nsamples = 9\nvalue = [[9, 0]\n[9, 0]\n[9, 0]\n[0, 9]\n[9, 0]\n[9, 0]\n[9, 0]]", fillcolor="#e58139"] ;
377 -> 387 ;
388 [label="pH <= 3.02\ngini = 0.176\nsamples = 9\nvalue = [[9, 0]\n[8, 1]\n[9, 0]\n[7, 2]\n[8, 1]\n[4, 5]\n[9, 0]]", fillcolor="#fae5d6"] ;
370 -> 388 ;
389 [label="gini = 0.0\nsamples = 2\nvalue = [[2, 0]\n[2, 0]\n[2, 0]\n[0, 2]\n[2, 0]\n[2, 0]\n[2, 0]]", fillcolor="#e58139"] ;
388 -> 389 ;
390 [label="residual sugar <= 7.8\ngini = 0.128\nsamples = 7\nvalue = [[7, 0]\n[6, 1]\n[7, 0]\n[7, 0]\n[6, 1]\n[2, 5]\n[7, 0]]", fillcolor="#f4caab"] ;
388 -> 390 ;
391 [label="total sulfur dioxide <= 107.0\ngini = 0.079\nsamples = 6\nvalue = [[6, 0]\n[6, 0]\n[6, 0]\n[6, 0]\n[5, 1]\n[1, 5]\n[6, 0]]", fillcolor="#eeae80"] ;
390 -> 391 ;
392 [label="gini = 0.0\nsamples = 1\nvalue = [[1, 0]\n[1, 0]\n[1, 0]\n[1, 0]\n[0, 1]\n[1, 0]\n[1, 0]]", fillcolor="#e58139"] ;
391 -> 392 ;
393 [label="gini = 0.0\nsamples = 5\nvalue = [[5, 0]\n[5, 0]\n[5, 0]\n[5, 0]\n[5, 0]\n[0, 5]\n[5, 0]]", fillcolor="#e58139"] ;
391 -> 393 ;
394 [label="gini = 0.0\nsamples = 1\nvalue = [[1, 0]\n[0, 1]\n[1, 0]\n[1, 0]\n[1, 0]\n[1, 0]\n[1, 0]]", fillcolor="#e58139"] ;
390 -> 394 ;
395 [label="total sulfur dioxide <= 77.5\ngini = 0.193\nsamples = 705\nvalue = [[701, 4]\n[687, 18]\n[516, 189]\n[383, 322]\n[563, 142]\n[676, 29]\n[704, 1]]", fillcolor="#fcefe5"] ;
1 -> 395 ;
396 [label="alcohol <= 11.9\ngini = 0.181\nsamples = 54\nvalue = [[52, 2]\n[49, 5]\n[25, 29]\n[41, 13]\n[49, 5]\n[54, 0]\n[54, 0]]", fillcolor="#fae8db"] ;
395 -> 396 ;
397 [label="total sulfur dioxide <= 61.5\ngini = 0.169\nsamples = 49\nvalue = [[47, 2]\n[45, 4]\n[20, 29]\n[39, 10]\n[45, 4]\n[49, 0]\n[49, 0]]", fillcolor="#f9e1d0"] ;
396 -> 397 ;
398 [label="free sulfur dioxide <= 4.0\ngini = 0.189\nsamples = 25\nvalue = [[23, 2]\n[23, 2]\n[14, 11]\n[16, 9]\n[24, 1]\n[25, 0]\n[25, 0]]", fillcolor="#fbece2"] ;
397 -> 398 ;
399 [label="gini = 0.0\nsamples = 3\nvalue = [[3, 0]\n[3, 0]\n[3, 0]\n[0, 3]\n[3, 0]\n[3, 0]\n[3, 0]]", fillcolor="#e58139"] ;
398 -> 399 ;
400 [label="citric acid <= 0.305\ngini = 0.188\nsamples = 22\nvalue = [[20, 2]\n[20, 2]\n[11, 11]\n[16, 6]\n[21, 1]\n[22, 0]\n[22, 0]]", fillcolor="#fbebe0"] ;
398 -> 400 ;
401 [label="citric acid <= 0.025\ngini = 0.062\nsamples = 8\nvalue = [[8, 0]\n[7, 1]\n[1, 7]\n[8, 0]\n[8, 0]\n[8, 0]\n[8, 0]]", fillcolor="#eca471"] ;
400 -> 401 ;
402 [label="gini = 0.0\nsamples = 1\nvalue = [[1, 0]\n[0, 1]\n[1, 0]\n[1, 0]\n[1, 0]\n[1, 0]\n[1, 0]]", fillcolor="#e58139"] ;
401 -> 402 ;
403 [label="gini = 0.0\nsamples = 7\nvalue = [[7, 0]\n[7, 0]\n[0, 7]\n[7, 0]\n[7, 0]\n[7, 0]\n[7, 0]]", fillcolor="#e58139"] ;
401 -> 403 ;
404 [label="total sulfur dioxide <= 43.0\ngini = 0.201\nsamples = 14\nvalue = [[12, 2]\n[13, 1]\n[10, 4]\n[8, 6]\n[13, 1]\n[14, 0]\n[14, 0]]", fillcolor="#fdf3ec"] ;
400 -> 404 ;
405 [label="alcohol <= 9.75\ngini = 0.127\nsamples = 3\nvalue = [[2, 1]\n[3, 0]\n[1, 2]\n[3, 0]\n[3, 0]\n[3, 0]\n[3, 0]]", fillcolor="#f4c9aa"] ;
404 -> 405 ;
406 [label="gini = 0.0\nsamples = 1\nvalue = [[0, 1]\n[1, 0]\n[1, 0]\n[1, 0]\n[1, 0]\n[1, 0]\n[1, 0]]", fillcolor="#e58139"] ;
405 -> 406 ;
407 [label="gini = 0.0\nsamples = 2\nvalue = [[2, 0]\n[2, 0]\n[0, 2]\n[2, 0]\n[2, 0]\n[2, 0]\n[2, 0]]", fillcolor="#e58139"] ;
405 -> 407 ;
408 [label="sulphates <= 0.435\ngini = 0.184\nsamples = 11\nvalue = [[10, 1]\n[10, 1]\n[9, 2]\n[5, 6]\n[10, 1]\n[11, 0]\n[11, 0]]", fillcolor="#fbe9dd"] ;
404 -> 408 ;
409 [label="chlorides <= 0.024\ngini = 0.179\nsamples = 4\nvalue = [[4, 0]\n[3, 1]\n[2, 2]\n[4, 0]\n[3, 1]\n[4, 0]\n[4, 0]]", fillcolor="#fae6d8"] ;
408 -> 409 ;
410 [label="gini = 0.0\nsamples = 1\nvalue = [[1, 0]\n[1, 0]\n[1, 0]\n[1, 0]\n[0, 1]\n[1, 0]\n[1, 0]]", fillcolor="#e58139"] ;
409 -> 410 ;
411 [label="fixed acidity <= 8.55\ngini = 0.127\nsamples = 3\nvalue = [[3, 0]\n[2, 1]\n[1, 2]\n[3, 0]\n[3, 0]\n[3, 0]\n[3, 0]]", fillcolor="#f4c9aa"] ;
409 -> 411 ;
412 [label="gini = 0.0\nsamples = 2\nvalue = [[2, 0]\n[2, 0]\n[0, 2]\n[2, 0]\n[2, 0]\n[2, 0]\n[2, 0]]", fillcolor="#e58139"] ;
411 -> 412 ;
413 [label="gini = 0.0\nsamples = 1\nvalue = [[1, 0]\n[0, 1]\n[1, 0]\n[1, 0]\n[1, 0]\n[1, 0]\n[1, 0]]", fillcolor="#e58139"] ;
411 -> 413 ;
414 [label="chlorides <= 0.034\ngini = 0.07\nsamples = 7\nvalue = [[6, 1]\n[7, 0]\n[7, 0]\n[1, 6]\n[7, 0]\n[7, 0]\n[7, 0]]", fillcolor="#eda977"] ;
408 -> 414 ;
415 [label="gini = 0.0\nsamples = 6\nvalue = [[6, 0]\n[6, 0]\n[6, 0]\n[0, 6]\n[6, 0]\n[6, 0]\n[6, 0]]", fillcolor="#e58139"] ;
414 -> 415 ;
416 [label="gini = 0.0\nsamples = 1\nvalue = [[0, 1]\n[1, 0]\n[1, 0]\n[1, 0]\n[1, 0]\n[1, 0]\n[1, 0]]", fillcolor="#e58139"] ;
414 -> 416 ;
417 [label="free sulfur dioxide <= 24.0\ngini = 0.118\nsamples = 24\nvalue = [[24, 0]\n[22, 2]\n[6, 18]\n[23, 1]\n[21, 3]\n[24, 0]\n[24, 0]]", fillcolor="#f3c4a2"] ;
397 -> 417 ;
418 [label="sulphates <= 0.315\ngini = 0.073\nsamples = 21\nvalue = [[21, 0]\n[20, 1]\n[3, 18]\n[21, 0]\n[19, 2]\n[21, 0]\n[21, 0]]", fillcolor="#edaa7a"] ;
417 -> 418 ;
419 [label="gini = 0.0\nsamples = 1\nvalue = [[1, 0]\n[0, 1]\n[1, 0]\n[1, 0]\n[1, 0]\n[1, 0]\n[1, 0]]", fillcolor="#e58139"] ;
418 -> 419 ;
420 [label="sulphates <= 0.61\ngini = 0.051\nsamples = 20\nvalue = [[20, 0]\n[20, 0]\n[2, 18]\n[20, 0]\n[18, 2]\n[20, 0]\n[20, 0]]", fillcolor="#eb9e67"] ;
418 -> 420 ;
421 [label="density <= 0.992\ngini = 0.028\nsamples = 19\nvalue = [[19, 0]\n[19, 0]\n[1, 18]\n[19, 0]\n[18, 1]\n[19, 0]\n[19, 0]]", fillcolor="#e89152"] ;
420 -> 421 ;
422 [label="volatile acidity <= 0.26\ngini = 0.107\nsamples = 4\nvalue = [[4, 0]\n[4, 0]\n[1, 3]\n[4, 0]\n[3, 1]\n[4, 0]\n[4, 0]]", fillcolor="#f2be98"] ;
421 -> 422 ;
423 [label="citric acid <= 0.3\ngini = 0.143\nsamples = 2\nvalue = [[2, 0]\n[2, 0]\n[1, 1]\n[2, 0]\n[1, 1]\n[2, 0]\n[2, 0]]", fillcolor="#f6d2b8"] ;
422 -> 423 ;
424 [label="gini = 0.0\nsamples = 1\nvalue = [[1, 0]\n[1, 0]\n[0, 1]\n[1, 0]\n[1, 0]\n[1, 0]\n[1, 0]]", fillcolor="#e58139"] ;
423 -> 424 ;
425 [label="gini = 0.0\nsamples = 1\nvalue = [[1, 0]\n[1, 0]\n[1, 0]\n[1, 0]\n[0, 1]\n[1, 0]\n[1, 0]]", fillcolor="#e58139"] ;
423 -> 425 ;
426 [label="gini = 0.0\nsamples = 2\nvalue = [[2, 0]\n[2, 0]\n[0, 2]\n[2, 0]\n[2, 0]\n[2, 0]\n[2, 0]]", fillcolor="#e58139"] ;
422 -> 426 ;
427 [label="gini = 0.0\nsamples = 15\nvalue = [[15, 0]\n[15, 0]\n[0, 15]\n[15, 0]\n[15, 0]\n[15, 0]\n[15, 0]]", fillcolor="#e58139"] ;
421 -> 427 ;
428 [label="gini = 0.0\nsamples = 1\nvalue = [[1, 0]\n[1, 0]\n[1, 0]\n[1, 0]\n[0, 1]\n[1, 0]\n[1, 0]]", fillcolor="#e58139"] ;
420 -> 428 ;
429 [label="alcohol <= 10.9\ngini = 0.19\nsamples = 3\nvalue = [[3, 0]\n[2, 1]\n[3, 0]\n[2, 1]\n[2, 1]\n[3, 0]\n[3, 0]]", fillcolor="#fbede3"] ;
417 -> 429 ;
430 [label="gini = 0.0\nsamples = 1\nvalue = [[1, 0]\n[1, 0]\n[1, 0]\n[1, 0]\n[0, 1]\n[1, 0]\n[1, 0]]", fillcolor="#e58139"] ;
429 -> 430 ;
431 [label="sulphates <= 0.525\ngini = 0.143\nsamples = 2\nvalue = [[2, 0]\n[1, 1]\n[2, 0]\n[1, 1]\n[2, 0]\n[2, 0]\n[2, 0]]", fillcolor="#f6d2b8"] ;
429 -> 431 ;
432 [label="gini = 0.0\nsamples = 1\nvalue = [[1, 0]\n[0, 1]\n[1, 0]\n[1, 0]\n[1, 0]\n[1, 0]\n[1, 0]]", fillcolor="#e58139"] ;
431 -> 432 ;
433 [label="gini = 0.0\nsamples = 1\nvalue = [[1, 0]\n[1, 0]\n[1, 0]\n[0, 1]\n[1, 0]\n[1, 0]\n[1, 0]]", fillcolor="#e58139"] ;
431 -> 433 ;
434 [label="chlorides <= 0.029\ngini = 0.16\nsamples = 5\nvalue = [[5, 0]\n[4, 1]\n[5, 0]\n[2, 3]\n[4, 1]\n[5, 0]\n[5, 0]]", fillcolor="#f8dcc8"] ;
396 -> 434 ;
435 [label="citric acid <= 0.21\ngini = 0.143\nsamples = 2\nvalue = [[2, 0]\n[1, 1]\n[2, 0]\n[2, 0]\n[1, 1]\n[2, 0]\n[2, 0]]", fillcolor="#f6d2b8"] ;
434 -> 435 ;
436 [label="gini = 0.0\nsamples = 1\nvalue = [[1, 0]\n[0, 1]\n[1, 0]\n[1, 0]\n[1, 0]\n[1, 0]\n[1, 0]]", fillcolor="#e58139"] ;
435 -> 436 ;
437 [label="gini = 0.0\nsamples = 1\nvalue = [[1, 0]\n[1, 0]\n[1, 0]\n[1, 0]\n[0, 1]\n[1, 0]\n[1, 0]]", fillcolor="#e58139"] ;
435 -> 437 ;
438 [label="gini = 0.0\nsamples = 3\nvalue = [[3, 0]\n[3, 0]\n[3, 0]\n[0, 3]\n[3, 0]\n[3, 0]\n[3, 0]]", fillcolor="#e58139"] ;
434 -> 438 ;
439 [label="residual sugar <= 1.425\ngini = 0.191\nsamples = 651\nvalue = [[649, 2]\n[638, 13]\n[491, 160]\n[342, 309]\n[514, 137]\n[622, 29]\n[650, 1]]", fillcolor="#fbede3"] ;
395 -> 439 ;
440 [label="chlorides <= 0.03\ngini = 0.183\nsamples = 74\nvalue = [[74, 0]\n[69, 5]\n[38, 36]\n[50, 24]\n[66, 8]\n[73, 1]\n[74, 0]]", fillcolor="#fae9dc"] ;
439 -> 440 ;
441 [label="total sulfur dioxide <= 97.0\ngini = 0.155\nsamples = 12\nvalue = [[12, 0]\n[11, 1]\n[8, 4]\n[5, 7]\n[12, 0]\n[12, 0]\n[12, 0]]", fillcolor="#f7d9c3"] ;
440 -> 441 ;
442 [label="alcohol <= 10.05\ngini = 0.107\nsamples = 4\nvalue = [[4, 0]\n[3, 1]\n[1, 3]\n[4, 0]\n[4, 0]\n[4, 0]\n[4, 0]]", fillcolor="#f2be98"] ;
441 -> 442 ;
443 [label="gini = 0.0\nsamples = 1\nvalue = [[1, 0]\n[0, 1]\n[1, 0]\n[1, 0]\n[1, 0]\n[1, 0]\n[1, 0]]", fillcolor="#e58139"] ;
442 -> 443 ;
444 [label="gini = 0.0\nsamples = 3\nvalue = [[3, 0]\n[3, 0]\n[0, 3]\n[3, 0]\n[3, 0]\n[3, 0]\n[3, 0]]", fillcolor="#e58139"] ;
442 -> 444 ;
445 [label="chlorides <= 0.02\ngini = 0.062\nsamples = 8\nvalue = [[8, 0]\n[8, 0]\n[7, 1]\n[1, 7]\n[8, 0]\n[8, 0]\n[8, 0]]", fillcolor="#eca471"] ;
441 -> 445 ;
446 [label="gini = 0.0\nsamples = 1\nvalue = [[1, 0]\n[1, 0]\n[0, 1]\n[1, 0]\n[1, 0]\n[1, 0]\n[1, 0]]", fillcolor="#e58139"] ;
445 -> 446 ;
447 [label="gini = 0.0\nsamples = 7\nvalue = [[7, 0]\n[7, 0]\n[7, 0]\n[0, 7]\n[7, 0]\n[7, 0]\n[7, 0]]", fillcolor="#e58139"] ;
445 -> 447 ;
448 [label="citric acid <= 0.48\ngini = 0.182\nsamples = 62\nvalue = [[62, 0]\n[58, 4]\n[30, 32]\n[45, 17]\n[54, 8]\n[61, 1]\n[62, 0]]", fillcolor="#fae8db"] ;
440 -> 448 ;
449 [label="chlorides <= 0.033\ngini = 0.171\nsamples = 56\nvalue = [[56, 0]\n[52, 4]\n[24, 32]\n[42, 14]\n[51, 5]\n[55, 1]\n[56, 0]]", fillcolor="#f9e2d1"] ;
448 -> 449 ;
450 [label="gini = 0.0\nsamples = 8\nvalue = [[8, 0]\n[8, 0]\n[0, 8]\n[8, 0]\n[8, 0]\n[8, 0]\n[8, 0]]", fillcolor="#e58139"] ;
449 -> 450 ;
451 [label="citric acid <= 0.03\ngini = 0.185\nsamples = 48\nvalue = [[48, 0]\n[44, 4]\n[24, 24]\n[34, 14]\n[43, 5]\n[47, 1]\n[48, 0]]", fillcolor="#fbeade"] ;
449 -> 451 ;
452 [label="gini = 0.0\nsamples = 2\nvalue = [[2, 0]\n[0, 2]\n[2, 0]\n[2, 0]\n[2, 0]\n[2, 0]\n[2, 0]]", fillcolor="#e58139"] ;
451 -> 452 ;
453 [label="alcohol <= 9.45\ngini = 0.177\nsamples = 46\nvalue = [[46, 0]\n[44, 2]\n[22, 24]\n[32, 14]\n[41, 5]\n[45, 1]\n[46, 0]]", fillcolor="#fae6d7"] ;
451 -> 453 ;
454 [label="gini = 0.0\nsamples = 5\nvalue = [[5, 0]\n[5, 0]\n[0, 5]\n[5, 0]\n[5, 0]\n[5, 0]\n[5, 0]]", fillcolor="#e58139"] ;
453 -> 454 ;
455 [label="sulphates <= 0.615\ngini = 0.186\nsamples = 41\nvalue = [[41, 0]\n[39, 2]\n[22, 19]\n[27, 14]\n[36, 5]\n[40, 1]\n[41, 0]]", fillcolor="#fbeadf"] ;
453 -> 455 ;
456 [label="density <= 0.992\ngini = 0.182\nsamples = 29\nvalue = [[29, 0]\n[27, 2]\n[19, 10]\n[15, 14]\n[27, 2]\n[28, 1]\n[29, 0]]", fillcolor="#fae8db"] ;
455 -> 456 ;
457 [label="gini = 0.0\nsamples = 4\nvalue = [[4, 0]\n[4, 0]\n[4, 0]\n[0, 4]\n[4, 0]\n[4, 0]\n[4, 0]]", fillcolor="#e58139"] ;
456 -> 457 ;
458 [label="total sulfur dioxide <= 125.0\ngini = 0.19\nsamples = 25\nvalue = [[25, 0]\n[23, 2]\n[15, 10]\n[15, 10]\n[23, 2]\n[24, 1]\n[25, 0]]", fillcolor="#fbede2"] ;
456 -> 458 ;
459 [label="residual sugar <= 1.15\ngini = 0.172\nsamples = 14\nvalue = [[14, 0]\n[14, 0]\n[11, 3]\n[6, 8]\n[12, 2]\n[13, 1]\n[14, 0]]", fillcolor="#f9e3d2"] ;
458 -> 459 ;
460 [label="sulphates <= 0.43\ngini = 0.143\nsamples = 2\nvalue = [[2, 0]\n[2, 0]\n[1, 1]\n[2, 0]\n[1, 1]\n[2, 0]\n[2, 0]]", fillcolor="#f6d2b8"] ;
459 -> 460 ;
461 [label="gini = 0.0\nsamples = 1\nvalue = [[1, 0]\n[1, 0]\n[0, 1]\n[1, 0]\n[1, 0]\n[1, 0]\n[1, 0]]", fillcolor="#e58139"] ;
460 -> 461 ;
462 [label="gini = 0.0\nsamples = 1\nvalue = [[1, 0]\n[1, 0]\n[1, 0]\n[1, 0]\n[0, 1]\n[1, 0]\n[1, 0]]", fillcolor="#e58139"] ;
460 -> 462 ;
463 [label="density <= 0.992\ngini = 0.147\nsamples = 12\nvalue = [[12, 0]\n[12, 0]\n[10, 2]\n[4, 8]\n[11, 1]\n[11, 1]\n[12, 0]]", fillcolor="#f6d4bc"] ;
459 -> 463 ;
464 [label="volatile acidity <= 0.21\ngini = 0.143\nsamples = 2\nvalue = [[2, 0]\n[2, 0]\n[1, 1]\n[2, 0]\n[1, 1]\n[2, 0]\n[2, 0]]", fillcolor="#f6d2b8"] ;
463 -> 464 ;
465 [label="gini = 0.0\nsamples = 1\nvalue = [[1, 0]\n[1, 0]\n[0, 1]\n[1, 0]\n[1, 0]\n[1, 0]\n[1, 0]]", fillcolor="#e58139"] ;
464 -> 465 ;
466 [label="gini = 0.0\nsamples = 1\nvalue = [[1, 0]\n[1, 0]\n[1, 0]\n[1, 0]\n[0, 1]\n[1, 0]\n[1, 0]]", fillcolor="#e58139"] ;
464 -> 466 ;
467 [label="alcohol <= 11.05\ngini = 0.097\nsamples = 10\nvalue = [[10, 0]\n[10, 0]\n[9, 1]\n[2, 8]\n[10, 0]\n[9, 1]\n[10, 0]]", fillcolor="#f0b890"] ;
463 -> 467 ;
468 [label="citric acid <= 0.405\ngini = 0.056\nsamples = 9\nvalue = [[9, 0]\n[9, 0]\n[8, 1]\n[1, 8]\n[9, 0]\n[9, 0]\n[9, 0]]", fillcolor="#eca16b"] ;
467 -> 468 ;
469 [label="gini = 0.0\nsamples = 8\nvalue = [[8, 0]\n[8, 0]\n[8, 0]\n[0, 8]\n[8, 0]\n[8, 0]\n[8, 0]]", fillcolor="#e58139"] ;
468 -> 469 ;
470 [label="gini = 0.0\nsamples = 1\nvalue = [[1, 0]\n[1, 0]\n[0, 1]\n[1, 0]\n[1, 0]\n[1, 0]\n[1, 0]]", fillcolor="#e58139"] ;
468 -> 470 ;
471 [label="gini = 0.0\nsamples = 1\nvalue = [[1, 0]\n[1, 0]\n[1, 0]\n[1, 0]\n[1, 0]\n[0, 1]\n[1, 0]]", fillcolor="#e58139"] ;
467 -> 471 ;
472 [label="pH <= 3.115\ngini = 0.151\nsamples = 11\nvalue = [[11, 0]\n[9, 2]\n[4, 7]\n[9, 2]\n[11, 0]\n[11, 0]\n[11, 0]]", fillcolor="#f7d7c0"] ;
458 -> 472 ;
473 [label="gini = 0.0\nsamples = 2\nvalue = [[2, 0]\n[2, 0]\n[2, 0]\n[0, 2]\n[2, 0]\n[2, 0]\n[2, 0]]", fillcolor="#e58139"] ;
472 -> 473 ;
474 [label="total sulfur dioxide <= 201.25\ngini = 0.099\nsamples = 9\nvalue = [[9, 0]\n[7, 2]\n[2, 7]\n[9, 0]\n[9, 0]\n[9, 0]\n[9, 0]]", fillcolor="#f1b991"] ;
472 -> 474 ;
475 [label="volatile acidity <= 0.295\ngini = 0.062\nsamples = 8\nvalue = [[8, 0]\n[7, 1]\n[1, 7]\n[8, 0]\n[8, 0]\n[8, 0]\n[8, 0]]", fillcolor="#eca471"] ;
474 -> 475 ;
476 [label="sulphates <= 0.435\ngini = 0.143\nsamples = 2\nvalue = [[2, 0]\n[1, 1]\n[1, 1]\n[2, 0]\n[2, 0]\n[2, 0]\n[2, 0]]", fillcolor="#f6d2b8"] ;
475 -> 476 ;
477 [label="gini = 0.0\nsamples = 1\nvalue = [[1, 0]\n[0, 1]\n[1, 0]\n[1, 0]\n[1, 0]\n[1, 0]\n[1, 0]]", fillcolor="#e58139"] ;
476 -> 477 ;
478 [label="gini = 0.0\nsamples = 1\nvalue = [[1, 0]\n[1, 0]\n[0, 1]\n[1, 0]\n[1, 0]\n[1, 0]\n[1, 0]]", fillcolor="#e58139"] ;
476 -> 478 ;
479 [label="gini = 0.0\nsamples = 6\nvalue = [[6, 0]\n[6, 0]\n[0, 6]\n[6, 0]\n[6, 0]\n[6, 0]\n[6, 0]]", fillcolor="#e58139"] ;
475 -> 479 ;
480 [label="gini = 0.0\nsamples = 1\nvalue = [[1, 0]\n[0, 1]\n[1, 0]\n[1, 0]\n[1, 0]\n[1, 0]\n[1, 0]]", fillcolor="#e58139"] ;
474 -> 480 ;
481 [label="alcohol <= 9.75\ngini = 0.107\nsamples = 12\nvalue = [[12, 0]\n[12, 0]\n[3, 9]\n[12, 0]\n[9, 3]\n[12, 0]\n[12, 0]]", fillcolor="#f2be98"] ;
455 -> 481 ;
482 [label="gini = 0.0\nsamples = 3\nvalue = [[3, 0]\n[3, 0]\n[3, 0]\n[3, 0]\n[0, 3]\n[3, 0]\n[3, 0]]", fillcolor="#e58139"] ;
481 -> 482 ;
483 [label="gini = 0.0\nsamples = 9\nvalue = [[9, 0]\n[9, 0]\n[0, 9]\n[9, 0]\n[9, 0]\n[9, 0]\n[9, 0]]", fillcolor="#e58139"] ;
481 -> 483 ;
484 [label="density <= 0.993\ngini = 0.143\nsamples = 6\nvalue = [[6, 0]\n[6, 0]\n[6, 0]\n[3, 3]\n[3, 3]\n[6, 0]\n[6, 0]]", fillcolor="#f6d2b8"] ;
448 -> 484 ;
485 [label="alcohol <= 10.45\ngini = 0.107\nsamples = 4\nvalue = [[4, 0]\n[4, 0]\n[4, 0]\n[1, 3]\n[3, 1]\n[4, 0]\n[4, 0]]", fillcolor="#f2be98"] ;
484 -> 485 ;
486 [label="gini = 0.0\nsamples = 1\nvalue = [[1, 0]\n[1, 0]\n[1, 0]\n[1, 0]\n[0, 1]\n[1, 0]\n[1, 0]]", fillcolor="#e58139"] ;
485 -> 486 ;
487 [label="gini = 0.0\nsamples = 3\nvalue = [[3, 0]\n[3, 0]\n[3, 0]\n[0, 3]\n[3, 0]\n[3, 0]\n[3, 0]]", fillcolor="#e58139"] ;
485 -> 487 ;
488 [label="gini = 0.0\nsamples = 2\nvalue = [[2, 0]\n[2, 0]\n[2, 0]\n[2, 0]\n[0, 2]\n[2, 0]\n[2, 0]]", fillcolor="#e58139"] ;
484 -> 488 ;
489 [label="density <= 0.996\ngini = 0.188\nsamples = 577\nvalue = [[575, 2]\n[569, 8]\n[453, 124]\n[292, 285]\n[448, 129]\n[549, 28]\n[576, 1]]", fillcolor="#fbebe0"] ;
439 -> 489 ;
490 [label="sulphates <= 0.685\ngini = 0.188\nsamples = 452\nvalue = [[451, 1]\n[447, 5]\n[378, 74]\n[232, 220]\n[328, 124]\n[424, 28]\n[452, 0]]", fillcolor="#fbebe0"] ;
489 -> 490 ;
491 [label="volatile acidity <= 0.335\ngini = 0.184\nsamples = 423\nvalue = [[422, 1]\n[419, 4]\n[356, 67]\n[209, 214]\n[311, 112]\n[398, 25]\n[423, 0]]", fillcolor="#fbeadd"] ;
490 -> 491 ;
492 [label="total sulfur dioxide <= 152.5\ngini = 0.177\nsamples = 340\nvalue = [[339, 1]\n[338, 2]\n[289, 51]\n[155, 185]\n[257, 83]\n[322, 18]\n[340, 0]]", fillcolor="#fae5d7"] ;
491 -> 492 ;
493 [label="free sulfur dioxide <= 14.5\ngini = 0.183\nsamples = 269\nvalue = [[269, 0]\n[268, 1]\n[228, 41]\n[132, 137]\n[196, 73]\n[252, 17]\n[269, 0]]", fillcolor="#fae9dc"] ;
492 -> 493 ;
494 [label="pH <= 3.1\ngini = 0.192\nsamples = 23\nvalue = [[23, 0]\n[23, 0]\n[13, 10]\n[17, 6]\n[17, 6]\n[22, 1]\n[23, 0]]", fillcolor="#fbeee4"] ;
493 -> 494 ;
495 [label="total sulfur dioxide <= 94.0\ngini = 0.17\nsamples = 8\nvalue = [[8, 0]\n[8, 0]\n[7, 1]\n[5, 3]\n[4, 4]\n[8, 0]\n[8, 0]]", fillcolor="#f9e1d0"] ;
494 -> 495 ;
496 [label="gini = 0.0\nsamples = 3\nvalue = [[3, 0]\n[3, 0]\n[3, 0]\n[3, 0]\n[0, 3]\n[3, 0]\n[3, 0]]", fillcolor="#e58139"] ;
495 -> 496 ;
497 [label="chlorides <= 0.034\ngini = 0.16\nsamples = 5\nvalue = [[5, 0]\n[5, 0]\n[4, 1]\n[2, 3]\n[4, 1]\n[5, 0]\n[5, 0]]", fillcolor="#f8dcc8"] ;
495 -> 497 ;
498 [label="gini = 0.0\nsamples = 3\nvalue = [[3, 0]\n[3, 0]\n[3, 0]\n[0, 3]\n[3, 0]\n[3, 0]\n[3, 0]]", fillcolor="#e58139"] ;
497 -> 498 ;
499 [label="chlorides <= 0.037\ngini = 0.143\nsamples = 2\nvalue = [[2, 0]\n[2, 0]\n[1, 1]\n[2, 0]\n[1, 1]\n[2, 0]\n[2, 0]]", fillcolor="#f6d2b8"] ;
497 -> 499 ;
500 [label="gini = 0.0\nsamples = 1\nvalue = [[1, 0]\n[1, 0]\n[1, 0]\n[1, 0]\n[0, 1]\n[1, 0]\n[1, 0]]", fillcolor="#e58139"] ;
499 -> 500 ;
501 [label="gini = 0.0\nsamples = 1\nvalue = [[1, 0]\n[1, 0]\n[0, 1]\n[1, 0]\n[1, 0]\n[1, 0]\n[1, 0]]", fillcolor="#e58139"] ;
499 -> 501 ;
502 [label="sulphates <= 0.475\ngini = 0.165\nsamples = 15\nvalue = [[15, 0]\n[15, 0]\n[6, 9]\n[12, 3]\n[13, 2]\n[14, 1]\n[15, 0]]", fillcolor="#f8dfcc"] ;
494 -> 502 ;
503 [label="alcohol <= 10.75\ngini = 0.196\nsamples = 8\nvalue = [[8, 0]\n[8, 0]\n[5, 3]\n[5, 3]\n[7, 1]\n[7, 1]\n[8, 0]]", fillcolor="#fcf0e8"] ;
502 -> 503 ;
504 [label="chlorides <= 0.031\ngini = 0.127\nsamples = 3\nvalue = [[3, 0]\n[3, 0]\n[3, 0]\n[1, 2]\n[3, 0]\n[2, 1]\n[3, 0]]", fillcolor="#f4c9aa"] ;
503 -> 504 ;
505 [label="gini = 0.0\nsamples = 1\nvalue = [[1, 0]\n[1, 0]\n[1, 0]\n[1, 0]\n[1, 0]\n[0, 1]\n[1, 0]]", fillcolor="#e58139"] ;
504 -> 505 ;
506 [label="gini = 0.0\nsamples = 2\nvalue = [[2, 0]\n[2, 0]\n[2, 0]\n[0, 2]\n[2, 0]\n[2, 0]\n[2, 0]]", fillcolor="#e58139"] ;
504 -> 506 ;
507 [label="total sulfur dioxide <= 106.0\ngini = 0.16\nsamples = 5\nvalue = [[5, 0]\n[5, 0]\n[2, 3]\n[4, 1]\n[4, 1]\n[5, 0]\n[5, 0]]", fillcolor="#f8dcc8"] ;
503 -> 507 ;
508 [label="gini = 0.0\nsamples = 3\nvalue = [[3, 0]\n[3, 0]\n[0, 3]\n[3, 0]\n[3, 0]\n[3, 0]\n[3, 0]]", fillcolor="#e58139"] ;
507 -> 508 ;
509 [label="sulphates <= 0.425\ngini = 0.143\nsamples = 2\nvalue = [[2, 0]\n[2, 0]\n[2, 0]\n[1, 1]\n[1, 1]\n[2, 0]\n[2, 0]]", fillcolor="#f6d2b8"] ;
507 -> 509 ;
510 [label="gini = 0.0\nsamples = 1\nvalue = [[1, 0]\n[1, 0]\n[1, 0]\n[1, 0]\n[0, 1]\n[1, 0]\n[1, 0]]", fillcolor="#e58139"] ;
509 -> 510 ;
511 [label="gini = 0.0\nsamples = 1\nvalue = [[1, 0]\n[1, 0]\n[1, 0]\n[0, 1]\n[1, 0]\n[1, 0]\n[1, 0]]", fillcolor="#e58139"] ;
509 -> 511 ;
512 [label="fixed acidity <= 6.75\ngini = 0.07\nsamples = 7\nvalue = [[7, 0]\n[7, 0]\n[1, 6]\n[7, 0]\n[6, 1]\n[7, 0]\n[7, 0]]", fillcolor="#eda977"] ;
502 -> 512 ;
513 [label="volatile acidity <= 0.24\ngini = 0.127\nsamples = 3\nvalue = [[3, 0]\n[3, 0]\n[1, 2]\n[3, 0]\n[2, 1]\n[3, 0]\n[3, 0]]", fillcolor="#f4c9aa"] ;
512 -> 513 ;
514 [label="gini = 0.0\nsamples = 2\nvalue = [[2, 0]\n[2, 0]\n[0, 2]\n[2, 0]\n[2, 0]\n[2, 0]\n[2, 0]]", fillcolor="#e58139"] ;
513 -> 514 ;
515 [label="gini = 0.0\nsamples = 1\nvalue = [[1, 0]\n[1, 0]\n[1, 0]\n[1, 0]\n[0, 1]\n[1, 0]\n[1, 0]]", fillcolor="#e58139"] ;
513 -> 515 ;
516 [label="gini = 0.0\nsamples = 4\nvalue = [[4, 0]\n[4, 0]\n[0, 4]\n[4, 0]\n[4, 0]\n[4, 0]\n[4, 0]]", fillcolor="#e58139"] ;
512 -> 516 ;
517 [label="total sulfur dioxide <= 109.5\ngini = 0.178\nsamples = 246\nvalue = [[246, 0]\n[245, 1]\n[215, 31]\n[115, 131]\n[179, 67]\n[230, 16]\n[246, 0]]", fillcolor="#fae6d7"] ;
493 -> 517 ;
518 [label="alcohol <= 9.1\ngini = 0.151\nsamples = 78\nvalue = [[78, 0]\n[78, 0]\n[69, 9]\n[27, 51]\n[65, 13]\n[73, 5]\n[78, 0]]", fillcolor="#f7d6bf"] ;
517 -> 518 ;
519 [label="gini = 0.0\nsamples = 2\nvalue = [[2, 0]\n[2, 0]\n[0, 2]\n[2, 0]\n[2, 0]\n[2, 0]\n[2, 0]]", fillcolor="#e58139"] ;
518 -> 519 ;
520 [label="density <= 0.995\ngini = 0.145\nsamples = 76\nvalue = [[76, 0]\n[76, 0]\n[69, 7]\n[25, 51]\n[63, 13]\n[71, 5]\n[76, 0]]", fillcolor="#f6d3ba"] ;
518 -> 520 ;
521 [label="citric acid <= 0.355\ngini = 0.138\nsamples = 74\nvalue = [[74, 0]\n[74, 0]\n[67, 7]\n[23, 51]\n[61, 13]\n[71, 3]\n[74, 0]]", fillcolor="#f5cfb4"] ;
520 -> 521 ;
522 [label="sulphates <= 0.605\ngini = 0.109\nsamples = 56\nvalue = [[56, 0]\n[56, 0]\n[54, 2]\n[13, 43]\n[47, 9]\n[54, 2]\n[56, 0]]", fillcolor="#f2bf9a"] ;
521 -> 522 ;
523 [label="volatile acidity <= 0.235\ngini = 0.098\nsamples = 54\nvalue = [[54, 0]\n[54, 0]\n[52, 2]\n[11, 43]\n[46, 8]\n[53, 1]\n[54, 0]]", fillcolor="#f0b890"] ;
522 -> 523 ;
524 [label="volatile acidity <= 0.185\ngini = 0.136\nsamples = 28\nvalue = [[28, 0]\n[28, 0]\n[27, 1]\n[9, 19]\n[21, 7]\n[27, 1]\n[28, 0]]", fillcolor="#f5ceb2"] ;
523 -> 524 ;
525 [label="alcohol <= 10.45\ngini = 0.044\nsamples = 12\nvalue = [[12, 0]\n[12, 0]\n[11, 1]\n[1, 11]\n[12, 0]\n[12, 0]\n[12, 0]]", fillcolor="#ea9a60"] ;
524 -> 525 ;
526 [label="gini = 0.0\nsamples = 9\nvalue = [[9, 0]\n[9, 0]\n[9, 0]\n[0, 9]\n[9, 0]\n[9, 0]\n[9, 0]]", fillcolor="#e58139"] ;
525 -> 526 ;
527 [label="sulphates <= 0.39\ngini = 0.127\nsamples = 3\nvalue = [[3, 0]\n[3, 0]\n[2, 1]\n[1, 2]\n[3, 0]\n[3, 0]\n[3, 0]]", fillcolor="#f4c9aa"] ;
525 -> 527 ;
528 [label="gini = 0.0\nsamples = 1\nvalue = [[1, 0]\n[1, 0]\n[0, 1]\n[1, 0]\n[1, 0]\n[1, 0]\n[1, 0]]", fillcolor="#e58139"] ;
527 -> 528 ;
529 [label="gini = 0.0\nsamples = 2\nvalue = [[2, 0]\n[2, 0]\n[2, 0]\n[0, 2]\n[2, 0]\n[2, 0]\n[2, 0]]", fillcolor="#e58139"] ;
527 -> 529 ;
530 [label="density <= 0.993\ngini = 0.158\nsamples = 16\nvalue = [[16, 0]\n[16, 0]\n[16, 0]\n[8, 8]\n[9, 7]\n[15, 1]\n[16, 0]]", fillcolor="#f8dbc6"] ;
524 -> 530 ;
531 [label="gini = 0.0\nsamples = 6\nvalue = [[6, 0]\n[6, 0]\n[6, 0]\n[0, 6]\n[6, 0]\n[6, 0]\n[6, 0]]", fillcolor="#e58139"] ;
530 -> 531 ;
532 [label="total sulfur dioxide <= 85.0\ngini = 0.131\nsamples = 10\nvalue = [[10, 0]\n[10, 0]\n[10, 0]\n[8, 2]\n[3, 7]\n[9, 1]\n[10, 0]]", fillcolor="#f4ccae"] ;
530 -> 532 ;
533 [label="gini = 0.0\nsamples = 1\nvalue = [[1, 0]\n[1, 0]\n[1, 0]\n[1, 0]\n[1, 0]\n[0, 1]\n[1, 0]]", fillcolor="#e58139"] ;
532 -> 533 ;
534 [label="sulphates <= 0.355\ngini = 0.099\nsamples = 9\nvalue = [[9, 0]\n[9, 0]\n[9, 0]\n[7, 2]\n[2, 7]\n[9, 0]\n[9, 0]]", fillcolor="#f1b991"] ;
532 -> 534 ;
535 [label="gini = 0.0\nsamples = 1\nvalue = [[1, 0]\n[1, 0]\n[1, 0]\n[0, 1]\n[1, 0]\n[1, 0]\n[1, 0]]", fillcolor="#e58139"] ;
534 -> 535 ;
536 [label="chlorides <= 0.036\ngini = 0.062\nsamples = 8\nvalue = [[8, 0]\n[8, 0]\n[8, 0]\n[7, 1]\n[1, 7]\n[8, 0]\n[8, 0]]", fillcolor="#eca471"] ;
534 -> 536 ;
537 [label="gini = 0.0\nsamples = 6\nvalue = [[6, 0]\n[6, 0]\n[6, 0]\n[6, 0]\n[0, 6]\n[6, 0]\n[6, 0]]", fillcolor="#e58139"] ;
536 -> 537 ;
538 [label="pH <= 3.085\ngini = 0.143\nsamples = 2\nvalue = [[2, 0]\n[2, 0]\n[2, 0]\n[1, 1]\n[1, 1]\n[2, 0]\n[2, 0]]", fillcolor="#f6d2b8"] ;
536 -> 538 ;
539 [label="gini = 0.0\nsamples = 1\nvalue = [[1, 0]\n[1, 0]\n[1, 0]\n[1, 0]\n[0, 1]\n[1, 0]\n[1, 0]]", fillcolor="#e58139"] ;
538 -> 539 ;
540 [label="gini = 0.0\nsamples = 1\nvalue = [[1, 0]\n[1, 0]\n[1, 0]\n[0, 1]\n[1, 0]\n[1, 0]\n[1, 0]]", fillcolor="#e58139"] ;
538 -> 540 ;
541 [label="volatile acidity <= 0.305\ngini = 0.041\nsamples = 26\nvalue = [[26, 0]\n[26, 0]\n[25, 1]\n[2, 24]\n[25, 1]\n[26, 0]\n[26, 0]]", fillcolor="#ea985e"] ;
523 -> 541 ;
542 [label="gini = 0.0\nsamples = 19\nvalue = [[19, 0]\n[19, 0]\n[19, 0]\n[0, 19]\n[19, 0]\n[19, 0]\n[19, 0]]", fillcolor="#e58139"] ;
541 -> 542 ;
543 [label="chlorides <= 0.034\ngini = 0.128\nsamples = 7\nvalue = [[7, 0]\n[7, 0]\n[6, 1]\n[2, 5]\n[6, 1]\n[7, 0]\n[7, 0]]", fillcolor="#f4caab"] ;
541 -> 543 ;
544 [label="pH <= 3.115\ngini = 0.143\nsamples = 2\nvalue = [[2, 0]\n[2, 0]\n[1, 1]\n[2, 0]\n[1, 1]\n[2, 0]\n[2, 0]]", fillcolor="#f6d2b8"] ;
543 -> 544 ;
545 [label="gini = 0.0\nsamples = 1\nvalue = [[1, 0]\n[1, 0]\n[1, 0]\n[1, 0]\n[0, 1]\n[1, 0]\n[1, 0]]", fillcolor="#e58139"] ;
544 -> 545 ;
546 [label="gini = 0.0\nsamples = 1\nvalue = [[1, 0]\n[1, 0]\n[0, 1]\n[1, 0]\n[1, 0]\n[1, 0]\n[1, 0]]", fillcolor="#e58139"] ;
544 -> 546 ;
547 [label="gini = 0.0\nsamples = 5\nvalue = [[5, 0]\n[5, 0]\n[5, 0]\n[0, 5]\n[5, 0]\n[5, 0]\n[5, 0]]", fillcolor="#e58139"] ;
543 -> 547 ;
548 [label="total sulfur dioxide <= 102.5\ngini = 0.143\nsamples = 2\nvalue = [[2, 0]\n[2, 0]\n[2, 0]\n[2, 0]\n[1, 1]\n[1, 1]\n[2, 0]]", fillcolor="#f6d2b8"] ;
522 -> 548 ;
549 [label="gini = 0.0\nsamples = 1\nvalue = [[1, 0]\n[1, 0]\n[1, 0]\n[1, 0]\n[0, 1]\n[1, 0]\n[1, 0]]", fillcolor="#e58139"] ;
548 -> 549 ;
550 [label="gini = 0.0\nsamples = 1\nvalue = [[1, 0]\n[1, 0]\n[1, 0]\n[1, 0]\n[1, 0]\n[0, 1]\n[1, 0]]", fillcolor="#e58139"] ;
548 -> 550 ;
551 [label="volatile acidity <= 0.27\ngini = 0.192\nsamples = 18\nvalue = [[18, 0]\n[18, 0]\n[13, 5]\n[10, 8]\n[14, 4]\n[17, 1]\n[18, 0]]", fillcolor="#fbeee4"] ;
521 -> 551 ;
552 [label="chlorides <= 0.029\ngini = 0.172\nsamples = 13\nvalue = [[13, 0]\n[13, 0]\n[12, 1]\n[6, 7]\n[9, 4]\n[12, 1]\n[13, 0]]", fillcolor="#f9e3d3"] ;
551 -> 552 ;
553 [label="free sulfur dioxide <= 27.5\ngini = 0.127\nsamples = 3\nvalue = [[3, 0]\n[3, 0]\n[3, 0]\n[3, 0]\n[1, 2]\n[2, 1]\n[3, 0]]", fillcolor="#f4c9aa"] ;
552 -> 553 ;
554 [label="gini = 0.0\nsamples = 2\nvalue = [[2, 0]\n[2, 0]\n[2, 0]\n[2, 0]\n[0, 2]\n[2, 0]\n[2, 0]]", fillcolor="#e58139"] ;
553 -> 554 ;
555 [label="gini = 0.0\nsamples = 1\nvalue = [[1, 0]\n[1, 0]\n[1, 0]\n[1, 0]\n[1, 0]\n[0, 1]\n[1, 0]]", fillcolor="#e58139"] ;
553 -> 555 ;
556 [label="fixed acidity <= 8.55\ngini = 0.131\nsamples = 10\nvalue = [[10, 0]\n[10, 0]\n[9, 1]\n[3, 7]\n[8, 2]\n[10, 0]\n[10, 0]]", fillcolor="#f4ccae"] ;
552 -> 556 ;
557 [label="sulphates <= 0.455\ngini = 0.099\nsamples = 9\nvalue = [[9, 0]\n[9, 0]\n[9, 0]\n[2, 7]\n[7, 2]\n[9, 0]\n[9, 0]]", fillcolor="#f1b991"] ;
556 -> 557 ;
558 [label="residual sugar <= 7.6\ngini = 0.127\nsamples = 3\nvalue = [[3, 0]\n[3, 0]\n[3, 0]\n[2, 1]\n[1, 2]\n[3, 0]\n[3, 0]]", fillcolor="#f4c9aa"] ;
557 -> 558 ;
559 [label="gini = 0.0\nsamples = 2\nvalue = [[2, 0]\n[2, 0]\n[2, 0]\n[2, 0]\n[0, 2]\n[2, 0]\n[2, 0]]", fillcolor="#e58139"] ;
558 -> 559 ;
560 [label="gini = 0.0\nsamples = 1\nvalue = [[1, 0]\n[1, 0]\n[1, 0]\n[0, 1]\n[1, 0]\n[1, 0]\n[1, 0]]", fillcolor="#e58139"] ;
558 -> 560 ;
561 [label="gini = 0.0\nsamples = 6\nvalue = [[6, 0]\n[6, 0]\n[6, 0]\n[0, 6]\n[6, 0]\n[6, 0]\n[6, 0]]", fillcolor="#e58139"] ;
557 -> 561 ;
562 [label="gini = 0.0\nsamples = 1\nvalue = [[1, 0]\n[1, 0]\n[0, 1]\n[1, 0]\n[1, 0]\n[1, 0]\n[1, 0]]", fillcolor="#e58139"] ;
556 -> 562 ;
563 [label="pH <= 2.965\ngini = 0.091\nsamples = 5\nvalue = [[5, 0]\n[5, 0]\n[1, 4]\n[4, 1]\n[5, 0]\n[5, 0]\n[5, 0]]", fillcolor="#f0b58a"] ;
551 -> 563 ;
564 [label="gini = 0.0\nsamples = 1\nvalue = [[1, 0]\n[1, 0]\n[1, 0]\n[0, 1]\n[1, 0]\n[1, 0]\n[1, 0]]", fillcolor="#e58139"] ;
563 -> 564 ;
565 [label="gini = 0.0\nsamples = 4\nvalue = [[4, 0]\n[4, 0]\n[0, 4]\n[4, 0]\n[4, 0]\n[4, 0]\n[4, 0]]", fillcolor="#e58139"] ;
563 -> 565 ;
566 [label="gini = 0.0\nsamples = 2\nvalue = [[2, 0]\n[2, 0]\n[2, 0]\n[2, 0]\n[2, 0]\n[0, 2]\n[2, 0]]", fillcolor="#e58139"] ;
520 -> 566 ;
567 [label="citric acid <= 0.355\ngini = 0.185\nsamples = 168\nvalue = [[168, 0]\n[167, 1]\n[146, 22]\n[88, 80]\n[114, 54]\n[157, 11]\n[168, 0]]", fillcolor="#fbeade"] ;
517 -> 567 ;
568 [label="free sulfur dioxide <= 48.0\ngini = 0.19\nsamples = 137\nvalue = [[137, 0]\n[136, 1]\n[115, 22]\n[78, 59]\n[89, 48]\n[130, 7]\n[137, 0]]", fillcolor="#fbece2"] ;
567 -> 568 ;
569 [label="alcohol <= 12.45\ngini = 0.191\nsamples = 125\nvalue = [[125, 0]\n[124, 1]\n[105, 20]\n[75, 50]\n[78, 47]\n[118, 7]\n[125, 0]]", fillcolor="#fbeee4"] ;
568 -> 569 ;
570 [label="residual sugar <= 8.9\ngini = 0.188\nsamples = 120\nvalue = [[120, 0]\n[119, 1]\n[100, 20]\n[70, 50]\n[75, 45]\n[116, 4]\n[120, 0]]", fillcolor="#fbebe0"] ;
569 -> 570 ;
571 [label="sulphates <= 0.415\ngini = 0.189\nsamples = 89\nvalue = [[89, 0]\n[88, 1]\n[71, 18]\n[48, 41]\n[63, 26]\n[86, 3]\n[89, 0]]", fillcolor="#fbece1"] ;
570 -> 571 ;
572 [label="volatile acidity <= 0.315\ngini = 0.19\nsamples = 27\nvalue = [[27, 0]\n[27, 0]\n[15, 12]\n[20, 7]\n[20, 7]\n[26, 1]\n[27, 0]]", fillcolor="#fbede3"] ;
571 -> 572 ;
573 [label="pH <= 3.175\ngini = 0.186\nsamples = 25\nvalue = [[25, 0]\n[25, 0]\n[13, 12]\n[18, 7]\n[20, 5]\n[24, 1]\n[25, 0]]", fillcolor="#fbeade"] ;
572 -> 573 ;
574 [label="pH <= 3.005\ngini = 0.203\nsamples = 13\nvalue = [[13, 0]\n[13, 0]\n[9, 4]\n[9, 4]\n[9, 4]\n[12, 1]\n[13, 0]]", fillcolor="#fdf4ee"] ;
573 -> 574 ;
575 [label="total sulfur dioxide <= 131.0\ngini = 0.143\nsamples = 6\nvalue = [[6, 0]\n[6, 0]\n[3, 3]\n[3, 3]\n[6, 0]\n[6, 0]\n[6, 0]]", fillcolor="#f6d2b8"] ;
574 -> 575 ;
576 [label="gini = 0.0\nsamples = 3\nvalue = [[3, 0]\n[3, 0]\n[3, 0]\n[0, 3]\n[3, 0]\n[3, 0]\n[3, 0]]", fillcolor="#e58139"] ;
575 -> 576 ;
577 [label="gini = 0.0\nsamples = 3\nvalue = [[3, 0]\n[3, 0]\n[0, 3]\n[3, 0]\n[3, 0]\n[3, 0]\n[3, 0]]", fillcolor="#e58139"] ;
575 -> 577 ;
578 [label="residual sugar <= 2.75\ngini = 0.175\nsamples = 7\nvalue = [[7, 0]\n[7, 0]\n[6, 1]\n[6, 1]\n[3, 4]\n[6, 1]\n[7, 0]]", fillcolor="#f9e4d5"] ;
574 -> 578 ;
579 [label="gini = 0.0\nsamples = 1\nvalue = [[1, 0]\n[1, 0]\n[0, 1]\n[1, 0]\n[1, 0]\n[1, 0]\n[1, 0]]", fillcolor="#e58139"] ;
578 -> 579 ;
580 [label="alcohol <= 11.85\ngini = 0.143\nsamples = 6\nvalue = [[6, 0]\n[6, 0]\n[6, 0]\n[5, 1]\n[2, 4]\n[5, 1]\n[6, 0]]", fillcolor="#f6d2b8"] ;
578 -> 580 ;
581 [label="volatile acidity <= 0.235\ngini = 0.091\nsamples = 5\nvalue = [[5, 0]\n[5, 0]\n[5, 0]\n[4, 1]\n[1, 4]\n[5, 0]\n[5, 0]]", fillcolor="#f0b58a"] ;
580 -> 581 ;
582 [label="gini = 0.0\nsamples = 4\nvalue = [[4, 0]\n[4, 0]\n[4, 0]\n[4, 0]\n[0, 4]\n[4, 0]\n[4, 0]]", fillcolor="#e58139"] ;
581 -> 582 ;
583 [label="gini = 0.0\nsamples = 1\nvalue = [[1, 0]\n[1, 0]\n[1, 0]\n[0, 1]\n[1, 0]\n[1, 0]\n[1, 0]]", fillcolor="#e58139"] ;
581 -> 583 ;
584 [label="gini = 0.0\nsamples = 1\nvalue = [[1, 0]\n[1, 0]\n[1, 0]\n[1, 0]\n[1, 0]\n[0, 1]\n[1, 0]]", fillcolor="#e58139"] ;
580 -> 584 ;
585 [label="density <= 0.994\ngini = 0.139\nsamples = 12\nvalue = [[12, 0]\n[12, 0]\n[4, 8]\n[9, 3]\n[11, 1]\n[12, 0]\n[12, 0]]", fillcolor="#f5d0b5"] ;
573 -> 585 ;
586 [label="volatile acidity <= 0.19\ngini = 0.16\nsamples = 5\nvalue = [[5, 0]\n[5, 0]\n[4, 1]\n[2, 3]\n[4, 1]\n[5, 0]\n[5, 0]]", fillcolor="#f8dcc8"] ;
585 -> 586 ;
587 [label="gini = 0.0\nsamples = 1\nvalue = [[1, 0]\n[1, 0]\n[1, 0]\n[1, 0]\n[0, 1]\n[1, 0]\n[1, 0]]", fillcolor="#e58139"] ;
586 -> 587 ;
588 [label="alcohol <= 10.8\ngini = 0.107\nsamples = 4\nvalue = [[4, 0]\n[4, 0]\n[3, 1]\n[1, 3]\n[4, 0]\n[4, 0]\n[4, 0]]", fillcolor="#f2be98"] ;
586 -> 588 ;
589 [label="total sulfur dioxide <= 134.5\ngini = 0.143\nsamples = 2\nvalue = [[2, 0]\n[2, 0]\n[1, 1]\n[1, 1]\n[2, 0]\n[2, 0]\n[2, 0]]", fillcolor="#f6d2b8"] ;
588 -> 589 ;
590 [label="gini = 0.0\nsamples = 1\nvalue = [[1, 0]\n[1, 0]\n[1, 0]\n[0, 1]\n[1, 0]\n[1, 0]\n[1, 0]]", fillcolor="#e58139"] ;
589 -> 590 ;
591 [label="gini = 0.0\nsamples = 1\nvalue = [[1, 0]\n[1, 0]\n[0, 1]\n[1, 0]\n[1, 0]\n[1, 0]\n[1, 0]]", fillcolor="#e58139"] ;
589 -> 591 ;
592 [label="gini = 0.0\nsamples = 2\nvalue = [[2, 0]\n[2, 0]\n[2, 0]\n[0, 2]\n[2, 0]\n[2, 0]\n[2, 0]]", fillcolor="#e58139"] ;
588 -> 592 ;
593 [label="gini = 0.0\nsamples = 7\nvalue = [[7, 0]\n[7, 0]\n[0, 7]\n[7, 0]\n[7, 0]\n[7, 0]\n[7, 0]]", fillcolor="#e58139"] ;
585 -> 593 ;
594 [label="gini = 0.0\nsamples = 2\nvalue = [[2, 0]\n[2, 0]\n[2, 0]\n[2, 0]\n[0, 2]\n[2, 0]\n[2, 0]]", fillcolor="#e58139"] ;
572 -> 594 ;
595 [label="fixed acidity <= 7.05\ngini = 0.17\nsamples = 62\nvalue = [[62, 0]\n[61, 1]\n[56, 6]\n[28, 34]\n[43, 19]\n[60, 2]\n[62, 0]]", fillcolor="#f9e1d0"] ;
571 -> 595 ;
596 [label="pH <= 3.235\ngini = 0.138\nsamples = 43\nvalue = [[43, 0]\n[43, 0]\n[39, 4]\n[14, 29]\n[33, 10]\n[43, 0]\n[43, 0]]", fillcolor="#f5cfb4"] ;
595 -> 596 ;
597 [label="free sulfur dioxide <= 41.5\ngini = 0.041\nsamples = 13\nvalue = [[13, 0]\n[13, 0]\n[12, 1]\n[1, 12]\n[13, 0]\n[13, 0]\n[13, 0]]", fillcolor="#ea985d"] ;
596 -> 597 ;
598 [label="gini = 0.0\nsamples = 12\nvalue = [[12, 0]\n[12, 0]\n[12, 0]\n[0, 12]\n[12, 0]\n[12, 0]\n[12, 0]]", fillcolor="#e58139"] ;
597 -> 598 ;
599 [label="gini = 0.0\nsamples = 1\nvalue = [[1, 0]\n[1, 0]\n[0, 1]\n[1, 0]\n[1, 0]\n[1, 0]\n[1, 0]]", fillcolor="#e58139"] ;
597 -> 599 ;
600 [label="pH <= 3.48\ngini = 0.159\nsamples = 30\nvalue = [[30, 0]\n[30, 0]\n[27, 3]\n[13, 17]\n[20, 10]\n[30, 0]\n[30, 0]]", fillcolor="#f8dbc7"] ;
596 -> 600 ;
601 [label="free sulfur dioxide <= 28.5\ngini = 0.17\nsamples = 25\nvalue = [[25, 0]\n[25, 0]\n[22, 3]\n[13, 12]\n[15, 10]\n[25, 0]\n[25, 0]]", fillcolor="#f9e1d1"] ;
600 -> 601 ;
602 [label="residual sugar <= 1.55\ngini = 0.062\nsamples = 8\nvalue = [[8, 0]\n[8, 0]\n[7, 1]\n[1, 7]\n[8, 0]\n[8, 0]\n[8, 0]]", fillcolor="#eca471"] ;
601 -> 602 ;
603 [label="gini = 0.0\nsamples = 1\nvalue = [[1, 0]\n[1, 0]\n[0, 1]\n[1, 0]\n[1, 0]\n[1, 0]\n[1, 0]]", fillcolor="#e58139"] ;
602 -> 603 ;
604 [label="gini = 0.0\nsamples = 7\nvalue = [[7, 0]\n[7, 0]\n[7, 0]\n[0, 7]\n[7, 0]\n[7, 0]\n[7, 0]]", fillcolor="#e58139"] ;
602 -> 604 ;
605 [label="sulphates <= 0.54\ngini = 0.158\nsamples = 17\nvalue = [[17, 0]\n[17, 0]\n[15, 2]\n[12, 5]\n[7, 10]\n[17, 0]\n[17, 0]]", fillcolor="#f8dbc6"] ;
601 -> 605 ;
606 [label="total sulfur dioxide <= 139.0\ngini = 0.176\nsamples = 13\nvalue = [[13, 0]\n[13, 0]\n[11, 2]\n[8, 5]\n[7, 6]\n[13, 0]\n[13, 0]]", fillcolor="#fae5d6"] ;
605 -> 606 ;
607 [label="pH <= 3.35\ngini = 0.163\nsamples = 7\nvalue = [[7, 0]\n[7, 0]\n[5, 2]\n[6, 1]\n[3, 4]\n[7, 0]\n[7, 0]]", fillcolor="#f8deca"] ;
606 -> 607 ;
608 [label="gini = 0.0\nsamples = 2\nvalue = [[2, 0]\n[2, 0]\n[0, 2]\n[2, 0]\n[2, 0]\n[2, 0]\n[2, 0]]", fillcolor="#e58139"] ;
607 -> 608 ;
609 [label="density <= 0.992\ngini = 0.091\nsamples = 5\nvalue = [[5, 0]\n[5, 0]\n[5, 0]\n[4, 1]\n[1, 4]\n[5, 0]\n[5, 0]]", fillcolor="#f0b58a"] ;
607 -> 609 ;
610 [label="gini = 0.0\nsamples = 1\nvalue = [[1, 0]\n[1, 0]\n[1, 0]\n[0, 1]\n[1, 0]\n[1, 0]\n[1, 0]]", fillcolor="#e58139"] ;
609 -> 610 ;
611 [label="gini = 0.0\nsamples = 4\nvalue = [[4, 0]\n[4, 0]\n[4, 0]\n[4, 0]\n[0, 4]\n[4, 0]\n[4, 0]]", fillcolor="#e58139"] ;
609 -> 611 ;
612 [label="density <= 0.993\ngini = 0.127\nsamples = 6\nvalue = [[6, 0]\n[6, 0]\n[6, 0]\n[2, 4]\n[4, 2]\n[6, 0]\n[6, 0]]", fillcolor="#f4c9aa"] ;
606 -> 612 ;
613 [label="residual sugar <= 4.95\ngini = 0.127\nsamples = 3\nvalue = [[3, 0]\n[3, 0]\n[3, 0]\n[2, 1]\n[1, 2]\n[3, 0]\n[3, 0]]", fillcolor="#f4c9aa"] ;
612 -> 613 ;
614 [label="gini = 0.0\nsamples = 1\nvalue = [[1, 0]\n[1, 0]\n[1, 0]\n[0, 1]\n[1, 0]\n[1, 0]\n[1, 0]]", fillcolor="#e58139"] ;
613 -> 614 ;
615 [label="gini = 0.0\nsamples = 2\nvalue = [[2, 0]\n[2, 0]\n[2, 0]\n[2, 0]\n[0, 2]\n[2, 0]\n[2, 0]]", fillcolor="#e58139"] ;
613 -> 615 ;
616 [label="gini = 0.0\nsamples = 3\nvalue = [[3, 0]\n[3, 0]\n[3, 0]\n[0, 3]\n[3, 0]\n[3, 0]\n[3, 0]]", fillcolor="#e58139"] ;
612 -> 616 ;
617 [label="gini = 0.0\nsamples = 4\nvalue = [[4, 0]\n[4, 0]\n[4, 0]\n[4, 0]\n[0, 4]\n[4, 0]\n[4, 0]]", fillcolor="#e58139"] ;
605 -> 617 ;
618 [label="gini = 0.0\nsamples = 5\nvalue = [[5, 0]\n[5, 0]\n[5, 0]\n[0, 5]\n[5, 0]\n[5, 0]\n[5, 0]]", fillcolor="#e58139"] ;
600 -> 618 ;
619 [label="alcohol <= 11.65\ngini = 0.195\nsamples = 19\nvalue = [[19, 0]\n[18, 1]\n[17, 2]\n[14, 5]\n[10, 9]\n[17, 2]\n[19, 0]]", fillcolor="#fcefe6"] ;
595 -> 619 ;
620 [label="residual sugar <= 1.65\ngini = 0.188\nsamples = 17\nvalue = [[17, 0]\n[16, 1]\n[15, 2]\n[14, 3]\n[8, 9]\n[15, 2]\n[17, 0]]", fillcolor="#fbece0"] ;
619 -> 620 ;
621 [label="density <= 0.992\ngini = 0.127\nsamples = 3\nvalue = [[3, 0]\n[3, 0]\n[3, 0]\n[3, 0]\n[2, 1]\n[1, 2]\n[3, 0]]", fillcolor="#f4c9aa"] ;
620 -> 621 ;
622 [label="gini = 0.0\nsamples = 2\nvalue = [[2, 0]\n[2, 0]\n[2, 0]\n[2, 0]\n[2, 0]\n[0, 2]\n[2, 0]]", fillcolor="#e58139"] ;
621 -> 622 ;
623 [label="gini = 0.0\nsamples = 1\nvalue = [[1, 0]\n[1, 0]\n[1, 0]\n[1, 0]\n[0, 1]\n[1, 0]\n[1, 0]]", fillcolor="#e58139"] ;
621 -> 623 ;
624 [label="total sulfur dioxide <= 118.5\ngini = 0.172\nsamples = 14\nvalue = [[14, 0]\n[13, 1]\n[12, 2]\n[11, 3]\n[6, 8]\n[14, 0]\n[14, 0]]", fillcolor="#f9e3d2"] ;
620 -> 624 ;
625 [label="pH <= 3.285\ngini = 0.127\nsamples = 3\nvalue = [[3, 0]\n[2, 1]\n[3, 0]\n[1, 2]\n[3, 0]\n[3, 0]\n[3, 0]]", fillcolor="#f4c9aa"] ;
624 -> 625 ;
626 [label="gini = 0.0\nsamples = 1\nvalue = [[1, 0]\n[1, 0]\n[1, 0]\n[0, 1]\n[1, 0]\n[1, 0]\n[1, 0]]", fillcolor="#e58139"] ;
625 -> 626 ;
627 [label="volatile acidity <= 0.225\ngini = 0.143\nsamples = 2\nvalue = [[2, 0]\n[1, 1]\n[2, 0]\n[1, 1]\n[2, 0]\n[2, 0]\n[2, 0]]", fillcolor="#f6d2b8"] ;
625 -> 627 ;
628 [label="gini = 0.0\nsamples = 1\nvalue = [[1, 0]\n[0, 1]\n[1, 0]\n[1, 0]\n[1, 0]\n[1, 0]\n[1, 0]]", fillcolor="#e58139"] ;
627 -> 628 ;
629 [label="gini = 0.0\nsamples = 1\nvalue = [[1, 0]\n[1, 0]\n[1, 0]\n[0, 1]\n[1, 0]\n[1, 0]\n[1, 0]]", fillcolor="#e58139"] ;
627 -> 629 ;
630 [label="citric acid <= 0.33\ngini = 0.123\nsamples = 11\nvalue = [[11, 0]\n[11, 0]\n[9, 2]\n[10, 1]\n[3, 8]\n[11, 0]\n[11, 0]]", fillcolor="#f3c7a6"] ;
624 -> 630 ;
631 [label="chlorides <= 0.031\ngini = 0.163\nsamples = 7\nvalue = [[7, 0]\n[7, 0]\n[5, 2]\n[6, 1]\n[3, 4]\n[7, 0]\n[7, 0]]", fillcolor="#f8deca"] ;
630 -> 631 ;
632 [label="gini = 0.0\nsamples = 2\nvalue = [[2, 0]\n[2, 0]\n[0, 2]\n[2, 0]\n[2, 0]\n[2, 0]\n[2, 0]]", fillcolor="#e58139"] ;
631 -> 632 ;
633 [label="total sulfur dioxide <= 132.5\ngini = 0.091\nsamples = 5\nvalue = [[5, 0]\n[5, 0]\n[5, 0]\n[4, 1]\n[1, 4]\n[5, 0]\n[5, 0]]", fillcolor="#f0b58a"] ;
631 -> 633 ;
634 [label="residual sugar <= 3.65\ngini = 0.143\nsamples = 2\nvalue = [[2, 0]\n[2, 0]\n[2, 0]\n[1, 1]\n[1, 1]\n[2, 0]\n[2, 0]]", fillcolor="#f6d2b8"] ;
633 -> 634 ;
635 [label="gini = 0.0\nsamples = 1\nvalue = [[1, 0]\n[1, 0]\n[1, 0]\n[0, 1]\n[1, 0]\n[1, 0]\n[1, 0]]", fillcolor="#e58139"] ;
634 -> 635 ;
636 [label="gini = 0.0\nsamples = 1\nvalue = [[1, 0]\n[1, 0]\n[1, 0]\n[1, 0]\n[0, 1]\n[1, 0]\n[1, 0]]", fillcolor="#e58139"] ;
634 -> 636 ;
637 [label="gini = 0.0\nsamples = 3\nvalue = [[3, 0]\n[3, 0]\n[3, 0]\n[3, 0]\n[0, 3]\n[3, 0]\n[3, 0]]", fillcolor="#e58139"] ;
633 -> 637 ;
638 [label="gini = 0.0\nsamples = 4\nvalue = [[4, 0]\n[4, 0]\n[4, 0]\n[4, 0]\n[0, 4]\n[4, 0]\n[4, 0]]", fillcolor="#e58139"] ;
630 -> 638 ;
639 [label="gini = 0.0\nsamples = 2\nvalue = [[2, 0]\n[2, 0]\n[2, 0]\n[0, 2]\n[2, 0]\n[2, 0]\n[2, 0]]", fillcolor="#e58139"] ;
619 -> 639 ;
640 [label="sulphates <= 0.445\ngini = 0.153\nsamples = 31\nvalue = [[31, 0]\n[31, 0]\n[29, 2]\n[22, 9]\n[12, 19]\n[30, 1]\n[31, 0]]", fillcolor="#f7d8c1"] ;
570 -> 640 ;
641 [label="density <= 0.995\ngini = 0.174\nsamples = 16\nvalue = [[16, 0]\n[16, 0]\n[15, 1]\n[9, 7]\n[9, 7]\n[15, 1]\n[16, 0]]", fillcolor="#f9e4d4"] ;
640 -> 641 ;
642 [label="residual sugar <= 9.15\ngini = 0.155\nsamples = 12\nvalue = [[12, 0]\n[12, 0]\n[12, 0]\n[5, 7]\n[8, 4]\n[11, 1]\n[12, 0]]", fillcolor="#f7d9c3"] ;
641 -> 642 ;
643 [label="total sulfur dioxide <= 131.0\ngini = 0.127\nsamples = 3\nvalue = [[3, 0]\n[3, 0]\n[3, 0]\n[3, 0]\n[1, 2]\n[2, 1]\n[3, 0]]", fillcolor="#f4c9aa"] ;
642 -> 643 ;
644 [label="gini = 0.0\nsamples = 1\nvalue = [[1, 0]\n[1, 0]\n[1, 0]\n[1, 0]\n[1, 0]\n[0, 1]\n[1, 0]]", fillcolor="#e58139"] ;
643 -> 644 ;
645 [label="gini = 0.0\nsamples = 2\nvalue = [[2, 0]\n[2, 0]\n[2, 0]\n[2, 0]\n[0, 2]\n[2, 0]\n[2, 0]]", fillcolor="#e58139"] ;
643 -> 645 ;
646 [label="total sulfur dioxide <= 112.5\ngini = 0.099\nsamples = 9\nvalue = [[9, 0]\n[9, 0]\n[9, 0]\n[2, 7]\n[7, 2]\n[9, 0]\n[9, 0]]", fillcolor="#f1b991"] ;
642 -> 646 ;
