digraph Tree {
node [shape=box, style="filled", color="black"] ;
0 [label="alcohol <= 10.85\ngini = 0.193\nsamples = 3281\nvalue = [[3268, 13]\n[3164, 117]\n[2296, 985]\n[1814, 1467]\n[2705, 576]\n[3163, 118]\n[3276, 5]]", fillcolor="#ffffff"] ;
1 [label="gini = 0.18\nsamples = 2068\nvalue = [[2061, 7]\n[1975, 93]\n[1200, 868]\n[1179, 889]\n[1885, 183]\n[2041, 27]\n[2067, 1]]", fillcolor="#e58139"] ;
0 -> 1 [labeldistance=2.5, labelangle=45, headlabel="True"] ;
2 [label="gini = 0.186\nsamples = 1213\nvalue = [[1207, 6]\n[1189, 24]\n[1096, 117]\n[635, 578]\n[820, 393]\n[1122, 91]\n[1209, 4]]", fillcolor="#f2c09b"] ;
0 -> 2 [labeldistance=2.5, labelangle=-45, headlabel="False"] ;
}
