digraph Tree {
node [shape=box, style="filled", color="black"] ;
0 [label="chlorides <= 0.039\ngini = 0.193\nsamples = 3281\nvalue = [[3268, 13]\n[3164, 117]\n[2296, 985]\n[1814, 1467]\n[2705, 576]\n[3163, 118]\n[3276, 5]]", fillcolor="#fcf2eb"] ;
1 [label="density <= 0.992\ngini = 0.195\nsamples = 1265\nvalue = [[1258, 7]\n[1235, 30]\n[1049, 216]\n[700, 565]\n[893, 372]\n[1195, 70]\n[1260, 5]]", fillcolor="#fdf3ec"] ;
0 -> 1 [labeldistance=2.5, labelangle=45, headlabel="True"] ;
2 [label="total sulfur dioxide <= 85.5\ngini = 0.181\nsamples = 560\nvalue = [[557, 3]\n[548, 12]\n[533, 27]\n[317, 243]\n[330, 230]\n[519, 41]\n[556, 4]]", fillcolor="#fbebe0"] ;
1 -> 2 ;
3 [label="pH <= 3.245\ngini = 0.188\nsamples = 120\nvalue = [[119, 1]\n[114, 6]\n[107, 13]\n[60, 60]\n[87, 33]\n[114, 6]\n[119, 1]]", fillcolor="#fcefe6"] ;
2 -> 3 ;
4 [label="residual sugar <= 1.15\ngini = 0.161\nsamples = 75\nvalue = [[75, 0]\n[72, 3]\n[67, 8]\n[29, 46]\n[59, 16]\n[73, 2]\n[75, 0]]", fillcolor="#f8dfcd"] ;
3 -> 4 ;
5 [label="alcohol <= 11.4\ngini = 0.131\nsamples = 19\nvalue = [[19, 0]\n[18, 1]\n[14, 5]\n[6, 13]\n[19, 0]\n[19, 0]\n[19, 0]]", fillcolor="#f5ceb2"] ;
4 -> 5 ;
6 [label="volatile acidity <= 0.25\ngini = 0.166\nsamples = 10\nvalue = [[10, 0]\n[9, 1]\n[5, 5]\n[6, 4]\n[10, 0]\n[10, 0]\n[10, 0]]", fillcolor="#f9e2d1"] ;
5 -> 6 ;
7 [label="chlorides <= 0.029\ngini = 0.127\nsamples = 6\nvalue = [[6, 0]\n[6, 0]\n[4, 2]\n[2, 4]\n[6, 0]\n[6, 0]\n[6, 0]]", fillcolor="#f4cbae"] ;
6 -> 7 ;
8 [label="gini = 0.0\nsamples = 1\nvalue = [[1, 0]\n[1, 0]\n[0, 1]\n[1, 0]\n[1, 0]\n[1, 0]\n[1, 0]]", fillcolor="#e58139"] ;
7 -> 8 ;
9 [label="sulphates <= 0.445\ngini = 0.091\nsamples = 5\nvalue = [[5, 0]\n[5, 0]\n[4, 1]\n[1, 4]\n[5, 0]\n[5, 0]\n[5, 0]]", fillcolor="#f0b78d"] ;
7 -> 9 ;
10 [label="gini = 0.0\nsamples = 1\nvalue = [[1, 0]\n[1, 0]\n[0, 1]\n[1, 0]\n[1, 0]\n[1, 0]\n[1, 0]]", fillcolor="#e58139"] ;
9 -> 10 ;
11 [label="gini = 0.0\nsamples = 4\nvalue = [[4, 0]\n[4, 0]\n[4, 0]\n[0, 4]\n[4, 0]\n[4, 0]\n[4, 0]]", fillcolor="#e58139"] ;
9 -> 11 ;
12 [label="free sulfur dioxide <= 10.5\ngini = 0.107\nsamples = 4\nvalue = [[4, 0]\n[3, 1]\n[1, 3]\n[4, 0]\n[4, 0]\n[4, 0]\n[4, 0]]", fillcolor="#f2c09c"] ;
6 -> 12 ;
13 [label="gini = 0.0\nsamples = 1\nvalue = [[1, 0]\n[0, 1]\n[1, 0]\n[1, 0]\n[1, 0]\n[1, 0]\n[1, 0]]", fillcolor="#e58139"] ;
12 -> 13 ;
14 [label="gini = 0.0\nsamples = 3\nvalue = [[3, 0]\n[3, 0]\n[0, 3]\n[3, 0]\n[3, 0]\n[3, 0]\n[3, 0]]", fillcolor="#e58139"] ;
12 -> 14 ;
15 [label="gini = 0.0\nsamples = 9\nvalue = [[9, 0]\n[9, 0]\n[9, 0]\n[0, 9]\n[9, 0]\n[9, 0]\n[9, 0]]", fillcolor="#e58139"] ;
5 -> 15 ;
16 [label="fixed acidity <= 6.75\ngini = 0.162\nsamples = 56\nvalue = [[56, 0]\n[54, 2]\n[53, 3]\n[23, 33]\n[40, 16]\n[54, 2]\n[56, 0]]", fillcolor="#f9e0ce"] ;
4 -> 16 ;
17 [label="alcohol <= 12.65\ngini = 0.12\nsamples = 37\nvalue = [[37, 0]\n[36, 1]\n[36, 1]\n[10, 27]\n[29, 8]\n[37, 0]\n[37, 0]]", fillcolor="#f3c7a7"] ;
16 -> 17 ;
18 [label="pH <= 2.92\ngini = 0.058\nsamples = 27\nvalue = [[27, 0]\n[27, 0]\n[26, 1]\n[3, 24]\n[25, 2]\n[27, 0]\n[27, 0]]", fillcolor="#eca36e"] ;
17 -> 18 ;
19 [label="gini = 0.0\nsamples = 1\nvalue = [[1, 0]\n[1, 0]\n[1, 0]\n[1, 0]\n[0, 1]\n[1, 0]\n[1, 0]]", fillcolor="#e58139"] ;
18 -> 19 ;
20 [label="citric acid <= 0.245\ngini = 0.041\nsamples = 26\nvalue = [[26, 0]\n[26, 0]\n[25, 1]\n[2, 24]\n[25, 1]\n[26, 0]\n[26, 0]]", fillcolor="#ea995f"] ;
18 -> 20 ;
21 [label="gini = 0.0\nsamples = 1\nvalue = [[1, 0]\n[1, 0]\n[0, 1]\n[1, 0]\n[1, 0]\n[1, 0]\n[1, 0]]", fillcolor="#e58139"] ;
20 -> 21 ;
22 [label="sulphates <= 0.615\ngini = 0.022\nsamples = 25\nvalue = [[25, 0]\n[25, 0]\n[25, 0]\n[1, 24]\n[24, 1]\n[25, 0]\n[25, 0]]", fillcolor="#e88e4d"] ;
20 -> 22 ;
23 [label="gini = 0.0\nsamples = 20\nvalue = [[20, 0]\n[20, 0]\n[20, 0]\n[0, 20]\n[20, 0]\n[20, 0]\n[20, 0]]", fillcolor="#e58139"] ;
22 -> 23 ;
24 [label="sulphates <= 0.68\ngini = 0.091\nsamples = 5\nvalue = [[5, 0]\n[5, 0]\n[5, 0]\n[1, 4]\n[4, 1]\n[5, 0]\n[5, 0]]", fillcolor="#f0b78d"] ;
22 -> 24 ;
25 [label="gini = 0.0\nsamples = 1\nvalue = [[1, 0]\n[1, 0]\n[1, 0]\n[1, 0]\n[0, 1]\n[1, 0]\n[1, 0]]", fillcolor="#e58139"] ;
24 -> 25 ;
26 [label="gini = 0.0\nsamples = 4\nvalue = [[4, 0]\n[4, 0]\n[4, 0]\n[0, 4]\n[4, 0]\n[4, 0]\n[4, 0]]", fillcolor="#e58139"] ;
24 -> 26 ;
27 [label="alcohol <= 12.85\ngini = 0.154\nsamples = 10\nvalue = [[10, 0]\n[9, 1]\n[10, 0]\n[7, 3]\n[4, 6]\n[10, 0]\n[10, 0]]", fillcolor="#f8dbc7"] ;
17 -> 27 ;
28 [label="gini = 0.0\nsamples = 4\nvalue = [[4, 0]\n[4, 0]\n[4, 0]\n[4, 0]\n[0, 4]\n[4, 0]\n[4, 0]]", fillcolor="#e58139"] ;
27 -> 28 ;
29 [label="sulphates <= 0.61\ngini = 0.175\nsamples = 6\nvalue = [[6, 0]\n[5, 1]\n[6, 0]\n[3, 3]\n[4, 2]\n[6, 0]\n[6, 0]]", fillcolor="#fae7da"] ;
27 -> 29 ;
30 [label="chlorides <= 0.034\ngini = 0.143\nsamples = 2\nvalue = [[2, 0]\n[1, 1]\n[2, 0]\n[2, 0]\n[1, 1]\n[2, 0]\n[2, 0]]", fillcolor="#f6d5bc"] ;
29 -> 30 ;
31 [label="gini = 0.0\nsamples = 1\nvalue = [[1, 0]\n[0, 1]\n[1, 0]\n[1, 0]\n[1, 0]\n[1, 0]\n[1, 0]]", fillcolor="#e58139"] ;
30 -> 31 ;
32 [label="gini = 0.0\nsamples = 1\nvalue = [[1, 0]\n[1, 0]\n[1, 0]\n[1, 0]\n[0, 1]\n[1, 0]\n[1, 0]]", fillcolor="#e58139"] ;
30 -> 32 ;
33 [label="pH <= 3.075\ngini = 0.107\nsamples = 4\nvalue = [[4, 0]\n[4, 0]\n[4, 0]\n[1, 3]\n[3, 1]\n[4, 0]\n[4, 0]]", fillcolor="#f2c09c"] ;
29 -> 33 ;
34 [label="gini = 0.0\nsamples = 1\nvalue = [[1, 0]\n[1, 0]\n[1, 0]\n[1, 0]\n[0, 1]\n[1, 0]\n[1, 0]]", fillcolor="#e58139"] ;
33 -> 34 ;
35 [label="gini = 0.0\nsamples = 3\nvalue = [[3, 0]\n[3, 0]\n[3, 0]\n[0, 3]\n[3, 0]\n[3, 0]\n[3, 0]]", fillcolor="#e58139"] ;
33 -> 35 ;
36 [label="residual sugar <= 2.15\ngini = 0.199\nsamples = 19\nvalue = [[19, 0]\n[18, 1]\n[17, 2]\n[13, 6]\n[11, 8]\n[17, 2]\n[19, 0]]", fillcolor="#fdf6f0"] ;
16 -> 36 ;
37 [label="pH <= 3.01\ngini = 0.194\nsamples = 12\nvalue = [[12, 0]\n[11, 1]\n[10, 2]\n[6, 6]\n[10, 2]\n[11, 1]\n[12, 0]]", fillcolor="#fcf3ec"] ;
36 -> 37 ;
38 [label="chlorides <= 0.033\ngini = 0.19\nsamples = 3\nvalue = [[3, 0]\n[3, 0]\n[2, 1]\n[3, 0]\n[2, 1]\n[2, 1]\n[3, 0]]", fillcolor="#fcf1e8"] ;
37 -> 38 ;
39 [label="gini = 0.0\nsamples = 1\nvalue = [[1, 0]\n[1, 0]\n[1, 0]\n[1, 0]\n[1, 0]\n[0, 1]\n[1, 0]]", fillcolor="#e58139"] ;
38 -> 39 ;
40 [label="volatile acidity <= 0.267\ngini = 0.143\nsamples = 2\nvalue = [[2, 0]\n[2, 0]\n[1, 1]\n[2, 0]\n[1, 1]\n[2, 0]\n[2, 0]]", fillcolor="#f6d5bc"] ;
38 -> 40 ;
41 [label="gini = 0.0\nsamples = 1\nvalue = [[1, 0]\n[1, 0]\n[1, 0]\n[1, 0]\n[0, 1]\n[1, 0]\n[1, 0]]", fillcolor="#e58139"] ;
40 -> 41 ;
42 [label="gini = 0.0\nsamples = 1\nvalue = [[1, 0]\n[1, 0]\n[0, 1]\n[1, 0]\n[1, 0]\n[1, 0]\n[1, 0]]", fillcolor="#e58139"] ;
40 -> 42 ;
43 [label="citric acid <= 0.405\ngini = 0.148\nsamples = 9\nvalue = [[9, 0]\n[8, 1]\n[8, 1]\n[3, 6]\n[8, 1]\n[9, 0]\n[9, 0]]", fillcolor="#f7d8c1"] ;
37 -> 43 ;
44 [label="density <= 0.99\ngini = 0.07\nsamples = 7\nvalue = [[7, 0]\n[6, 1]\n[7, 0]\n[1, 6]\n[7, 0]\n[7, 0]\n[7, 0]]", fillcolor="#edaa79"] ;
43 -> 44 ;
45 [label="total sulfur dioxide <= 74.0\ngini = 0.143\nsamples = 2\nvalue = [[2, 0]\n[1, 1]\n[2, 0]\n[1, 1]\n[2, 0]\n[2, 0]\n[2, 0]]", fillcolor="#f6d5bc"] ;
44 -> 45 ;
46 [label="gini = 0.0\nsamples = 1\nvalue = [[1, 0]\n[0, 1]\n[1, 0]\n[1, 0]\n[1, 0]\n[1, 0]\n[1, 0]]", fillcolor="#e58139"] ;
45 -> 46 ;
47 [label="gini = 0.0\nsamples = 1\nvalue = [[1, 0]\n[1, 0]\n[1, 0]\n[0, 1]\n[1, 0]\n[1, 0]\n[1, 0]]", fillcolor="#e58139"] ;
45 -> 47 ;
48 [label="gini = 0.0\nsamples = 5\nvalue = [[5, 0]\n[5, 0]\n[5, 0]\n[0, 5]\n[5, 0]\n[5, 0]\n[5, 0]]", fillcolor="#e58139"] ;
44 -> 48 ;
49 [label="alcohol <= 12.35\ngini = 0.143\nsamples = 2\nvalue = [[2, 0]\n[2, 0]\n[1, 1]\n[2, 0]\n[1, 1]\n[2, 0]\n[2, 0]]", fillcolor="#f6d5bc"] ;
43 -> 49 ;
50 [label="gini = 0.0\nsamples = 1\nvalue = [[1, 0]\n[1, 0]\n[1, 0]\n[1, 0]\n[0, 1]\n[1, 0]\n[1, 0]]", fillcolor="#e58139"] ;
49 -> 50 ;
51 [label="gini = 0.0\nsamples = 1\nvalue = [[1, 0]\n[1, 0]\n[0, 1]\n[1, 0]\n[1, 0]\n[1, 0]\n[1, 0]]", fillcolor="#e58139"] ;
49 -> 51 ;
52 [label="volatile acidity <= 0.49\ngini = 0.07\nsamples = 7\nvalue = [[7, 0]\n[7, 0]\n[7, 0]\n[7, 0]\n[1, 6]\n[6, 1]\n[7, 0]]", fillcolor="#edaa79"] ;
36 -> 52 ;
53 [label="gini = 0.0\nsamples = 6\nvalue = [[6, 0]\n[6, 0]\n[6, 0]\n[6, 0]\n[0, 6]\n[6, 0]\n[6, 0]]", fillcolor="#e58139"] ;
52 -> 53 ;
54 [label="gini = 0.0\nsamples = 1\nvalue = [[1, 0]\n[1, 0]\n[1, 0]\n[1, 0]\n[1, 0]\n[0, 1]\n[1, 0]]", fillcolor="#e58139"] ;
52 -> 54 ;
55 [label="alcohol <= 11.35\ngini = 0.21\nsamples = 45\nvalue = [[44, 1]\n[42, 3]\n[40, 5]\n[31, 14]\n[28, 17]\n[41, 4]\n[44, 1]]", fillcolor="#fefcfa"] ;
3 -> 55 ;
56 [label="pH <= 3.4\ngini = 0.148\nsamples = 9\nvalue = [[9, 0]\n[8, 1]\n[9, 0]\n[8, 1]\n[3, 6]\n[8, 1]\n[9, 0]]", fillcolor="#f7d8c1"] ;
55 -> 56 ;
57 [label="sulphates <= 0.545\ngini = 0.07\nsamples = 7\nvalue = [[7, 0]\n[7, 0]\n[7, 0]\n[7, 0]\n[1, 6]\n[6, 1]\n[7, 0]]", fillcolor="#edaa79"] ;
56 -> 57 ;
58 [label="gini = 0.0\nsamples = 5\nvalue = [[5, 0]\n[5, 0]\n[5, 0]\n[5, 0]\n[0, 5]\n[5, 0]\n[5, 0]]", fillcolor="#e58139"] ;
57 -> 58 ;
59 [label="pH <= 3.295\ngini = 0.143\nsamples = 2\nvalue = [[2, 0]\n[2, 0]\n[2, 0]\n[2, 0]\n[1, 1]\n[1, 1]\n[2, 0]]", fillcolor="#f6d5bc"] ;
57 -> 59 ;
60 [label="gini = 0.0\nsamples = 1\nvalue = [[1, 0]\n[1, 0]\n[1, 0]\n[1, 0]\n[0, 1]\n[1, 0]\n[1, 0]]", fillcolor="#e58139"] ;
59 -> 60 ;
61 [label="gini = 0.0\nsamples = 1\nvalue = [[1, 0]\n[1, 0]\n[1, 0]\n[1, 0]\n[1, 0]\n[0, 1]\n[1, 0]]", fillcolor="#e58139"] ;
59 -> 61 ;
62 [label="citric acid <= 0.2\ngini = 0.143\nsamples = 2\nvalue = [[2, 0]\n[1, 1]\n[2, 0]\n[1, 1]\n[2, 0]\n[2, 0]\n[2, 0]]", fillcolor="#f6d5bc"] ;
56 -> 62 ;
63 [label="gini = 0.0\nsamples = 1\nvalue = [[1, 0]\n[0, 1]\n[1, 0]\n[1, 0]\n[1, 0]\n[1, 0]\n[1, 0]]", fillcolor="#e58139"] ;
62 -> 63 ;
64 [label="gini = 0.0\nsamples = 1\nvalue = [[1, 0]\n[1, 0]\n[1, 0]\n[0, 1]\n[1, 0]\n[1, 0]\n[1, 0]]", fillcolor="#e58139"] ;
62 -> 64 ;
65 [label="volatile acidity <= 0.157\ngini = 0.213\nsamples = 36\nvalue = [[35, 1]\n[34, 2]\n[31, 5]\n[23, 13]\n[25, 11]\n[33, 3]\n[35, 1]]", fillcolor="#fffefd"] ;
55 -> 65 ;
66 [label="gini = 0.0\nsamples = 2\nvalue = [[2, 0]\n[2, 0]\n[2, 0]\n[2, 0]\n[2, 0]\n[0, 2]\n[2, 0]]", fillcolor="#e58139"] ;
65 -> 66 ;
67 [label="alcohol <= 12.55\ngini = 0.206\nsamples = 34\nvalue = [[33, 1]\n[32, 2]\n[29, 5]\n[21, 13]\n[23, 11]\n[33, 1]\n[33, 1]]", fillcolor="#fefaf7"] ;
65 -> 67 ;
68 [label="pH <= 3.295\ngini = 0.196\nsamples = 23\nvalue = [[23, 0]\n[21, 2]\n[19, 4]\n[12, 11]\n[18, 5]\n[23, 0]\n[22, 1]]", fillcolor="#fdf3ed"] ;
67 -> 68 ;
69 [label="citric acid <= 0.36\ngini = 0.091\nsamples = 5\nvalue = [[5, 0]\n[5, 0]\n[5, 0]\n[4, 1]\n[1, 4]\n[5, 0]\n[5, 0]]", fillcolor="#f0b78d"] ;
68 -> 69 ;
70 [label="gini = 0.0\nsamples = 4\nvalue = [[4, 0]\n[4, 0]\n[4, 0]\n[4, 0]\n[0, 4]\n[4, 0]\n[4, 0]]", fillcolor="#e58139"] ;
69 -> 70 ;
71 [label="gini = 0.0\nsamples = 1\nvalue = [[1, 0]\n[1, 0]\n[1, 0]\n[0, 1]\n[1, 0]\n[1, 0]\n[1, 0]]", fillcolor="#e58139"] ;
69 -> 71 ;
72 [label="pH <= 3.36\ngini = 0.178\nsamples = 18\nvalue = [[18, 0]\n[16, 2]\n[14, 4]\n[8, 10]\n[17, 1]\n[18, 0]\n[17, 1]]", fillcolor="#fbe9dd"] ;
68 -> 72 ;
73 [label="free sulfur dioxide <= 9.0\ngini = 0.106\nsamples = 9\nvalue = [[9, 0]\n[8, 1]\n[9, 0]\n[2, 7]\n[8, 1]\n[9, 0]\n[9, 0]]", fillcolor="#f2bf9a"] ;
72 -> 73 ;
74 [label="gini = 0.0\nsamples = 1\nvalue = [[1, 0]\n[0, 1]\n[1, 0]\n[1, 0]\n[1, 0]\n[1, 0]\n[1, 0]]", fillcolor="#e58139"] ;
73 -> 74 ;
75 [label="fixed acidity <= 6.45\ngini = 0.062\nsamples = 8\nvalue = [[8, 0]\n[8, 0]\n[8, 0]\n[1, 7]\n[7, 1]\n[8, 0]\n[8, 0]]", fillcolor="#eda672"] ;
73 -> 75 ;
76 [label="gini = 0.0\nsamples = 7\nvalue = [[7, 0]\n[7, 0]\n[7, 0]\n[0, 7]\n[7, 0]\n[7, 0]\n[7, 0]]", fillcolor="#e58139"] ;
75 -> 76 ;
77 [label="gini = 0.0\nsamples = 1\nvalue = [[1, 0]\n[1, 0]\n[1, 0]\n[1, 0]\n[0, 1]\n[1, 0]\n[1, 0]]", fillcolor="#e58139"] ;
75 -> 77 ;
78 [label="volatile acidity <= 0.355\ngini = 0.19\nsamples = 9\nvalue = [[9, 0]\n[8, 1]\n[5, 4]\n[6, 3]\n[9, 0]\n[9, 0]\n[8, 1]]", fillcolor="#fcf1e8"] ;
72 -> 78 ;
79 [label="gini = 0.0\nsamples = 4\nvalue = [[4, 0]\n[4, 0]\n[0, 4]\n[4, 0]\n[4, 0]\n[4, 0]\n[4, 0]]", fillcolor="#e58139"] ;
78 -> 79 ;
80 [label="density <= 0.991\ngini = 0.16\nsamples = 5\nvalue = [[5, 0]\n[4, 1]\n[5, 0]\n[2, 3]\n[5, 0]\n[5, 0]\n[4, 1]]", fillcolor="#f8dfcc"] ;
78 -> 80 ;
81 [label="chlorides <= 0.024\ngini = 0.107\nsamples = 4\nvalue = [[4, 0]\n[4, 0]\n[4, 0]\n[1, 3]\n[4, 0]\n[4, 0]\n[3, 1]]", fillcolor="#f2c09c"] ;
80 -> 81 ;
82 [label="gini = 0.0\nsamples = 1\nvalue = [[1, 0]\n[1, 0]\n[1, 0]\n[1, 0]\n[1, 0]\n[1, 0]\n[0, 1]]", fillcolor="#e58139"] ;
81 -> 82 ;
83 [label="gini = 0.0\nsamples = 3\nvalue = [[3, 0]\n[3, 0]\n[3, 0]\n[0, 3]\n[3, 0]\n[3, 0]\n[3, 0]]", fillcolor="#e58139"] ;
81 -> 83 ;
84 [label="gini = 0.0\nsamples = 1\nvalue = [[1, 0]\n[0, 1]\n[1, 0]\n[1, 0]\n[1, 0]\n[1, 0]\n[1, 0]]", fillcolor="#e58139"] ;
80 -> 84 ;
85 [label="pH <= 3.29\ngini = 0.184\nsamples = 11\nvalue = [[10, 1]\n[11, 0]\n[10, 1]\n[9, 2]\n[5, 6]\n[10, 1]\n[11, 0]]", fillcolor="#fbede2"] ;
67 -> 85 ;
86 [label="sulphates <= 0.37\ngini = 0.127\nsamples = 3\nvalue = [[3, 0]\n[3, 0]\n[2, 1]\n[1, 2]\n[3, 0]\n[3, 0]\n[3, 0]]", fillcolor="#f4cbae"] ;
85 -> 86 ;
87 [label="gini = 0.0\nsamples = 1\nvalue = [[1, 0]\n[1, 0]\n[0, 1]\n[1, 0]\n[1, 0]\n[1, 0]\n[1, 0]]", fillcolor="#e58139"] ;
86 -> 87 ;
88 [label="gini = 0.0\nsamples = 2\nvalue = [[2, 0]\n[2, 0]\n[2, 0]\n[0, 2]\n[2, 0]\n[2, 0]\n[2, 0]]", fillcolor="#e58139"] ;
86 -> 88 ;
89 [label="citric acid <= 0.395\ngini = 0.116\nsamples = 8\nvalue = [[7, 1]\n[8, 0]\n[8, 0]\n[8, 0]\n[2, 6]\n[7, 1]\n[8, 0]]", fillcolor="#f3c5a4"] ;
85 -> 89 ;
90 [label="gini = 0.0\nsamples = 6\nvalue = [[6, 0]\n[6, 0]\n[6, 0]\n[6, 0]\n[0, 6]\n[6, 0]\n[6, 0]]", fillcolor="#e58139"] ;
89 -> 90 ;
91 [label="sulphates <= 0.38\ngini = 0.143\nsamples = 2\nvalue = [[1, 1]\n[2, 0]\n[2, 0]\n[2, 0]\n[2, 0]\n[1, 1]\n[2, 0]]", fillcolor="#f6d5bc"] ;
89 -> 91 ;
92 [label="gini = 0.0\nsamples = 1\nvalue = [[0, 1]\n[1, 0]\n[1, 0]\n[1, 0]\n[1, 0]\n[1, 0]\n[1, 0]]", fillcolor="#e58139"] ;
91 -> 92 ;
93 [label="gini = 0.0\nsamples = 1\nvalue = [[1, 0]\n[1, 0]\n[1, 0]\n[1, 0]\n[1, 0]\n[0, 1]\n[1, 0]]", fillcolor="#e58139"] ;
91 -> 93 ;
94 [label="citric acid <= 0.425\ngini = 0.177\nsamples = 440\nvalue = [[438, 2]\n[434, 6]\n[426, 14]\n[257, 183]\n[243, 197]\n[405, 35]\n[437, 3]]", fillcolor="#fae9dc"] ;
2 -> 94 ;
95 [label="pH <= 3.075\ngini = 0.175\nsamples = 403\nvalue = [[402, 1]\n[398, 5]\n[389, 14]\n[243, 160]\n[212, 191]\n[373, 30]\n[401, 2]]", fillcolor="#fae7da"] ;
94 -> 95 ;
96 [label="free sulfur dioxide <= 5.5\ngini = 0.18\nsamples = 84\nvalue = [[84, 0]\n[81, 3]\n[78, 6]\n[39, 45]\n[62, 22]\n[76, 8]\n[84, 0]]", fillcolor="#fbeade"] ;
95 -> 96 ;
97 [label="gini = 0.0\nsamples = 2\nvalue = [[2, 0]\n[0, 2]\n[2, 0]\n[2, 0]\n[2, 0]\n[2, 0]\n[2, 0]]", fillcolor="#e58139"] ;
96 -> 97 ;
98 [label="sulphates <= 0.355\ngini = 0.175\nsamples = 82\nvalue = [[82, 0]\n[81, 1]\n[76, 6]\n[37, 45]\n[60, 22]\n[74, 8]\n[82, 0]]", fillcolor="#fae7da"] ;
96 -> 98 ;
99 [label="pH <= 2.98\ngini = 0.212\nsamples = 16\nvalue = [[16, 0]\n[16, 0]\n[11, 5]\n[13, 3]\n[12, 4]\n[12, 4]\n[16, 0]]", fillcolor="#fffdfc"] ;
98 -> 99 ;
100 [label="total sulfur dioxide <= 112.0\ngini = 0.091\nsamples = 5\nvalue = [[5, 0]\n[5, 0]\n[1, 4]\n[4, 1]\n[5, 0]\n[5, 0]\n[5, 0]]", fillcolor="#f0b78d"] ;
99 -> 100 ;
101 [label="gini = 0.0\nsamples = 1\nvalue = [[1, 0]\n[1, 0]\n[1, 0]\n[0, 1]\n[1, 0]\n[1, 0]\n[1, 0]]", fillcolor="#e58139"] ;
100 -> 101 ;
102 [label="gini = 0.0\nsamples = 4\nvalue = [[4, 0]\n[4, 0]\n[0, 4]\n[4, 0]\n[4, 0]\n[4, 0]\n[4, 0]]", fillcolor="#e58139"] ;
100 -> 102 ;
103 [label="sulphates <= 0.325\ngini = 0.198\nsamples = 11\nvalue = [[11, 0]\n[11, 0]\n[10, 1]\n[9, 2]\n[7, 4]\n[7, 4]\n[11, 0]]", fillcolor="#fdf5ef"] ;
99 -> 103 ;
104 [label="chlorides <= 0.031\ngini = 0.14\nsamples = 7\nvalue = [[7, 0]\n[7, 0]\n[7, 0]\n[7, 0]\n[4, 3]\n[3, 4]\n[7, 0]]", fillcolor="#f6d3ba"] ;
103 -> 104 ;
105 [label="gini = 0.0\nsamples = 1\nvalue = [[1, 0]\n[1, 0]\n[1, 0]\n[1, 0]\n[0, 1]\n[1, 0]\n[1, 0]]", fillcolor="#e58139"] ;
104 -> 105 ;
106 [label="fixed acidity <= 6.8\ngini = 0.127\nsamples = 6\nvalue = [[6, 0]\n[6, 0]\n[6, 0]\n[6, 0]\n[4, 2]\n[2, 4]\n[6, 0]]", fillcolor="#f4cbae"] ;
104 -> 106 ;
107 [label="chlorides <= 0.033\ngini = 0.127\nsamples = 3\nvalue = [[3, 0]\n[3, 0]\n[3, 0]\n[3, 0]\n[1, 2]\n[2, 1]\n[3, 0]]", fillcolor="#f4cbae"] ;
106 -> 107 ;
108 [label="gini = 0.0\nsamples = 1\nvalue = [[1, 0]\n[1, 0]\n[1, 0]\n[1, 0]\n[1, 0]\n[0, 1]\n[1, 0]]", fillcolor="#e58139"] ;
107 -> 108 ;
109 [label="gini = 0.0\nsamples = 2\nvalue = [[2, 0]\n[2, 0]\n[2, 0]\n[2, 0]\n[0, 2]\n[2, 0]\n[2, 0]]", fillcolor="#e58139"] ;
107 -> 109 ;
110 [label="gini = 0.0\nsamples = 3\nvalue = [[3, 0]\n[3, 0]\n[3, 0]\n[3, 0]\n[3, 0]\n[0, 3]\n[3, 0]]", fillcolor="#e58139"] ;
106 -> 110 ;
111 [label="fixed acidity <= 6.25\ngini = 0.179\nsamples = 4\nvalue = [[4, 0]\n[4, 0]\n[3, 1]\n[2, 2]\n[3, 1]\n[4, 0]\n[4, 0]]", fillcolor="#fbeadd"] ;
103 -> 111 ;
112 [label="gini = 0.0\nsamples = 1\nvalue = [[1, 0]\n[1, 0]\n[1, 0]\n[1, 0]\n[0, 1]\n[1, 0]\n[1, 0]]", fillcolor="#e58139"] ;
111 -> 112 ;
113 [label="chlorides <= 0.032\ngini = 0.127\nsamples = 3\nvalue = [[3, 0]\n[3, 0]\n[2, 1]\n[1, 2]\n[3, 0]\n[3, 0]\n[3, 0]]", fillcolor="#f4cbae"] ;
111 -> 113 ;
114 [label="gini = 0.0\nsamples = 2\nvalue = [[2, 0]\n[2, 0]\n[2, 0]\n[0, 2]\n[2, 0]\n[2, 0]\n[2, 0]]", fillcolor="#e58139"] ;
113 -> 114 ;
115 [label="gini = 0.0\nsamples = 1\nvalue = [[1, 0]\n[1, 0]\n[0, 1]\n[1, 0]\n[1, 0]\n[1, 0]\n[1, 0]]", fillcolor="#e58139"] ;
113 -> 115 ;
116 [label="pH <= 3.005\ngini = 0.148\nsamples = 66\nvalue = [[66, 0]\n[65, 1]\n[65, 1]\n[24, 42]\n[48, 18]\n[62, 4]\n[66, 0]]", fillcolor="#f7d7c1"] ;
98 -> 116 ;
117 [label="free sulfur dioxide <= 37.5\ngini = 0.176\nsamples = 33\nvalue = [[33, 0]\n[33, 0]\n[32, 1]\n[17, 16]\n[21, 12]\n[29, 4]\n[33, 0]]", fillcolor="#fae8db"] ;
116 -> 117 ;
118 [label="chlorides <= 0.029\ngini = 0.172\nsamples = 27\nvalue = [[27, 0]\n[27, 0]\n[26, 1]\n[12, 15]\n[20, 7]\n[23, 4]\n[27, 0]]", fillcolor="#fae5d7"] ;
117 -> 118 ;
119 [label="total sulfur dioxide <= 117.0\ngini = 0.183\nsamples = 9\nvalue = [[9, 0]\n[9, 0]\n[9, 0]\n[7, 2]\n[5, 4]\n[6, 3]\n[9, 0]]", fillcolor="#fbece2"] ;
118 -> 119 ;
120 [label="pH <= 2.91\ngini = 0.175\nsamples = 6\nvalue = [[6, 0]\n[6, 0]\n[6, 0]\n[4, 2]\n[5, 1]\n[3, 3]\n[6, 0]]", fillcolor="#fae7da"] ;
119 -> 120 ;
121 [label="gini = 0.0\nsamples = 1\nvalue = [[1, 0]\n[1, 0]\n[1, 0]\n[1, 0]\n[0, 1]\n[1, 0]\n[1, 0]]", fillcolor="#e58139"] ;
120 -> 121 ;
122 [label="free sulfur dioxide <= 35.5\ngini = 0.137\nsamples = 5\nvalue = [[5, 0]\n[5, 0]\n[5, 0]\n[3, 2]\n[5, 0]\n[2, 3]\n[5, 0]]", fillcolor="#f6d1b7"] ;
120 -> 122 ;
123 [label="fixed acidity <= 6.55\ngini = 0.127\nsamples = 3\nvalue = [[3, 0]\n[3, 0]\n[3, 0]\n[1, 2]\n[3, 0]\n[2, 1]\n[3, 0]]", fillcolor="#f4cbae"] ;
122 -> 123 ;
124 [label="gini = 0.0\nsamples = 1\nvalue = [[1, 0]\n[1, 0]\n[1, 0]\n[1, 0]\n[1, 0]\n[0, 1]\n[1, 0]]", fillcolor="#e58139"] ;
123 -> 124 ;
125 [label="gini = 0.0\nsamples = 2\nvalue = [[2, 0]\n[2, 0]\n[2, 0]\n[0, 2]\n[2, 0]\n[2, 0]\n[2, 0]]", fillcolor="#e58139"] ;
123 -> 125 ;
126 [label="gini = 0.0\nsamples = 2\nvalue = [[2, 0]\n[2, 0]\n[2, 0]\n[2, 0]\n[2, 0]\n[0, 2]\n[2, 0]]", fillcolor="#e58139"] ;
122 -> 126 ;
127 [label="gini = 0.0\nsamples = 3\nvalue = [[3, 0]\n[3, 0]\n[3, 0]\n[3, 0]\n[0, 3]\n[3, 0]\n[3, 0]]", fillcolor="#e58139"] ;
119 -> 127 ;
128 [label="chlorides <= 0.037\ngini = 0.127\nsamples = 18\nvalue = [[18, 0]\n[18, 0]\n[17, 1]\n[5, 13]\n[15, 3]\n[17, 1]\n[18, 0]]", fillcolor="#f4cbae"] ;
118 -> 128 ;
129 [label="citric acid <= 0.39\ngini = 0.073\nsamples = 14\nvalue = [[14, 0]\n[14, 0]\n[14, 0]\n[2, 12]\n[13, 1]\n[13, 1]\n[14, 0]]", fillcolor="#eeac7c"] ;
128 -> 129 ;
130 [label="sulphates <= 0.4\ngini = 0.041\nsamples = 13\nvalue = [[13, 0]\n[13, 0]\n[13, 0]\n[1, 12]\n[13, 0]\n[12, 1]\n[13, 0]]", fillcolor="#ea995e"] ;
129 -> 130 ;
131 [label="fixed acidity <= 7.6\ngini = 0.127\nsamples = 3\nvalue = [[3, 0]\n[3, 0]\n[3, 0]\n[1, 2]\n[3, 0]\n[2, 1]\n[3, 0]]", fillcolor="#f4cbae"] ;
130 -> 131 ;
132 [label="gini = 0.0\nsamples = 2\nvalue = [[2, 0]\n[2, 0]\n[2, 0]\n[0, 2]\n[2, 0]\n[2, 0]\n[2, 0]]", fillcolor="#e58139"] ;
131 -> 132 ;
133 [label="gini = 0.0\nsamples = 1\nvalue = [[1, 0]\n[1, 0]\n[1, 0]\n[1, 0]\n[1, 0]\n[0, 1]\n[1, 0]]", fillcolor="#e58139"] ;
131 -> 133 ;
134 [label="gini = 0.0\nsamples = 10\nvalue = [[10, 0]\n[10, 0]\n[10, 0]\n[0, 10]\n[10, 0]\n[10, 0]\n[10, 0]]", fillcolor="#e58139"] ;
130 -> 134 ;
135 [label="gini = 0.0\nsamples = 1\nvalue = [[1, 0]\n[1, 0]\n[1, 0]\n[1, 0]\n[0, 1]\n[1, 0]\n[1, 0]]", fillcolor="#e58139"] ;
129 -> 135 ;
136 [label="citric acid <= 0.295\ngini = 0.179\nsamples = 4\nvalue = [[4, 0]\n[4, 0]\n[3, 1]\n[3, 1]\n[2, 2]\n[4, 0]\n[4, 0]]", fillcolor="#fbeadd"] ;
128 -> 136 ;
137 [label="density <= 0.99\ngini = 0.143\nsamples = 2\nvalue = [[2, 0]\n[2, 0]\n[1, 1]\n[1, 1]\n[2, 0]\n[2, 0]\n[2, 0]]", fillcolor="#f6d5bc"] ;
136 -> 137 ;
138 [label="gini = 0.0\nsamples = 1\nvalue = [[1, 0]\n[1, 0]\n[1, 0]\n[0, 1]\n[1, 0]\n[1, 0]\n[1, 0]]", fillcolor="#e58139"] ;
137 -> 138 ;
139 [label="gini = 0.0\nsamples = 1\nvalue = [[1, 0]\n[1, 0]\n[0, 1]\n[1, 0]\n[1, 0]\n[1, 0]\n[1, 0]]", fillcolor="#e58139"] ;
137 -> 139 ;
140 [label="gini = 0.0\nsamples = 2\nvalue = [[2, 0]\n[2, 0]\n[2, 0]\n[2, 0]\n[0, 2]\n[2, 0]\n[2, 0]]", fillcolor="#e58139"] ;
136 -> 140 ;
141 [label="chlorides <= 0.026\ngini = 0.079\nsamples = 6\nvalue = [[6, 0]\n[6, 0]\n[6, 0]\n[5, 1]\n[1, 5]\n[6, 0]\n[6, 0]]", fillcolor="#efaf82"] ;
117 -> 141 ;
142 [label="gini = 0.0\nsamples = 1\nvalue = [[1, 0]\n[1, 0]\n[1, 0]\n[0, 1]\n[1, 0]\n[1, 0]\n[1, 0]]", fillcolor="#e58139"] ;
141 -> 142 ;
143 [label="gini = 0.0\nsamples = 5\nvalue = [[5, 0]\n[5, 0]\n[5, 0]\n[5, 0]\n[0, 5]\n[5, 0]\n[5, 0]]", fillcolor="#e58139"] ;
141 -> 143 ;
144 [label="chlorides <= 0.024\ngini = 0.099\nsamples = 33\nvalue = [[33, 0]\n[32, 1]\n[33, 0]\n[7, 26]\n[27, 6]\n[33, 0]\n[33, 0]]", fillcolor="#f1bb94"] ;
116 -> 144 ;
145 [label="residual sugar <= 2.2\ngini = 0.143\nsamples = 2\nvalue = [[2, 0]\n[1, 1]\n[2, 0]\n[2, 0]\n[1, 1]\n[2, 0]\n[2, 0]]", fillcolor="#f6d5bc"] ;
144 -> 145 ;
146 [label="gini = 0.0\nsamples = 1\nvalue = [[1, 0]\n[1, 0]\n[1, 0]\n[1, 0]\n[0, 1]\n[1, 0]\n[1, 0]]", fillcolor="#e58139"] ;
145 -> 146 ;
147 [label="gini = 0.0\nsamples = 1\nvalue = [[1, 0]\n[0, 1]\n[1, 0]\n[1, 0]\n[1, 0]\n[1, 0]\n[1, 0]]", fillcolor="#e58139"] ;
145 -> 147 ;
148 [label="density <= 0.989\ngini = 0.077\nsamples = 31\nvalue = [[31, 0]\n[31, 0]\n[31, 0]\n[5, 26]\n[26, 5]\n[31, 0]\n[31, 0]]", fillcolor="#eeae80"] ;
144 -> 148 ;
149 [label="gini = 0.0\nsamples = 1\nvalue = [[1, 0]\n[1, 0]\n[1, 0]\n[1, 0]\n[0, 1]\n[1, 0]\n[1, 0]]", fillcolor="#e58139"] ;
148 -> 149 ;
150 [label="fixed acidity <= 7.05\ngini = 0.066\nsamples = 30\nvalue = [[30, 0]\n[30, 0]\n[30, 0]\n[4, 26]\n[26, 4]\n[30, 0]\n[30, 0]]", fillcolor="#eda876"] ;
148 -> 150 ;
151 [label="gini = 0.0\nsamples = 22\nvalue = [[22, 0]\n[22, 0]\n[22, 0]\n[0, 22]\n[22, 0]\n[22, 0]\n[22, 0]]", fillcolor="#e58139"] ;
150 -> 151 ;
152 [label="density <= 0.991\ngini = 0.143\nsamples = 8\nvalue = [[8, 0]\n[8, 0]\n[8, 0]\n[4, 4]\n[4, 4]\n[8, 0]\n[8, 0]]", fillcolor="#f6d5bc"] ;
150 -> 152 ;
153 [label="free sulfur dioxide <= 34.0\ngini = 0.107\nsamples = 4\nvalue = [[4, 0]\n[4, 0]\n[4, 0]\n[1, 3]\n[3, 1]\n[4, 0]\n[4, 0]]", fillcolor="#f2c09c"] ;
152 -> 153 ;
154 [label="gini = 0.0\nsamples = 3\nvalue = [[3, 0]\n[3, 0]\n[3, 0]\n[0, 3]\n[3, 0]\n[3, 0]\n[3, 0]]", fillcolor="#e58139"] ;
153 -> 154 ;
155 [label="gini = 0.0\nsamples = 1\nvalue = [[1, 0]\n[1, 0]\n[1, 0]\n[1, 0]\n[0, 1]\n[1, 0]\n[1, 0]]", fillcolor="#e58139"] ;
153 -> 155 ;
156 [label="total sulfur dioxide <= 116.0\ngini = 0.107\nsamples = 4\nvalue = [[4, 0]\n[4, 0]\n[4, 0]\n[3, 1]\n[1, 3]\n[4, 0]\n[4, 0]]", fillcolor="#f2c09c"] ;
152 -> 156 ;
157 [label="gini = 0.0\nsamples = 1\nvalue = [[1, 0]\n[1, 0]\n[1, 0]\n[0, 1]\n[1, 0]\n[1, 0]\n[1, 0]]", fillcolor="#e58139"] ;
156 -> 157 ;
158 [label="gini = 0.0\nsamples = 3\nvalue = [[3, 0]\n[3, 0]\n[3, 0]\n[3, 0]\n[0, 3]\n[3, 0]\n[3, 0]]", fillcolor="#e58139"] ;
156 -> 158 ;
159 [label="alcohol <= 10.625\ngini = 0.167\nsamples = 319\nvalue = [[318, 1]\n[317, 2]\n[311, 8]\n[204, 115]\n[150, 169]\n[297, 22]\n[317, 2]]", fillcolor="#f9e3d2"] ;
95 -> 159 ;
160 [label="gini = 0.0\nsamples = 9\nvalue = [[9, 0]\n[9, 0]\n[9, 0]\n[0, 9]\n[9, 0]\n[9, 0]\n[9, 0]]", fillcolor="#e58139"] ;
159 -> 160 ;
161 [label="free sulfur dioxide <= 16.5\ngini = 0.166\nsamples = 310\nvalue = [[309, 1]\n[308, 2]\n[302, 8]\n[204, 106]\n[141, 169]\n[288, 22]\n[308, 2]]", fillcolor="#f9e2d1"] ;
159 -> 161 ;
162 [label="free sulfur dioxide <= 11.5\ngini = 0.175\nsamples = 14\nvalue = [[14, 0]\n[12, 2]\n[12, 2]\n[6, 8]\n[12, 2]\n[14, 0]\n[14, 0]]", fillcolor="#fae7da"] ;
161 -> 162 ;
163 [label="fixed acidity <= 5.9\ngini = 0.183\nsamples = 5\nvalue = [[5, 0]\n[3, 2]\n[3, 2]\n[5, 0]\n[4, 1]\n[5, 0]\n[5, 0]]", fillcolor="#fbece1"] ;
162 -> 163 ;
164 [label="sulphates <= 0.42\ngini = 0.127\nsamples = 3\nvalue = [[3, 0]\n[3, 0]\n[1, 2]\n[3, 0]\n[2, 1]\n[3, 0]\n[3, 0]]", fillcolor="#f4cbae"] ;
163 -> 164 ;
165 [label="gini = 0.0\nsamples = 1\nvalue = [[1, 0]\n[1, 0]\n[1, 0]\n[1, 0]\n[0, 1]\n[1, 0]\n[1, 0]]", fillcolor="#e58139"] ;
164 -> 165 ;
166 [label="gini = 0.0\nsamples = 2\nvalue = [[2, 0]\n[2, 0]\n[0, 2]\n[2, 0]\n[2, 0]\n[2, 0]\n[2, 0]]", fillcolor="#e58139"] ;
164 -> 166 ;
167 [label="gini = 0.0\nsamples = 2\nvalue = [[2, 0]\n[0, 2]\n[2, 0]\n[2, 0]\n[2, 0]\n[2, 0]\n[2, 0]]", fillcolor="#e58139"] ;
163 -> 167 ;
168 [label="chlorides <= 0.026\ngini = 0.056\nsamples = 9\nvalue = [[9, 0]\n[9, 0]\n[9, 0]\n[1, 8]\n[8, 1]\n[9, 0]\n[9, 0]]", fillcolor="#eca26d"] ;
162 -> 168 ;
169 [label="density <= 0.99\ngini = 0.143\nsamples = 2\nvalue = [[2, 0]\n[2, 0]\n[2, 0]\n[1, 1]\n[1, 1]\n[2, 0]\n[2, 0]]", fillcolor="#f6d5bc"] ;
168 -> 169 ;
170 [label="gini = 0.0\nsamples = 1\nvalue = [[1, 0]\n[1, 0]\n[1, 0]\n[1, 0]\n[0, 1]\n[1, 0]\n[1, 0]]", fillcolor="#e58139"] ;
169 -> 170 ;
171 [label="gini = 0.0\nsamples = 1\nvalue = [[1, 0]\n[1, 0]\n[1, 0]\n[0, 1]\n[1, 0]\n[1, 0]\n[1, 0]]", fillcolor="#e58139"] ;
169 -> 171 ;
172 [label="gini = 0.0\nsamples = 7\nvalue = [[7, 0]\n[7, 0]\n[7, 0]\n[0, 7]\n[7, 0]\n[7, 0]\n[7, 0]]", fillcolor="#e58139"] ;
168 -> 172 ;
173 [label="total sulfur dioxide <= 164.5\ngini = 0.162\nsamples = 296\nvalue = [[295, 1]\n[296, 0]\n[290, 6]\n[198, 98]\n[129, 167]\n[274, 22]\n[294, 2]]", fillcolor="#f9e0ce"] ;
161 -> 173 ;
174 [label="citric acid <= 0.335\ngini = 0.156\nsamples = 284\nvalue = [[283, 1]\n[284, 0]\n[278, 6]\n[193, 91]\n[117, 167]\n[267, 17]\n[282, 2]]", fillcolor="#f8ddc9"] ;
173 -> 174 ;
175 [label="volatile acidity <= 0.545\ngini = 0.147\nsamples = 205\nvalue = [[205, 0]\n[205, 0]\n[202, 3]\n[147, 58]\n[75, 130]\n[191, 14]\n[205, 0]]", fillcolor="#f7d7c0"] ;
174 -> 175 ;
176 [label="volatile acidity <= 0.438\ngini = 0.142\nsamples = 199\nvalue = [[199, 0]\n[199, 0]\n[198, 1]\n[144, 55]\n[70, 129]\n[185, 14]\n[199, 0]]", fillcolor="#f6d4bc"] ;
175 -> 176 ;
177 [label="fixed acidity <= 6.25\ngini = 0.139\nsamples = 176\nvalue = [[176, 0]\n[176, 0]\n[175, 1]\n[123, 53]\n[62, 114]\n[168, 8]\n[176, 0]]", fillcolor="#f6d3b9"] ;
176 -> 177 ;
178 [label="chlorides <= 0.03\ngini = 0.152\nsamples = 85\nvalue = [[85, 0]\n[85, 0]\n[85, 0]\n[51, 34]\n[38, 47]\n[81, 4]\n[85, 0]]", fillcolor="#f7dac5"] ;
177 -> 178 ;
179 [label="citric acid <= 0.325\ngini = 0.132\nsamples = 39\nvalue = [[39, 0]\n[39, 0]\n[39, 0]\n[30, 9]\n[12, 27]\n[36, 3]\n[39, 0]]", fillcolor="#f5ceb2"] ;
178 -> 179 ;
180 [label="alcohol <= 13.95\ngini = 0.121\nsamples = 37\nvalue = [[37, 0]\n[37, 0]\n[37, 0]\n[30, 7]\n[10, 27]\n[34, 3]\n[37, 0]]", fillcolor="#f4c8a9"] ;
179 -> 180 ;
181 [label="alcohol <= 11.05\ngini = 0.113\nsamples = 36\nvalue = [[36, 0]\n[36, 0]\n[36, 0]\n[29, 7]\n[9, 27]\n[34, 2]\n[36, 0]]", fillcolor="#f3c3a1"] ;
180 -> 181 ;
182 [label="gini = 0.0\nsamples = 1\nvalue = [[1, 0]\n[1, 0]\n[1, 0]\n[0, 1]\n[1, 0]\n[1, 0]\n[1, 0]]", fillcolor="#e58139"] ;
181 -> 182 ;
183 [label="pH <= 3.215\ngini = 0.106\nsamples = 35\nvalue = [[35, 0]\n[35, 0]\n[35, 0]\n[29, 6]\n[8, 27]\n[33, 2]\n[35, 0]]", fillcolor="#f2bf9b"] ;
181 -> 183 ;
184 [label="fixed acidity <= 6.05\ngini = 0.179\nsamples = 4\nvalue = [[4, 0]\n[4, 0]\n[4, 0]\n[2, 2]\n[3, 1]\n[3, 1]\n[4, 0]]", fillcolor="#fbeadd"] ;
183 -> 184 ;
185 [label="gini = 0.0\nsamples = 2\nvalue = [[2, 0]\n[2, 0]\n[2, 0]\n[0, 2]\n[2, 0]\n[2, 0]\n[2, 0]]", fillcolor="#e58139"] ;
184 -> 185 ;
186 [label="alcohol <= 12.7\ngini = 0.143\nsamples = 2\nvalue = [[2, 0]\n[2, 0]\n[2, 0]\n[2, 0]\n[1, 1]\n[1, 1]\n[2, 0]]", fillcolor="#f6d5bc"] ;
184 -> 186 ;
187 [label="gini = 0.0\nsamples = 1\nvalue = [[1, 0]\n[1, 0]\n[1, 0]\n[1, 0]\n[1, 0]\n[0, 1]\n[1, 0]]", fillcolor="#e58139"] ;
186 -> 187 ;
188 [label="gini = 0.0\nsamples = 1\nvalue = [[1, 0]\n[1, 0]\n[1, 0]\n[1, 0]\n[0, 1]\n[1, 0]\n[1, 0]]", fillcolor="#e58139"] ;
186 -> 188 ;
189 [label="residual sugar <= 4.55\ngini = 0.08\nsamples = 31\nvalue = [[31, 0]\n[31, 0]\n[31, 0]\n[27, 4]\n[5, 26]\n[30, 1]\n[31, 0]]", fillcolor="#efb082"] ;
183 -> 189 ;
190 [label="volatile acidity <= 0.205\ngini = 0.068\nsamples = 30\nvalue = [[30, 0]\n[30, 0]\n[30, 0]\n[27, 3]\n[4, 26]\n[29, 1]\n[30, 0]]", fillcolor="#eda977"] ;
189 -> 190 ;
191 [label="volatile acidity <= 0.175\ngini = 0.143\nsamples = 4\nvalue = [[4, 0]\n[4, 0]\n[4, 0]\n[2, 2]\n[2, 2]\n[4, 0]\n[4, 0]]", fillcolor="#f6d5bc"] ;
190 -> 191 ;
192 [label="gini = 0.0\nsamples = 2\nvalue = [[2, 0]\n[2, 0]\n[2, 0]\n[2, 0]\n[0, 2]\n[2, 0]\n[2, 0]]", fillcolor="#e58139"] ;
191 -> 192 ;
193 [label="gini = 0.0\nsamples = 2\nvalue = [[2, 0]\n[2, 0]\n[2, 0]\n[0, 2]\n[2, 0]\n[2, 0]\n[2, 0]]", fillcolor="#e58139"] ;
191 -> 193 ;
194 [label="total sulfur dioxide <= 117.5\ngini = 0.041\nsamples = 26\nvalue = [[26, 0]\n[26, 0]\n[26, 0]\n[25, 1]\n[2, 24]\n[25, 1]\n[26, 0]]", fillcolor="#ea995f"] ;
190 -> 194 ;
195 [label="gini = 0.0\nsamples = 19\nvalue = [[19, 0]\n[19, 0]\n[19, 0]\n[19, 0]\n[0, 19]\n[19, 0]\n[19, 0]]", fillcolor="#e58139"] ;
194 -> 195 ;
196 [label="gini = 0.128\nsamples = 7\nvalue = [[7, 0]\n[7, 0]\n[7, 0]\n[6, 1]\n[2, 5]\n[6, 1]\n[7, 0]]", fillcolor="#f4ccaf"] ;
194 -> 196 ;
197 [label="gini = 0.0\nsamples = 1\nvalue = [[1, 0]\n[1, 0]\n[1, 0]\n[0, 1]\n[1, 0]\n[1, 0]\n[1, 0]]", fillcolor="#e58139"] ;
189 -> 197 ;
198 [label="gini = 0.0\nsamples = 1\nvalue = [[1, 0]\n[1, 0]\n[1, 0]\n[1, 0]\n[1, 0]\n[0, 1]\n[1, 0]]", fillcolor="#e58139"] ;
180 -> 198 ;
199 [label="gini = 0.0\nsamples = 2\nvalue = [[2, 0]\n[2, 0]\n[2, 0]\n[0, 2]\n[2, 0]\n[2, 0]\n[2, 0]]", fillcolor="#e58139"] ;
179 -> 199 ;
200 [label="free sulfur dioxide <= 33.5\ngini = 0.147\nsamples = 46\nvalue = [[46, 0]\n[46, 0]\n[46, 0]\n[21, 25]\n[26, 20]\n[45, 1]\n[46, 0]]", fillcolor="#f7d7c0"] ;
178 -> 200 ;
201 [label="sulphates <= 0.51\ngini = 0.091\nsamples = 15\nvalue = [[15, 0]\n[15, 0]\n[15, 0]\n[3, 12]\n[12, 3]\n[15, 0]\n[15, 0]]", fillcolor="#f0b78d"] ;
200 -> 201 ;
202 [label="gini = 0.0\nsamples = 10\nvalue = [[10, 0]\n[10, 0]\n[10, 0]\n[0, 10]\n[10, 0]\n[10, 0]\n[10, 0]]", fillcolor="#e58139"] ;
201 -> 202 ;
203 [label="chlorides <= 0.036\ngini = 0.137\nsamples = 5\nvalue = [[5, 0]\n[5, 0]\n[5, 0]\n[3, 2]\n[2, 3]\n[5, 0]\n[5, 0]]", fillcolor="#f6d1b7"] ;
201 -> 203 ;
204 [label="residual sugar <= 2.15\ngini = 0.127\nsamples = 3\nvalue = [[3, 0]\n[3, 0]\n[3, 0]\n[1, 2]\n[2, 1]\n[3, 0]\n[3, 0]]", fillcolor="#f4cbae"] ;
203 -> 204 ;
205 [label="gini = 0.0\nsamples = 2\nvalue = [[2, 0]\n[2, 0]\n[2, 0]\n[0, 2]\n[2, 0]\n[2, 0]\n[2, 0]]", fillcolor="#e58139"] ;
204 -> 205 ;
206 [label="gini = 0.0\nsamples = 1\nvalue = [[1, 0]\n[1, 0]\n[1, 0]\n[1, 0]\n[0, 1]\n[1, 0]\n[1, 0]]", fillcolor="#e58139"] ;
204 -> 206 ;
207 [label="gini = 0.0\nsamples = 2\nvalue = [[2, 0]\n[2, 0]\n[2, 0]\n[2, 0]\n[0, 2]\n[2, 0]\n[2, 0]]", fillcolor="#e58139"] ;
203 -> 207 ;
208 [label="fixed acidity <= 6.05\ngini = 0.149\nsamples = 31\nvalue = [[31, 0]\n[31, 0]\n[31, 0]\n[18, 13]\n[14, 17]\n[30, 1]\n[31, 0]]", fillcolor="#f7d8c2"] ;
200 -> 208 ;
209 [label="volatile acidity <= 0.225\ngini = 0.153\nsamples = 23\nvalue = [[23, 0]\n[23, 0]\n[23, 0]\n[11, 12]\n[13, 10]\n[22, 1]\n[23, 0]]", fillcolor="#f8dbc6"] ;
208 -> 209 ;
210 [label="free sulfur dioxide <= 34.5\ngini = 0.091\nsamples = 10\nvalue = [[10, 0]\n[10, 0]\n[10, 0]\n[2, 8]\n[8, 2]\n[10, 0]\n[10, 0]]", fillcolor="#f0b78d"] ;
209 -> 210 ;
211 [label="gini = 0.0\nsamples = 1\nvalue = [[1, 0]\n[1, 0]\n[1, 0]\n[1, 0]\n[0, 1]\n[1, 0]\n[1, 0]]", fillcolor="#e58139"] ;
210 -> 211 ;
212 [label="citric acid <= 0.32\ngini = 0.056\nsamples = 9\nvalue = [[9, 0]\n[9, 0]\n[9, 0]\n[1, 8]\n[8, 1]\n[9, 0]\n[9, 0]]", fillcolor="#eca26d"] ;
210 -> 212 ;
213 [label="gini = 0.0\nsamples = 7\nvalue = [[7, 0]\n[7, 0]\n[7, 0]\n[0, 7]\n[7, 0]\n[7, 0]\n[7, 0]]", fillcolor="#e58139"] ;
212 -> 213 ;
214 [label="free sulfur dioxide <= 43.0\ngini = 0.143\nsamples = 2\nvalue = [[2, 0]\n[2, 0]\n[2, 0]\n[1, 1]\n[1, 1]\n[2, 0]\n[2, 0]]", fillcolor="#f6d5bc"] ;
212 -> 214 ;
215 [label="gini = 0.0\nsamples = 1\nvalue = [[1, 0]\n[1, 0]\n[1, 0]\n[0, 1]\n[1, 0]\n[1, 0]\n[1, 0]]", fillcolor="#e58139"] ;
214 -> 215 ;
216 [label="gini = 0.0\nsamples = 1\nvalue = [[1, 0]\n[1, 0]\n[1, 0]\n[1, 0]\n[0, 1]\n[1, 0]\n[1, 0]]", fillcolor="#e58139"] ;
214 -> 216 ;
217 [label="pH <= 3.22\ngini = 0.149\nsamples = 13\nvalue = [[13, 0]\n[13, 0]\n[13, 0]\n[9, 4]\n[5, 8]\n[12, 1]\n[13, 0]]", fillcolor="#f7d8c2"] ;
209 -> 217 ;
218 [label="alcohol <= 12.5\ngini = 0.127\nsamples = 3\nvalue = [[3, 0]\n[3, 0]\n[3, 0]\n[1, 2]\n[3, 0]\n[2, 1]\n[3, 0]]", fillcolor="#f4cbae"] ;
217 -> 218 ;
219 [label="gini = 0.0\nsamples = 2\nvalue = [[2, 0]\n[2, 0]\n[2, 0]\n[0, 2]\n[2, 0]\n[2, 0]\n[2, 0]]", fillcolor="#e58139"] ;
218 -> 219 ;
220 [label="gini = 0.0\nsamples = 1\nvalue = [[1, 0]\n[1, 0]\n[1, 0]\n[1, 0]\n[1, 0]\n[0, 1]\n[1, 0]]", fillcolor="#e58139"] ;
218 -> 220 ;
221 [label="residual sugar <= 2.6\ngini = 0.091\nsamples = 10\nvalue = [[10, 0]\n[10, 0]\n[10, 0]\n[8, 2]\n[2, 8]\n[10, 0]\n[10, 0]]", fillcolor="#f0b78d"] ;
217 -> 221 ;
222 [label="gini = 0.0\nsamples = 5\nvalue = [[5, 0]\n[5, 0]\n[5, 0]\n[5, 0]\n[0, 5]\n[5, 0]\n[5, 0]]", fillcolor="#e58139"] ;
221 -> 222 ;
223 [label="chlorides <= 0.036\ngini = 0.137\nsamples = 5\nvalue = [[5, 0]\n[5, 0]\n[5, 0]\n[3, 2]\n[2, 3]\n[5, 0]\n[5, 0]]", fillcolor="#f6d1b7"] ;
221 -> 223 ;
224 [label="gini = 0.0\nsamples = 2\nvalue = [[2, 0]\n[2, 0]\n[2, 0]\n[2, 0]\n[0, 2]\n[2, 0]\n[2, 0]]", fillcolor="#e58139"] ;
223 -> 224 ;
225 [label="pH <= 3.325\ngini = 0.127\nsamples = 3\nvalue = [[3, 0]\n[3, 0]\n[3, 0]\n[1, 2]\n[2, 1]\n[3, 0]\n[3, 0]]", fillcolor="#f4cbae"] ;
223 -> 225 ;
226 [label="gini = 0.0\nsamples = 1\nvalue = [[1, 0]\n[1, 0]\n[1, 0]\n[1, 0]\n[0, 1]\n[1, 0]\n[1, 0]]", fillcolor="#e58139"] ;
225 -> 226 ;
227 [label="gini = 0.0\nsamples = 2\nvalue = [[2, 0]\n[2, 0]\n[2, 0]\n[0, 2]\n[2, 0]\n[2, 0]\n[2, 0]]", fillcolor="#e58139"] ;
225 -> 227 ;
228 [label="free sulfur dioxide <= 37.5\ngini = 0.062\nsamples = 8\nvalue = [[8, 0]\n[8, 0]\n[8, 0]\n[7, 1]\n[1, 7]\n[8, 0]\n[8, 0]]", fillcolor="#eda672"] ;
208 -> 228 ;
229 [label="sulphates <= 0.45\ngini = 0.143\nsamples = 2\nvalue = [[2, 0]\n[2, 0]\n[2, 0]\n[1, 1]\n[1, 1]\n[2, 0]\n[2, 0]]", fillcolor="#f6d5bc"] ;
228 -> 229 ;
230 [label="gini = 0.0\nsamples = 1\nvalue = [[1, 0]\n[1, 0]\n[1, 0]\n[0, 1]\n[1, 0]\n[1, 0]\n[1, 0]]", fillcolor="#e58139"] ;
229 -> 230 ;
231 [label="gini = 0.0\nsamples = 1\nvalue = [[1, 0]\n[1, 0]\n[1, 0]\n[1, 0]\n[0, 1]\n[1, 0]\n[1, 0]]", fillcolor="#e58139"] ;
229 -> 231 ;
232 [label="gini = 0.0\nsamples = 6\nvalue = [[6, 0]\n[6, 0]\n[6, 0]\n[6, 0]\n[0, 6]\n[6, 0]\n[6, 0]]", fillcolor="#e58139"] ;
228 -> 232 ;
233 [label="fixed acidity <= 7.25\ngini = 0.118\nsamples = 91\nvalue = [[91, 0]\n[91, 0]\n[90, 1]\n[72, 19]\n[24, 67]\n[87, 4]\n[91, 0]]", fillcolor="#f3c6a5"] ;
177 -> 233 ;
234 [label="volatile acidity <= 0.415\ngini = 0.128\nsamples = 81\nvalue = [[81, 0]\n[81, 0]\n[80, 1]\n[62, 19]\n[24, 57]\n[77, 4]\n[81, 0]]", fillcolor="#f4ccaf"] ;
233 -> 234 ;
235 [label="chlorides <= 0.025\ngini = 0.123\nsamples = 79\nvalue = [[79, 0]\n[79, 0]\n[78, 1]\n[62, 17]\n[22, 57]\n[75, 4]\n[79, 0]]", fillcolor="#f4c9aa"] ;
234 -> 235 ;
236 [label="alcohol <= 12.3\ngini = 0.152\nsamples = 8\nvalue = [[8, 0]\n[8, 0]\n[8, 0]\n[3, 5]\n[6, 2]\n[7, 1]\n[8, 0]]", fillcolor="#f7dac5"] ;
235 -> 236 ;
237 [label="chlorides <= 0.015\ngini = 0.079\nsamples = 6\nvalue = [[6, 0]\n[6, 0]\n[6, 0]\n[1, 5]\n[5, 1]\n[6, 0]\n[6, 0]]", fillcolor="#efaf82"] ;
236 -> 237 ;
238 [label="gini = 0.0\nsamples = 1\nvalue = [[1, 0]\n[1, 0]\n[1, 0]\n[1, 0]\n[0, 1]\n[1, 0]\n[1, 0]]", fillcolor="#e58139"] ;
237 -> 238 ;
239 [label="gini = 0.0\nsamples = 5\nvalue = [[5, 0]\n[5, 0]\n[5, 0]\n[0, 5]\n[5, 0]\n[5, 0]\n[5, 0]]", fillcolor="#e58139"] ;
237 -> 239 ;
240 [label="citric acid <= 0.32\ngini = 0.143\nsamples = 2\nvalue = [[2, 0]\n[2, 0]\n[2, 0]\n[2, 0]\n[1, 1]\n[1, 1]\n[2, 0]]", fillcolor="#f6d5bc"] ;
236 -> 240 ;
241 [label="gini = 0.0\nsamples = 1\nvalue = [[1, 0]\n[1, 0]\n[1, 0]\n[1, 0]\n[1, 0]\n[0, 1]\n[1, 0]]", fillcolor="#e58139"] ;
240 -> 241 ;
242 [label="gini = 0.0\nsamples = 1\nvalue = [[1, 0]\n[1, 0]\n[1, 0]\n[1, 0]\n[0, 1]\n[1, 0]\n[1, 0]]", fillcolor="#e58139"] ;
240 -> 242 ;
243 [label="total sulfur dioxide <= 97.5\ngini = 0.106\nsamples = 71\nvalue = [[71, 0]\n[71, 0]\n[70, 1]\n[59, 12]\n[16, 55]\n[68, 3]\n[71, 0]]", fillcolor="#f2bf9a"] ;
235 -> 243 ;
244 [label="pH <= 3.245\ngini = 0.163\nsamples = 16\nvalue = [[16, 0]\n[16, 0]\n[16, 0]\n[11, 5]\n[7, 9]\n[14, 2]\n[16, 0]]", fillcolor="#f9e0cf"] ;
243 -> 244 ;
245 [label="free sulfur dioxide <= 35.5\ngini = 0.152\nsamples = 8\nvalue = [[8, 0]\n[8, 0]\n[8, 0]\n[3, 5]\n[7, 1]\n[6, 2]\n[8, 0]]", fillcolor="#f7dac5"] ;
244 -> 245 ;
246 [label="free sulfur dioxide <= 22.5\ngini = 0.079\nsamples = 6\nvalue = [[6, 0]\n[6, 0]\n[6, 0]\n[1, 5]\n[5, 1]\n[6, 0]\n[6, 0]]", fillcolor="#efaf82"] ;
245 -> 246 ;
247 [label="gini = 0.0\nsamples = 1\nvalue = [[1, 0]\n[1, 0]\n[1, 0]\n[1, 0]\n[0, 1]\n[1, 0]\n[1, 0]]", fillcolor="#e58139"] ;
246 -> 247 ;
248 [label="gini = 0.0\nsamples = 5\nvalue = [[5, 0]\n[5, 0]\n[5, 0]\n[0, 5]\n[5, 0]\n[5, 0]\n[5, 0]]", fillcolor="#e58139"] ;
246 -> 248 ;
249 [label="gini = 0.0\nsamples = 2\nvalue = [[2, 0]\n[2, 0]\n[2, 0]\n[2, 0]\n[2, 0]\n[0, 2]\n[2, 0]]", fillcolor="#e58139"] ;
245 -> 249 ;
250 [label="gini = 0.0\nsamples = 8\nvalue = [[8, 0]\n[8, 0]\n[8, 0]\n[8, 0]\n[0, 8]\n[8, 0]\n[8, 0]]", fillcolor="#e58139"] ;
244 -> 250 ;
251 [label="free sulfur dioxide <= 19.0\ngini = 0.081\nsamples = 55\nvalue = [[55, 0]\n[55, 0]\n[54, 1]\n[48, 7]\n[9, 46]\n[54, 1]\n[55, 0]]", fillcolor="#efb084"] ;
243 -> 251 ;
252 [label="total sulfur dioxide <= 107.5\ngini = 0.127\nsamples = 3\nvalue = [[3, 0]\n[3, 0]\n[3, 0]\n[1, 2]\n[2, 1]\n[3, 0]\n[3, 0]]", fillcolor="#f4cbae"] ;
251 -> 252 ;
253 [label="gini = 0.0\nsamples = 1\nvalue = [[1, 0]\n[1, 0]\n[1, 0]\n[1, 0]\n[0, 1]\n[1, 0]\n[1, 0]]", fillcolor="#e58139"] ;
252 -> 253 ;
254 [label="gini = 0.0\nsamples = 2\nvalue = [[2, 0]\n[2, 0]\n[2, 0]\n[0, 2]\n[2, 0]\n[2, 0]\n[2, 0]]", fillcolor="#e58139"] ;
252 -> 254 ;
255 [label="volatile acidity <= 0.355\ngini = 0.069\nsamples = 52\nvalue = [[52, 0]\n[52, 0]\n[51, 1]\n[47, 5]\n[7, 45]\n[51, 1]\n[52, 0]]", fillcolor="#eda978"] ;
251 -> 255 ;
256 [label="citric acid <= 0.285\ngini = 0.055\nsamples = 47\nvalue = [[47, 0]\n[47, 0]\n[46, 1]\n[43, 4]\n[5, 42]\n[47, 0]\n[47, 0]]", fillcolor="#eca16c"] ;
255 -> 256 ;
257 [label="free sulfur dioxide <= 27.0\ngini = 0.099\nsamples = 18\nvalue = [[18, 0]\n[18, 0]\n[18, 0]\n[14, 4]\n[4, 14]\n[18, 0]\n[18, 0]]", fillcolor="#f1bb94"] ;
256 -> 257 ;
258 [label="gini = 0.0\nsamples = 5\nvalue = [[5, 0]\n[5, 0]\n[5, 0]\n[5, 0]\n[0, 5]\n[5, 0]\n[5, 0]]", fillcolor="#e58139"] ;
257 -> 258 ;
259 [label="gini = 0.122\nsamples = 13\nvalue = [[13, 0]\n[13, 0]\n[13, 0]\n[9, 4]\n[4, 9]\n[13, 0]\n[13, 0]]", fillcolor="#f4c8a9"] ;
257 -> 259 ;
260 [label="fixed acidity <= 6.35\ngini = 0.019\nsamples = 29\nvalue = [[29, 0]\n[29, 0]\n[28, 1]\n[29, 0]\n[1, 28]\n[29, 0]\n[29, 0]]", fillcolor="#e78c4b"] ;
256 -> 260 ;
261 [label="gini = 0.127\nsamples = 3\nvalue = [[3, 0]\n[3, 0]\n[2, 1]\n[3, 0]\n[1, 2]\n[3, 0]\n[3, 0]]", fillcolor="#f4cbae"] ;
260 -> 261 ;
262 [label="gini = 0.0\nsamples = 26\nvalue = [[26, 0]\n[26, 0]\n[26, 0]\n[26, 0]\n[0, 26]\n[26, 0]\n[26, 0]]", fillcolor="#e58139"] ;
260 -> 262 ;
263 [label="free sulfur dioxide <= 32.5\ngini = 0.16\nsamples = 5\nvalue = [[5, 0]\n[5, 0]\n[5, 0]\n[4, 1]\n[2, 3]\n[4, 1]\n[5, 0]]", fillcolor="#f8dfcc"] ;
255 -> 263 ;
264 [label="free sulfur dioxide <= 30.5\ngini = 0.143\nsamples = 2\nvalue = [[2, 0]\n[2, 0]\n[2, 0]\n[1, 1]\n[2, 0]\n[1, 1]\n[2, 0]]", fillcolor="#f6d5bc"] ;
263 -> 264 ;
265 [label="gini = 0.0\nsamples = 1\nvalue = [[1, 0]\n[1, 0]\n[1, 0]\n[1, 0]\n[1, 0]\n[0, 1]\n[1, 0]]", fillcolor="#e58139"] ;
264 -> 265 ;
266 [label="gini = 0.0\nsamples = 1\nvalue = [[1, 0]\n[1, 0]\n[1, 0]\n[0, 1]\n[1, 0]\n[1, 0]\n[1, 0]]", fillcolor="#e58139"] ;
264 -> 266 ;
267 [label="gini = 0.0\nsamples = 3\nvalue = [[3, 0]\n[3, 0]\n[3, 0]\n[3, 0]\n[0, 3]\n[3, 0]\n[3, 0]]", fillcolor="#e58139"] ;
263 -> 267 ;
268 [label="gini = 0.0\nsamples = 2\nvalue = [[2, 0]\n[2, 0]\n[2, 0]\n[0, 2]\n[2, 0]\n[2, 0]\n[2, 0]]", fillcolor="#e58139"] ;
234 -> 268 ;
269 [label="gini = 0.0\nsamples = 10\nvalue = [[10, 0]\n[10, 0]\n[10, 0]\n[10, 0]\n[0, 10]\n[10, 0]\n[10, 0]]", fillcolor="#e58139"] ;
233 -> 269 ;
270 [label="citric acid <= 0.175\ngini = 0.143\nsamples = 23\nvalue = [[23, 0]\n[23, 0]\n[23, 0]\n[21, 2]\n[8, 15]\n[17, 6]\n[23, 0]]", fillcolor="#f6d4bc"] ;
176 -> 270 ;
271 [label="density <= 0.99\ngini = 0.177\nsamples = 10\nvalue = [[10, 0]\n[10, 0]\n[10, 0]\n[8, 2]\n[7, 3]\n[5, 5]\n[10, 0]]", fillcolor="#fae9dc"] ;
270 -> 271 ;
272 [label="residual sugar <= 2.75\ngini = 0.117\nsamples = 7\nvalue = [[7, 0]\n[7, 0]\n[7, 0]\n[5, 2]\n[7, 0]\n[2, 5]\n[7, 0]]", fillcolor="#f3c5a4"] ;
271 -> 272 ;
273 [label="density <= 0.99\ngini = 0.079\nsamples = 6\nvalue = [[6, 0]\n[6, 0]\n[6, 0]\n[5, 1]\n[6, 0]\n[1, 5]\n[6, 0]]", fillcolor="#efaf82"] ;
272 -> 273 ;
274 [label="gini = 0.0\nsamples = 5\nvalue = [[5, 0]\n[5, 0]\n[5, 0]\n[5, 0]\n[5, 0]\n[0, 5]\n[5, 0]]", fillcolor="#e58139"] ;
273 -> 274 ;
275 [label="gini = 0.0\nsamples = 1\nvalue = [[1, 0]\n[1, 0]\n[1, 0]\n[0, 1]\n[1, 0]\n[1, 0]\n[1, 0]]", fillcolor="#e58139"] ;
273 -> 275 ;
276 [label="gini = 0.0\nsamples = 1\nvalue = [[1, 0]\n[1, 0]\n[1, 0]\n[0, 1]\n[1, 0]\n[1, 0]\n[1, 0]]", fillcolor="#e58139"] ;
272 -> 276 ;
277 [label="gini = 0.0\nsamples = 3\nvalue = [[3, 0]\n[3, 0]\n[3, 0]\n[3, 0]\n[0, 3]\n[3, 0]\n[3, 0]]", fillcolor="#e58139"] ;
271 -> 277 ;
278 [label="residual sugar <= 6.1\ngini = 0.041\nsamples = 13\nvalue = [[13, 0]\n[13, 0]\n[13, 0]\n[13, 0]\n[1, 12]\n[12, 1]\n[13, 0]]", fillcolor="#ea995e"] ;
270 -> 278 ;
279 [label="gini = 0.0\nsamples = 12\nvalue = [[12, 0]\n[12, 0]\n[12, 0]\n[12, 0]\n[0, 12]\n[12, 0]\n[12, 0]]", fillcolor="#e58139"] ;
278 -> 279 ;
280 [label="gini = 0.0\nsamples = 1\nvalue = [[1, 0]\n[1, 0]\n[1, 0]\n[1, 0]\n[1, 0]\n[0, 1]\n[1, 0]]", fillcolor="#e58139"] ;
278 -> 280 ;
281 [label="free sulfur dioxide <= 36.5\ngini = 0.175\nsamples = 6\nvalue = [[6, 0]\n[6, 0]\n[4, 2]\n[3, 3]\n[5, 1]\n[6, 0]\n[6, 0]]", fillcolor="#fae7da"] ;
175 -> 281 ;
282 [label="gini = 0.0\nsamples = 3\nvalue = [[3, 0]\n[3, 0]\n[3, 0]\n[0, 3]\n[3, 0]\n[3, 0]\n[3, 0]]", fillcolor="#e58139"] ;
281 -> 282 ;
283 [label="citric acid <= 0.195\ngini = 0.127\nsamples = 3\nvalue = [[3, 0]\n[3, 0]\n[1, 2]\n[3, 0]\n[2, 1]\n[3, 0]\n[3, 0]]", fillcolor="#f4cbae"] ;
281 -> 283 ;
284 [label="gini = 0.0\nsamples = 2\nvalue = [[2, 0]\n[2, 0]\n[0, 2]\n[2, 0]\n[2, 0]\n[2, 0]\n[2, 0]]", fillcolor="#e58139"] ;
283 -> 284 ;
285 [label="gini = 0.0\nsamples = 1\nvalue = [[1, 0]\n[1, 0]\n[1, 0]\n[1, 0]\n[0, 1]\n[1, 0]\n[1, 0]]", fillcolor="#e58139"] ;
283 -> 285 ;
286 [label="alcohol <= 12.75\ngini = 0.172\nsamples = 79\nvalue = [[78, 1]\n[79, 0]\n[76, 3]\n[46, 33]\n[42, 37]\n[76, 3]\n[77, 2]]", fillcolor="#fae6d7"] ;
174 -> 286 ;
287 [label="pH <= 3.375\ngini = 0.173\nsamples = 67\nvalue = [[66, 1]\n[67, 0]\n[64, 3]\n[35, 32]\n[40, 27]\n[65, 2]\n[65, 2]]", fillcolor="#fae6d8"] ;
286 -> 287 ;
288 [label="residual sugar <= 1.35\ngini = 0.173\nsamples = 64\nvalue = [[63, 1]\n[64, 0]\n[61, 3]\n[32, 32]\n[40, 24]\n[62, 2]\n[62, 2]]", fillcolor="#fae6d8"] ;
287 -> 288 ;
289 [label="volatile acidity <= 0.315\ngini = 0.136\nsamples = 17\nvalue = [[16, 1]\n[17, 0]\n[16, 1]\n[5, 12]\n[15, 2]\n[16, 1]\n[17, 0]]", fillcolor="#f5d1b7"] ;
288 -> 289 ;
290 [label="density <= 0.989\ngini = 0.097\nsamples = 15\nvalue = [[15, 0]\n[15, 0]\n[14, 1]\n[3, 12]\n[13, 2]\n[15, 0]\n[15, 0]]", fillcolor="#f1b992"] ;
289 -> 290 ;
291 [label="gini = 0.0\nsamples = 1\nvalue = [[1, 0]\n[1, 0]\n[1, 0]\n[1, 0]\n[0, 1]\n[1, 0]\n[1, 0]]", fillcolor="#e58139"] ;
290 -> 291 ;
292 [label="volatile acidity <= 0.17\ngini = 0.073\nsamples = 14\nvalue = [[14, 0]\n[14, 0]\n[13, 1]\n[2, 12]\n[13, 1]\n[14, 0]\n[14, 0]]", fillcolor="#eeac7c"] ;
290 -> 292 ;
293 [label="fixed acidity <= 6.85\ngini = 0.143\nsamples = 2\nvalue = [[2, 0]\n[2, 0]\n[2, 0]\n[1, 1]\n[1, 1]\n[2, 0]\n[2, 0]]", fillcolor="#f6d5bc"] ;
292 -> 293 ;
294 [label="gini = 0.0\nsamples = 1\nvalue = [[1, 0]\n[1, 0]\n[1, 0]\n[1, 0]\n[0, 1]\n[1, 0]\n[1, 0]]", fillcolor="#e58139"] ;
293 -> 294 ;
295 [label="gini = 0.0\nsamples = 1\nvalue = [[1, 0]\n[1, 0]\n[1, 0]\n[0, 1]\n[1, 0]\n[1, 0]\n[1, 0]]", fillcolor="#e58139"] ;
293 -> 295 ;
296 [label="pH <= 3.125\ngini = 0.044\nsamples = 12\nvalue = [[12, 0]\n[12, 0]\n[11, 1]\n[1, 11]\n[12, 0]\n[12, 0]\n[12, 0]]", fillcolor="#ea9b61"] ;
292 -> 296 ;
297 [label="pH <= 3.095\ngini = 0.143\nsamples = 2\nvalue = [[2, 0]\n[2, 0]\n[1, 1]\n[1, 1]\n[2, 0]\n[2, 0]\n[2, 0]]", fillcolor="#f6d5bc"] ;
296 -> 297 ;
298 [label="gini = 0.0\nsamples = 1\nvalue = [[1, 0]\n[1, 0]\n[1, 0]\n[0, 1]\n[1, 0]\n[1, 0]\n[1, 0]]", fillcolor="#e58139"] ;
297 -> 298 ;
299 [label="gini = 0.0\nsamples = 1\nvalue = [[1, 0]\n[1, 0]\n[0, 1]\n[1, 0]\n[1, 0]\n[1, 0]\n[1, 0]]", fillcolor="#e58139"] ;
297 -> 299 ;
300 [label="gini = 0.0\nsamples = 10\nvalue = [[10, 0]\n[10, 0]\n[10, 0]\n[0, 10]\n[10, 0]\n[10, 0]\n[10, 0]]", fillcolor="#e58139"] ;
296 -> 300 ;
301 [label="fixed acidity <= 7.4\ngini = 0.143\nsamples = 2\nvalue = [[1, 1]\n[2, 0]\n[2, 0]\n[2, 0]\n[2, 0]\n[1, 1]\n[2, 0]]", fillcolor="#f6d5bc"] ;
289 -> 301 ;
302 [label="gini = 0.0\nsamples = 1\nvalue = [[1, 0]\n[1, 0]\n[1, 0]\n[1, 0]\n[1, 0]\n[0, 1]\n[1, 0]]", fillcolor="#e58139"] ;
301 -> 302 ;
303 [label="gini = 0.0\nsamples = 1\nvalue = [[0, 1]\n[1, 0]\n[1, 0]\n[1, 0]\n[1, 0]\n[1, 0]\n[1, 0]]", fillcolor="#e58139"] ;
301 -> 303 ;
304 [label="sulphates <= 0.445\ngini = 0.17\nsamples = 47\nvalue = [[47, 0]\n[47, 0]\n[45, 2]\n[27, 20]\n[25, 22]\n[46, 1]\n[45, 2]]", fillcolor="#fae5d6"] ;
288 -> 304 ;
305 [label="density <= 0.99\ngini = 0.146\nsamples = 21\nvalue = [[21, 0]\n[21, 0]\n[20, 1]\n[17, 4]\n[7, 14]\n[20, 1]\n[20, 1]]", fillcolor="#f7d7c0"] ;
304 -> 305 ;
306 [label="free sulfur dioxide <= 22.5\ngini = 0.09\nsamples = 11\nvalue = [[11, 0]\n[11, 0]\n[11, 0]\n[11, 0]\n[2, 9]\n[10, 1]\n[10, 1]]", fillcolor="#f0b68c"] ;
305 -> 306 ;
307 [label="gini = 0.0\nsamples = 1\nvalue = [[1, 0]\n[1, 0]\n[1, 0]\n[1, 0]\n[1, 0]\n[0, 1]\n[1, 0]]", fillcolor="#e58139"] ;
306 -> 307 ;
308 [label="pH <= 3.26\ngini = 0.051\nsamples = 10\nvalue = [[10, 0]\n[10, 0]\n[10, 0]\n[10, 0]\n[1, 9]\n[10, 0]\n[9, 1]]", fillcolor="#eb9f68"] ;
306 -> 308 ;
309 [label="gini = 0.0\nsamples = 8\nvalue = [[8, 0]\n[8, 0]\n[8, 0]\n[8, 0]\n[0, 8]\n[8, 0]\n[8, 0]]", fillcolor="#e58139"] ;
308 -> 309 ;
310 [label="residual sugar <= 3.2\ngini = 0.143\nsamples = 2\nvalue = [[2, 0]\n[2, 0]\n[2, 0]\n[2, 0]\n[1, 1]\n[2, 0]\n[1, 1]]", fillcolor="#f6d5bc"] ;
308 -> 310 ;
311 [label="gini = 0.0\nsamples = 1\nvalue = [[1, 0]\n[1, 0]\n[1, 0]\n[1, 0]\n[0, 1]\n[1, 0]\n[1, 0]]", fillcolor="#e58139"] ;
310 -> 311 ;
312 [label="gini = 0.0\nsamples = 1\nvalue = [[1, 0]\n[1, 0]\n[1, 0]\n[1, 0]\n[1, 0]\n[1, 0]\n[0, 1]]", fillcolor="#e58139"] ;
310 -> 312 ;
313 [label="free sulfur dioxide <= 32.0\ngini = 0.166\nsamples = 10\nvalue = [[10, 0]\n[10, 0]\n[9, 1]\n[6, 4]\n[5, 5]\n[10, 0]\n[10, 0]]", fillcolor="#f9e2d1"] ;
305 -> 313 ;
314 [label="gini = 0.0\nsamples = 4\nvalue = [[4, 0]\n[4, 0]\n[4, 0]\n[4, 0]\n[0, 4]\n[4, 0]\n[4, 0]]", fillcolor="#e58139"] ;
313 -> 314 ;
315 [label="citric acid <= 0.395\ngini = 0.143\nsamples = 6\nvalue = [[6, 0]\n[6, 0]\n[5, 1]\n[2, 4]\n[5, 1]\n[6, 0]\n[6, 0]]", fillcolor="#f6d5bc"] ;
313 -> 315 ;
316 [label="gini = 0.0\nsamples = 4\nvalue = [[4, 0]\n[4, 0]\n[4, 0]\n[0, 4]\n[4, 0]\n[4, 0]\n[4, 0]]", fillcolor="#e58139"] ;
315 -> 316 ;
317 [label="total sulfur dioxide <= 120.0\ngini = 0.143\nsamples = 2\nvalue = [[2, 0]\n[2, 0]\n[1, 1]\n[2, 0]\n[1, 1]\n[2, 0]\n[2, 0]]", fillcolor="#f6d5bc"] ;
315 -> 317 ;
318 [label="gini = 0.0\nsamples = 1\nvalue = [[1, 0]\n[1, 0]\n[1, 0]\n[1, 0]\n[0, 1]\n[1, 0]\n[1, 0]]", fillcolor="#e58139"] ;
317 -> 318 ;
319 [label="gini = 0.0\nsamples = 1\nvalue = [[1, 0]\n[1, 0]\n[0, 1]\n[1, 0]\n[1, 0]\n[1, 0]\n[1, 0]]", fillcolor="#e58139"] ;
317 -> 319 ;
320 [label="volatile acidity <= 0.235\ngini = 0.15\nsamples = 26\nvalue = [[26, 0]\n[26, 0]\n[25, 1]\n[10, 16]\n[18, 8]\n[26, 0]\n[25, 1]]", fillcolor="#f7d9c3"] ;
304 -> 320 ;
321 [label="sulphates <= 0.465\ngini = 0.155\nsamples = 12\nvalue = [[12, 0]\n[12, 0]\n[11, 1]\n[8, 4]\n[5, 7]\n[12, 0]\n[12, 0]]", fillcolor="#f8dcc7"] ;
320 -> 321 ;
322 [label="gini = 0.0\nsamples = 1\nvalue = [[1, 0]\n[1, 0]\n[0, 1]\n[1, 0]\n[1, 0]\n[1, 0]\n[1, 0]]", fillcolor="#e58139"] ;
321 -> 322 ;
323 [label="fixed acidity <= 6.45\ngini = 0.132\nsamples = 11\nvalue = [[11, 0]\n[11, 0]\n[11, 0]\n[7, 4]\n[4, 7]\n[11, 0]\n[11, 0]]", fillcolor="#f5ceb3"] ;
321 -> 323 ;
324 [label="gini = 0.0\nsamples = 4\nvalue = [[4, 0]\n[4, 0]\n[4, 0]\n[0, 4]\n[4, 0]\n[4, 0]\n[4, 0]]", fillcolor="#e58139"] ;
323 -> 324 ;
325 [label="gini = 0.0\nsamples = 7\nvalue = [[7, 0]\n[7, 0]\n[7, 0]\n[7, 0]\n[0, 7]\n[7, 0]\n[7, 0]]", fillcolor="#e58139"] ;
323 -> 325 ;
326 [label="citric acid <= 0.41\ngini = 0.073\nsamples = 14\nvalue = [[14, 0]\n[14, 0]\n[14, 0]\n[2, 12]\n[13, 1]\n[14, 0]\n[13, 1]]", fillcolor="#eeac7c"] ;
320 -> 326 ;
327 [label="total sulfur dioxide <= 132.5\ngini = 0.041\nsamples = 13\nvalue = [[13, 0]\n[13, 0]\n[13, 0]\n[1, 12]\n[13, 0]\n[13, 0]\n[12, 1]]", fillcolor="#ea995e"] ;
326 -> 327 ;
328 [label="gini = 0.0\nsamples = 12\nvalue = [[12, 0]\n[12, 0]\n[12, 0]\n[0, 12]\n[12, 0]\n[12, 0]\n[12, 0]]", fillcolor="#e58139"] ;
327 -> 328 ;
329 [label="gini = 0.0\nsamples = 1\nvalue = [[1, 0]\n[1, 0]\n[1, 0]\n[1, 0]\n[1, 0]\n[1, 0]\n[0, 1]]", fillcolor="#e58139"] ;
327 -> 329 ;
330 [label="gini = 0.0\nsamples = 1\nvalue = [[1, 0]\n[1, 0]\n[1, 0]\n[1, 0]\n[0, 1]\n[1, 0]\n[1, 0]]", fillcolor="#e58139"] ;
326 -> 330 ;
331 [label="gini = 0.0\nsamples = 3\nvalue = [[3, 0]\n[3, 0]\n[3, 0]\n[3, 0]\n[0, 3]\n[3, 0]\n[3, 0]]", fillcolor="#e58139"] ;
287 -> 331 ;
332 [label="free sulfur dioxide <= 31.0\ngini = 0.083\nsamples = 12\nvalue = [[12, 0]\n[12, 0]\n[12, 0]\n[11, 1]\n[2, 10]\n[11, 1]\n[12, 0]]", fillcolor="#efb286"] ;
286 -> 332 ;
333 [label="residual sugar <= 3.45\ngini = 0.143\nsamples = 6\nvalue = [[6, 0]\n[6, 0]\n[6, 0]\n[5, 1]\n[2, 4]\n[5, 1]\n[6, 0]]", fillcolor="#f6d5bc"] ;
332 -> 333 ;
334 [label="pH <= 3.205\ngini = 0.143\nsamples = 2\nvalue = [[2, 0]\n[2, 0]\n[2, 0]\n[1, 1]\n[2, 0]\n[1, 1]\n[2, 0]]", fillcolor="#f6d5bc"] ;
333 -> 334 ;
335 [label="gini = 0.0\nsamples = 1\nvalue = [[1, 0]\n[1, 0]\n[1, 0]\n[0, 1]\n[1, 0]\n[1, 0]\n[1, 0]]", fillcolor="#e58139"] ;
334 -> 335 ;
336 [label="gini = 0.0\nsamples = 1\nvalue = [[1, 0]\n[1, 0]\n[1, 0]\n[1, 0]\n[1, 0]\n[0, 1]\n[1, 0]]", fillcolor="#e58139"] ;
334 -> 336 ;
337 [label="gini = 0.0\nsamples = 4\nvalue = [[4, 0]\n[4, 0]\n[4, 0]\n[4, 0]\n[0, 4]\n[4, 0]\n[4, 0]]", fillcolor="#e58139"] ;
333 -> 337 ;
338 [label="gini = 0.0\nsamples = 6\nvalue = [[6, 0]\n[6, 0]\n[6, 0]\n[6, 0]\n[0, 6]\n[6, 0]\n[6, 0]]", fillcolor="#e58139"] ;
332 -> 338 ;
339 [label="total sulfur dioxide <= 187.0\ngini = 0.139\nsamples = 12\nvalue = [[12, 0]\n[12, 0]\n[12, 0]\n[5, 7]\n[12, 0]\n[7, 5]\n[12, 0]]", fillcolor="#f6d2b9"] ;
173 -> 339 ;
340 [label="fixed acidity <= 7.1\ngini = 0.134\nsamples = 8\nvalue = [[8, 0]\n[8, 0]\n[8, 0]\n[5, 3]\n[8, 0]\n[3, 5]\n[8, 0]]", fillcolor="#f5cfb4"] ;
339 -> 340 ;
341 [label="density <= 0.991\ngini = 0.137\nsamples = 5\nvalue = [[5, 0]\n[5, 0]\n[5, 0]\n[2, 3]\n[5, 0]\n[3, 2]\n[5, 0]]", fillcolor="#f6d1b7"] ;
340 -> 341 ;
342 [label="total sulfur dioxide <= 185.0\ngini = 0.107\nsamples = 4\nvalue = [[4, 0]\n[4, 0]\n[4, 0]\n[1, 3]\n[4, 0]\n[3, 1]\n[4, 0]]", fillcolor="#f2c09c"] ;
341 -> 342 ;
343 [label="gini = 0.0\nsamples = 3\nvalue = [[3, 0]\n[3, 0]\n[3, 0]\n[0, 3]\n[3, 0]\n[3, 0]\n[3, 0]]", fillcolor="#e58139"] ;
342 -> 343 ;
344 [label="gini = 0.0\nsamples = 1\nvalue = [[1, 0]\n[1, 0]\n[1, 0]\n[1, 0]\n[1, 0]\n[0, 1]\n[1, 0]]", fillcolor="#e58139"] ;
342 -> 344 ;
345 [label="gini = 0.0\nsamples = 1\nvalue = [[1, 0]\n[1, 0]\n[1, 0]\n[1, 0]\n[1, 0]\n[0, 1]\n[1, 0]]", fillcolor="#e58139"] ;
341 -> 345 ;
346 [label="gini = 0.0\nsamples = 3\nvalue = [[3, 0]\n[3, 0]\n[3, 0]\n[3, 0]\n[3, 0]\n[0, 3]\n[3, 0]]", fillcolor="#e58139"] ;
340 -> 346 ;
347 [label="gini = 0.0\nsamples = 4\nvalue = [[4, 0]\n[4, 0]\n[4, 0]\n[0, 4]\n[4, 0]\n[4, 0]\n[4, 0]]", fillcolor="#e58139"] ;
339 -> 347 ;
348 [label="residual sugar <= 4.85\ngini = 0.162\nsamples = 37\nvalue = [[36, 1]\n[36, 1]\n[37, 0]\n[14, 23]\n[31, 6]\n[32, 5]\n[36, 1]]", fillcolor="#f9e0ce"] ;
94 -> 348 ;
349 [label="density <= 0.991\ngini = 0.115\nsamples = 28\nvalue = [[27, 1]\n[28, 0]\n[28, 0]\n[7, 21]\n[23, 5]\n[28, 0]\n[27, 1]]", fillcolor="#f3c4a3"] ;
348 -> 349 ;
350 [label="pH <= 3.27\ngini = 0.149\nsamples = 13\nvalue = [[13, 0]\n[13, 0]\n[13, 0]\n[5, 8]\n[9, 4]\n[13, 0]\n[12, 1]]", fillcolor="#f7d8c2"] ;
349 -> 350 ;
351 [label="residual sugar <= 2.95\ngini = 0.062\nsamples = 8\nvalue = [[8, 0]\n[8, 0]\n[8, 0]\n[1, 7]\n[7, 1]\n[8, 0]\n[8, 0]]", fillcolor="#eda672"] ;
350 -> 351 ;
352 [label="gini = 0.0\nsamples = 6\nvalue = [[6, 0]\n[6, 0]\n[6, 0]\n[0, 6]\n[6, 0]\n[6, 0]\n[6, 0]]", fillcolor="#e58139"] ;
351 -> 352 ;
353 [label="fixed acidity <= 7.35\ngini = 0.143\nsamples = 2\nvalue = [[2, 0]\n[2, 0]\n[2, 0]\n[1, 1]\n[1, 1]\n[2, 0]\n[2, 0]]", fillcolor="#f6d5bc"] ;
351 -> 353 ;
354 [label="gini = 0.0\nsamples = 1\nvalue = [[1, 0]\n[1, 0]\n[1, 0]\n[1, 0]\n[0, 1]\n[1, 0]\n[1, 0]]", fillcolor="#e58139"] ;
353 -> 354 ;
355 [label="gini = 0.0\nsamples = 1\nvalue = [[1, 0]\n[1, 0]\n[1, 0]\n[0, 1]\n[1, 0]\n[1, 0]\n[1, 0]]", fillcolor="#e58139"] ;
353 -> 355 ;
356 [label="alcohol <= 12.55\ngini = 0.16\nsamples = 5\nvalue = [[5, 0]\n[5, 0]\n[5, 0]\n[4, 1]\n[2, 3]\n[5, 0]\n[4, 1]]", fillcolor="#f8dfcc"] ;
350 -> 356 ;
357 [label="fixed acidity <= 5.8\ngini = 0.107\nsamples = 4\nvalue = [[4, 0]\n[4, 0]\n[4, 0]\n[3, 1]\n[1, 3]\n[4, 0]\n[4, 0]]", fillcolor="#f2c09c"] ;
356 -> 357 ;
358 [label="gini = 0.0\nsamples = 2\nvalue = [[2, 0]\n[2, 0]\n[2, 0]\n[2, 0]\n[0, 2]\n[2, 0]\n[2, 0]]", fillcolor="#e58139"] ;
357 -> 358 ;
359 [label="pH <= 3.38\ngini = 0.143\nsamples = 2\nvalue = [[2, 0]\n[2, 0]\n[2, 0]\n[1, 1]\n[1, 1]\n[2, 0]\n[2, 0]]", fillcolor="#f6d5bc"] ;
357 -> 359 ;
360 [label="gini = 0.0\nsamples = 1\nvalue = [[1, 0]\n[1, 0]\n[1, 0]\n[1, 0]\n[0, 1]\n[1, 0]\n[1, 0]]", fillcolor="#e58139"] ;
359 -> 360 ;
361 [label="gini = 0.0\nsamples = 1\nvalue = [[1, 0]\n[1, 0]\n[1, 0]\n[0, 1]\n[1, 0]\n[1, 0]\n[1, 0]]", fillcolor="#e58139"] ;
359 -> 361 ;
362 [label="gini = 0.0\nsamples = 1\nvalue = [[1, 0]\n[1, 0]\n[1, 0]\n[1, 0]\n[1, 0]\n[1, 0]\n[0, 1]]", fillcolor="#e58139"] ;
356 -> 362 ;
363 [label="pH <= 3.445\ngini = 0.069\nsamples = 15\nvalue = [[14, 1]\n[15, 0]\n[15, 0]\n[2, 13]\n[14, 1]\n[15, 0]\n[15, 0]]", fillcolor="#eda978"] ;
349 -> 363 ;
364 [label="total sulfur dioxide <= 149.5\ngini = 0.038\nsamples = 14\nvalue = [[14, 0]\n[14, 0]\n[14, 0]\n[1, 13]\n[13, 1]\n[14, 0]\n[14, 0]]", fillcolor="#ea975c"] ;
363 -> 364 ;
365 [label="gini = 0.0\nsamples = 10\nvalue = [[10, 0]\n[10, 0]\n[10, 0]\n[0, 10]\n[10, 0]\n[10, 0]\n[10, 0]]", fillcolor="#e58139"] ;
364 -> 365 ;
366 [label="pH <= 3.305\ngini = 0.107\nsamples = 4\nvalue = [[4, 0]\n[4, 0]\n[4, 0]\n[1, 3]\n[3, 1]\n[4, 0]\n[4, 0]]", fillcolor="#f2c09c"] ;
364 -> 366 ;
367 [label="gini = 0.0\nsamples = 3\nvalue = [[3, 0]\n[3, 0]\n[3, 0]\n[0, 3]\n[3, 0]\n[3, 0]\n[3, 0]]", fillcolor="#e58139"] ;
366 -> 367 ;
368 [label="gini = 0.0\nsamples = 1\nvalue = [[1, 0]\n[1, 0]\n[1, 0]\n[1, 0]\n[0, 1]\n[1, 0]\n[1, 0]]", fillcolor="#e58139"] ;
366 -> 368 ;
369 [label="gini = 0.0\nsamples = 1\nvalue = [[0, 1]\n[1, 0]\n[1, 0]\n[1, 0]\n[1, 0]\n[1, 0]\n[1, 0]]", fillcolor="#e58139"] ;
363 -> 369 ;
370 [label="total sulfur dioxide <= 107.0\ngini = 0.176\nsamples = 9\nvalue = [[9, 0]\n[8, 1]\n[9, 0]\n[7, 2]\n[8, 1]\n[4, 5]\n[9, 0]]", fillcolor="#fae8db"] ;
348 -> 370 ;
371 [label="residual sugar <= 7.1\ngini = 0.143\nsamples = 2\nvalue = [[2, 0]\n[1, 1]\n[2, 0]\n[2, 0]\n[1, 1]\n[2, 0]\n[2, 0]]", fillcolor="#f6d5bc"] ;
370 -> 371 ;
372 [label="gini = 0.0\nsamples = 1\nvalue = [[1, 0]\n[1, 0]\n[1, 0]\n[1, 0]\n[0, 1]\n[1, 0]\n[1, 0]]", fillcolor="#e58139"] ;
371 -> 372 ;
373 [label="gini = 0.0\nsamples = 1\nvalue = [[1, 0]\n[0, 1]\n[1, 0]\n[1, 0]\n[1, 0]\n[1, 0]\n[1, 0]]", fillcolor="#e58139"] ;
371 -> 373 ;
374 [label="pH <= 3.02\ngini = 0.117\nsamples = 7\nvalue = [[7, 0]\n[7, 0]\n[7, 0]\n[5, 2]\n[7, 0]\n[2, 5]\n[7, 0]]", fillcolor="#f3c5a4"] ;
370 -> 374 ;
375 [label="gini = 0.0\nsamples = 2\nvalue = [[2, 0]\n[2, 0]\n[2, 0]\n[0, 2]\n[2, 0]\n[2, 0]\n[2, 0]]", fillcolor="#e58139"] ;
374 -> 375 ;
376 [label="gini = 0.0\nsamples = 5\nvalue = [[5, 0]\n[5, 0]\n[5, 0]\n[5, 0]\n[5, 0]\n[0, 5]\n[5, 0]]", fillcolor="#e58139"] ;
374 -> 376 ;
377 [label="alcohol <= 10.65\ngini = 0.193\nsamples = 705\nvalue = [[701, 4]\n[687, 18]\n[516, 189]\n[383, 322]\n[563, 142]\n[676, 29]\n[704, 1]]", fillcolor="#fcf2eb"] ;
1 -> 377 ;
378 [label="free sulfur dioxide <= 16.5\ngini = 0.182\nsamples = 362\nvalue = [[359, 3]\n[350, 12]\n[228, 134]\n[196, 166]\n[321, 41]\n[357, 5]\n[361, 1]]", fillcolor="#fbece1"] ;
377 -> 378 ;
379 [label="sulphates <= 0.485\ngini = 0.168\nsamples = 59\nvalue = [[56, 3]\n[54, 5]\n[24, 35]\n[46, 13]\n[57, 2]\n[58, 1]\n[59, 0]]", fillcolor="#f9e3d4"] ;
378 -> 379 ;
380 [label="total sulfur dioxide <= 77.0\ngini = 0.126\nsamples = 30\nvalue = [[29, 1]\n[27, 3]\n[8, 22]\n[27, 3]\n[30, 0]\n[29, 1]\n[30, 0]]", fillcolor="#f4cbad"] ;
379 -> 380 ;
381 [label="citric acid <= 0.425\ngini = 0.069\nsamples = 15\nvalue = [[14, 1]\n[14, 1]\n[2, 13]\n[15, 0]\n[15, 0]\n[15, 0]\n[15, 0]]", fillcolor="#eda978"] ;
380 -> 381 ;
382 [label="gini = 0.0\nsamples = 11\nvalue = [[11, 0]\n[11, 0]\n[0, 11]\n[11, 0]\n[11, 0]\n[11, 0]\n[11, 0]]", fillcolor="#e58139"] ;
381 -> 382 ;
383 [label="chlorides <= 0.032\ngini = 0.179\nsamples = 4\nvalue = [[3, 1]\n[3, 1]\n[2, 2]\n[4, 0]\n[4, 0]\n[4, 0]\n[4, 0]]", fillcolor="#fbeadd"] ;
381 -> 383 ;
384 [label="gini = 0.0\nsamples = 2\nvalue = [[2, 0]\n[2, 0]\n[0, 2]\n[2, 0]\n[2, 0]\n[2, 0]\n[2, 0]]", fillcolor="#e58139"] ;
383 -> 384 ;
385 [label="alcohol <= 10.05\ngini = 0.143\nsamples = 2\nvalue = [[1, 1]\n[1, 1]\n[2, 0]\n[2, 0]\n[2, 0]\n[2, 0]\n[2, 0]]", fillcolor="#f6d5bc"] ;
383 -> 385 ;
386 [label="gini = 0.0\nsamples = 1\nvalue = [[0, 1]\n[1, 0]\n[1, 0]\n[1, 0]\n[1, 0]\n[1, 0]\n[1, 0]]", fillcolor="#e58139"] ;
385 -> 386 ;
387 [label="gini = 0.0\nsamples = 1\nvalue = [[1, 0]\n[0, 1]\n[1, 0]\n[1, 0]\n[1, 0]\n[1, 0]\n[1, 0]]", fillcolor="#e58139"] ;
385 -> 387 ;
388 [label="volatile acidity <= 0.165\ngini = 0.165\nsamples = 15\nvalue = [[15, 0]\n[13, 2]\n[6, 9]\n[12, 3]\n[15, 0]\n[14, 1]\n[15, 0]]", fillcolor="#f9e2d1"] ;
380 -> 388 ;
389 [label="sulphates <= 0.44\ngini = 0.127\nsamples = 3\nvalue = [[3, 0]\n[3, 0]\n[3, 0]\n[1, 2]\n[3, 0]\n[2, 1]\n[3, 0]]", fillcolor="#f4cbae"] ;
388 -> 389 ;
390 [label="gini = 0.0\nsamples = 2\nvalue = [[2, 0]\n[2, 0]\n[2, 0]\n[0, 2]\n[2, 0]\n[2, 0]\n[2, 0]]", fillcolor="#e58139"] ;
389 -> 390 ;
391 [label="gini = 0.0\nsamples = 1\nvalue = [[1, 0]\n[1, 0]\n[1, 0]\n[1, 0]\n[1, 0]\n[0, 1]\n[1, 0]]", fillcolor="#e58139"] ;
389 -> 391 ;
392 [label="free sulfur dioxide <= 11.0\ngini = 0.115\nsamples = 12\nvalue = [[12, 0]\n[10, 2]\n[3, 9]\n[11, 1]\n[12, 0]\n[12, 0]\n[12, 0]]", fillcolor="#f3c4a3"] ;
388 -> 392 ;
393 [label="chlorides <= 0.035\ngini = 0.179\nsamples = 4\nvalue = [[4, 0]\n[2, 2]\n[3, 1]\n[3, 1]\n[4, 0]\n[4, 0]\n[4, 0]]", fillcolor="#fbeadd"] ;
392 -> 393 ;
394 [label="gini = 0.0\nsamples = 1\nvalue = [[1, 0]\n[1, 0]\n[0, 1]\n[1, 0]\n[1, 0]\n[1, 0]\n[1, 0]]", fillcolor="#e58139"] ;
393 -> 394 ;
395 [label="total sulfur dioxide <= 103.5\ngini = 0.127\nsamples = 3\nvalue = [[3, 0]\n[1, 2]\n[3, 0]\n[2, 1]\n[3, 0]\n[3, 0]\n[3, 0]]", fillcolor="#f4cbae"] ;
393 -> 395 ;
396 [label="gini = 0.0\nsamples = 2\nvalue = [[2, 0]\n[0, 2]\n[2, 0]\n[2, 0]\n[2, 0]\n[2, 0]\n[2, 0]]", fillcolor="#e58139"] ;
395 -> 396 ;
397 [label="gini = 0.0\nsamples = 1\nvalue = [[1, 0]\n[1, 0]\n[1, 0]\n[0, 1]\n[1, 0]\n[1, 0]\n[1, 0]]", fillcolor="#e58139"] ;
395 -> 397 ;
398 [label="gini = 0.0\nsamples = 8\nvalue = [[8, 0]\n[8, 0]\n[0, 8]\n[8, 0]\n[8, 0]\n[8, 0]\n[8, 0]]", fillcolor="#e58139"] ;
392 -> 398 ;
399 [label="sulphates <= 0.59\ngini = 0.19\nsamples = 29\nvalue = [[27, 2]\n[27, 2]\n[16, 13]\n[19, 10]\n[27, 2]\n[29, 0]\n[29, 0]]", fillcolor="#fcf0e8"] ;
379 -> 399 ;
400 [label="chlorides <= 0.038\ngini = 0.203\nsamples = 16\nvalue = [[14, 2]\n[14, 2]\n[12, 4]\n[9, 7]\n[15, 1]\n[16, 0]\n[16, 0]]", fillcolor="#fef8f4"] ;
399 -> 400 ;
401 [label="citric acid <= 0.29\ngini = 0.195\nsamples = 14\nvalue = [[12, 2]\n[12, 2]\n[12, 2]\n[7, 7]\n[13, 1]\n[14, 0]\n[14, 0]]", fillcolor="#fdf3ed"] ;
400 -> 401 ;
402 [label="density <= 0.993\ngini = 0.19\nsamples = 3\nvalue = [[3, 0]\n[2, 1]\n[2, 1]\n[3, 0]\n[2, 1]\n[3, 0]\n[3, 0]]", fillcolor="#fcf1e8"] ;
401 -> 402 ;
403 [label="gini = 0.0\nsamples = 1\nvalue = [[1, 0]\n[1, 0]\n[1, 0]\n[1, 0]\n[0, 1]\n[1, 0]\n[1, 0]]", fillcolor="#e58139"] ;
402 -> 403 ;
404 [label="chlorides <= 0.034\ngini = 0.143\nsamples = 2\nvalue = [[2, 0]\n[1, 1]\n[1, 1]\n[2, 0]\n[2, 0]\n[2, 0]\n[2, 0]]", fillcolor="#f6d5bc"] ;
402 -> 404 ;
405 [label="gini = 0.0\nsamples = 1\nvalue = [[1, 0]\n[0, 1]\n[1, 0]\n[1, 0]\n[1, 0]\n[1, 0]\n[1, 0]]", fillcolor="#e58139"] ;
404 -> 405 ;
406 [label="gini = 0.0\nsamples = 1\nvalue = [[1, 0]\n[1, 0]\n[0, 1]\n[1, 0]\n[1, 0]\n[1, 0]\n[1, 0]]", fillcolor="#e58139"] ;
404 -> 406 ;
407 [label="citric acid <= 0.34\ngini = 0.156\nsamples = 11\nvalue = [[9, 2]\n[10, 1]\n[10, 1]\n[4, 7]\n[11, 0]\n[11, 0]\n[11, 0]]", fillcolor="#f8dcc8"] ;
401 -> 407 ;
408 [label="gini = 0.0\nsamples = 5\nvalue = [[5, 0]\n[5, 0]\n[5, 0]\n[0, 5]\n[5, 0]\n[5, 0]\n[5, 0]]", fillcolor="#e58139"] ;
407 -> 408 ;
409 [label="free sulfur dioxide <= 4.0\ngini = 0.206\nsamples = 6\nvalue = [[4, 2]\n[5, 1]\n[5, 1]\n[4, 2]\n[6, 0]\n[6, 0]\n[6, 0]]", fillcolor="#fefaf7"] ;
407 -> 409 ;
410 [label="gini = 0.0\nsamples = 2\nvalue = [[2, 0]\n[2, 0]\n[2, 0]\n[0, 2]\n[2, 0]\n[2, 0]\n[2, 0]]", fillcolor="#e58139"] ;
409 -> 410 ;
411 [label="free sulfur dioxide <= 7.0\ngini = 0.179\nsamples = 4\nvalue = [[2, 2]\n[3, 1]\n[3, 1]\n[4, 0]\n[4, 0]\n[4, 0]\n[4, 0]]", fillcolor="#fbeadd"] ;
409 -> 411 ;
412 [label="gini = 0.0\nsamples = 1\nvalue = [[0, 1]\n[1, 0]\n[1, 0]\n[1, 0]\n[1, 0]\n[1, 0]\n[1, 0]]", fillcolor="#e58139"] ;
411 -> 412 ;
413 [label="chlorides <= 0.033\ngini = 0.19\nsamples = 3\nvalue = [[2, 1]\n[2, 1]\n[2, 1]\n[3, 0]\n[3, 0]\n[3, 0]\n[3, 0]]", fillcolor="#fcf1e8"] ;
411 -> 413 ;
414 [label="gini = 0.0\nsamples = 1\nvalue = [[1, 0]\n[1, 0]\n[0, 1]\n[1, 0]\n[1, 0]\n[1, 0]\n[1, 0]]", fillcolor="#e58139"] ;
413 -> 414 ;
415 [label="pH <= 3.05\ngini = 0.143\nsamples = 2\nvalue = [[1, 1]\n[1, 1]\n[2, 0]\n[2, 0]\n[2, 0]\n[2, 0]\n[2, 0]]", fillcolor="#f6d5bc"] ;
413 -> 415 ;
416 [label="gini = 0.0\nsamples = 1\nvalue = [[0, 1]\n[1, 0]\n[1, 0]\n[1, 0]\n[1, 0]\n[1, 0]\n[1, 0]]", fillcolor="#e58139"] ;
415 -> 416 ;
417 [label="gini = 0.0\nsamples = 1\nvalue = [[1, 0]\n[0, 1]\n[1, 0]\n[1, 0]\n[1, 0]\n[1, 0]\n[1, 0]]", fillcolor="#e58139"] ;
415 -> 417 ;
418 [label="gini = 0.0\nsamples = 2\nvalue = [[2, 0]\n[2, 0]\n[0, 2]\n[2, 0]\n[2, 0]\n[2, 0]\n[2, 0]]", fillcolor="#e58139"] ;
400 -> 418 ;
419 [label="density <= 0.992\ngini = 0.132\nsamples = 13\nvalue = [[13, 0]\n[13, 0]\n[4, 9]\n[10, 3]\n[12, 1]\n[13, 0]\n[13, 0]]", fillcolor="#f5ceb2"] ;
399 -> 419 ;
420 [label="gini = 0.0\nsamples = 1\nvalue = [[1, 0]\n[1, 0]\n[1, 0]\n[1, 0]\n[0, 1]\n[1, 0]\n[1, 0]]", fillcolor="#e58139"] ;
419 -> 420 ;
421 [label="citric acid <= 0.445\ngini = 0.107\nsamples = 12\nvalue = [[12, 0]\n[12, 0]\n[3, 9]\n[9, 3]\n[12, 0]\n[12, 0]\n[12, 0]]", fillcolor="#f2c09c"] ;
419 -> 421 ;
422 [label="density <= 0.994\ngini = 0.085\nsamples = 11\nvalue = [[11, 0]\n[11, 0]\n[2, 9]\n[9, 2]\n[11, 0]\n[11, 0]\n[11, 0]]", fillcolor="#efb387"] ;
421 -> 422 ;
423 [label="pH <= 3.195\ngini = 0.127\nsamples = 6\nvalue = [[6, 0]\n[6, 0]\n[2, 4]\n[4, 2]\n[6, 0]\n[6, 0]\n[6, 0]]", fillcolor="#f4cbae"] ;
422 -> 423 ;
424 [label="gini = 0.0\nsamples = 4\nvalue = [[4, 0]\n[4, 0]\n[0, 4]\n[4, 0]\n[4, 0]\n[4, 0]\n[4, 0]]", fillcolor="#e58139"] ;
423 -> 424 ;
425 [label="gini = 0.0\nsamples = 2\nvalue = [[2, 0]\n[2, 0]\n[2, 0]\n[0, 2]\n[2, 0]\n[2, 0]\n[2, 0]]", fillcolor="#e58139"] ;
423 -> 425 ;
426 [label="gini = 0.0\nsamples = 5\nvalue = [[5, 0]\n[5, 0]\n[0, 5]\n[5, 0]\n[5, 0]\n[5, 0]\n[5, 0]]", fillcolor="#e58139"] ;
422 -> 426 ;
427 [label="gini = 0.0\nsamples = 1\nvalue = [[1, 0]\n[1, 0]\n[1, 0]\n[0, 1]\n[1, 0]\n[1, 0]\n[1, 0]]", fillcolor="#e58139"] ;
421 -> 427 ;
428 [label="sulphates <= 0.535\ngini = 0.177\nsamples = 303\nvalue = [[303, 0]\n[296, 7]\n[204, 99]\n[150, 153]\n[264, 39]\n[299, 4]\n[302, 1]]", fillcolor="#fae9dc"] ;
378 -> 428 ;
429 [label="density <= 0.997\ngini = 0.173\nsamples = 217\nvalue = [[217, 0]\n[211, 6]\n[134, 83]\n[111, 106]\n[199, 18]\n[214, 3]\n[216, 1]]", fillcolor="#fae7d9"] ;
428 -> 429 ;
430 [label="density <= 0.995\ngini = 0.174\nsamples = 155\nvalue = [[155, 0]\n[151, 4]\n[105, 50]\n[74, 81]\n[138, 17]\n[152, 3]\n[155, 0]]", fillcolor="#fae7d9"] ;
429 -> 430 ;
431 [label="alcohol <= 9.75\ngini = 0.185\nsamples = 93\nvalue = [[93, 0]\n[89, 4]\n[54, 39]\n[56, 37]\n[81, 12]\n[92, 1]\n[93, 0]]", fillcolor="#fbede3"] ;
430 -> 431 ;
432 [label="fixed acidity <= 6.8\ngini = 0.15\nsamples = 19\nvalue = [[19, 0]\n[18, 1]\n[7, 12]\n[14, 5]\n[18, 1]\n[19, 0]\n[19, 0]]", fillcolor="#f7d9c3"] ;
431 -> 432 ;
433 [label="residual sugar <= 5.0\ngini = 0.096\nsamples = 14\nvalue = [[14, 0]\n[14, 0]\n[3, 11]\n[11, 3]\n[14, 0]\n[14, 0]\n[14, 0]]", fillcolor="#f1b992"] ;
432 -> 433 ;
434 [label="sulphates <= 0.39\ngini = 0.047\nsamples = 11\nvalue = [[11, 0]\n[11, 0]\n[1, 10]\n[10, 1]\n[11, 0]\n[11, 0]\n[11, 0]]", fillcolor="#eb9d64"] ;
433 -> 434 ;
435 [label="residual sugar <= 2.85\ngini = 0.107\nsamples = 4\nvalue = [[4, 0]\n[4, 0]\n[1, 3]\n[3, 1]\n[4, 0]\n[4, 0]\n[4, 0]]", fillcolor="#f2c09c"] ;
434 -> 435 ;
436 [label="gini = 0.0\nsamples = 3\nvalue = [[3, 0]\n[3, 0]\n[0, 3]\n[3, 0]\n[3, 0]\n[3, 0]\n[3, 0]]", fillcolor="#e58139"] ;
435 -> 436 ;
437 [label="gini = 0.0\nsamples = 1\nvalue = [[1, 0]\n[1, 0]\n[1, 0]\n[0, 1]\n[1, 0]\n[1, 0]\n[1, 0]]", fillcolor="#e58139"] ;
435 -> 437 ;
438 [label="gini = 0.0\nsamples = 7\nvalue = [[7, 0]\n[7, 0]\n[0, 7]\n[7, 0]\n[7, 0]\n[7, 0]\n[7, 0]]", fillcolor="#e58139"] ;
434 -> 438 ;
439 [label="volatile acidity <= 0.275\ngini = 0.127\nsamples = 3\nvalue = [[3, 0]\n[3, 0]\n[2, 1]\n[1, 2]\n[3, 0]\n[3, 0]\n[3, 0]]", fillcolor="#f4cbae"] ;
433 -> 439 ;
440 [label="gini = 0.0\nsamples = 2\nvalue = [[2, 0]\n[2, 0]\n[2, 0]\n[0, 2]\n[2, 0]\n[2, 0]\n[2, 0]]", fillcolor="#e58139"] ;
439 -> 440 ;
441 [label="gini = 0.0\nsamples = 1\nvalue = [[1, 0]\n[1, 0]\n[0, 1]\n[1, 0]\n[1, 0]\n[1, 0]\n[1, 0]]", fillcolor="#e58139"] ;
439 -> 441 ;
442 [label="chlorides <= 0.035\ngini = 0.206\nsamples = 5\nvalue = [[5, 0]\n[4, 1]\n[4, 1]\n[3, 2]\n[4, 1]\n[5, 0]\n[5, 0]]", fillcolor="#fef9f6"] ;
432 -> 442 ;
443 [label="sulphates <= 0.41\ngini = 0.19\nsamples = 3\nvalue = [[3, 0]\n[2, 1]\n[2, 1]\n[3, 0]\n[2, 1]\n[3, 0]\n[3, 0]]", fillcolor="#fcf1e8"] ;
442 -> 443 ;
444 [label="gini = 0.0\nsamples = 1\nvalue = [[1, 0]\n[0, 1]\n[1, 0]\n[1, 0]\n[1, 0]\n[1, 0]\n[1, 0]]", fillcolor="#e58139"] ;
443 -> 444 ;
445 [label="sulphates <= 0.505\ngini = 0.143\nsamples = 2\nvalue = [[2, 0]\n[2, 0]\n[1, 1]\n[2, 0]\n[1, 1]\n[2, 0]\n[2, 0]]", fillcolor="#f6d5bc"] ;
443 -> 445 ;
446 [label="gini = 0.0\nsamples = 1\nvalue = [[1, 0]\n[1, 0]\n[1, 0]\n[1, 0]\n[0, 1]\n[1, 0]\n[1, 0]]", fillcolor="#e58139"] ;
445 -> 446 ;
447 [label="gini = 0.0\nsamples = 1\nvalue = [[1, 0]\n[1, 0]\n[0, 1]\n[1, 0]\n[1, 0]\n[1, 0]\n[1, 0]]", fillcolor="#e58139"] ;
445 -> 447 ;
448 [label="gini = 0.0\nsamples = 2\nvalue = [[2, 0]\n[2, 0]\n[2, 0]\n[0, 2]\n[2, 0]\n[2, 0]\n[2, 0]]", fillcolor="#e58139"] ;
442 -> 448 ;
449 [label="volatile acidity <= 0.205\ngini = 0.187\nsamples = 74\nvalue = [[74, 0]\n[71, 3]\n[47, 27]\n[42, 32]\n[63, 11]\n[73, 1]\n[74, 0]]", fillcolor="#fcefe5"] ;
431 -> 449 ;
450 [label="residual sugar <= 3.85\ngini = 0.188\nsamples = 31\nvalue = [[31, 0]\n[30, 1]\n[25, 6]\n[16, 15]\n[23, 8]\n[30, 1]\n[31, 0]]", fillcolor="#fcefe6"] ;
449 -> 450 ;
451 [label="citric acid <= 0.355\ngini = 0.168\nsamples = 26\nvalue = [[26, 0]\n[25, 1]\n[20, 6]\n[11, 15]\n[22, 4]\n[26, 0]\n[26, 0]]", fillcolor="#f9e3d4"] ;
450 -> 451 ;
452 [label="fixed acidity <= 6.95\ngini = 0.184\nsamples = 11\nvalue = [[11, 0]\n[10, 1]\n[6, 5]\n[7, 4]\n[10, 1]\n[11, 0]\n[11, 0]]", fillcolor="#fbede2"] ;
451 -> 452 ;
453 [label="residual sugar <= 1.55\ngini = 0.127\nsamples = 6\nvalue = [[6, 0]\n[6, 0]\n[4, 2]\n[2, 4]\n[6, 0]\n[6, 0]\n[6, 0]]", fillcolor="#f4cbae"] ;
452 -> 453 ;
454 [label="fixed acidity <= 5.65\ngini = 0.127\nsamples = 3\nvalue = [[3, 0]\n[3, 0]\n[1, 2]\n[2, 1]\n[3, 0]\n[3, 0]\n[3, 0]]", fillcolor="#f4cbae"] ;
453 -> 454 ;
455 [label="gini = 0.0\nsamples = 1\nvalue = [[1, 0]\n[1, 0]\n[1, 0]\n[0, 1]\n[1, 0]\n[1, 0]\n[1, 0]]", fillcolor="#e58139"] ;
454 -> 455 ;
456 [label="gini = 0.0\nsamples = 2\nvalue = [[2, 0]\n[2, 0]\n[0, 2]\n[2, 0]\n[2, 0]\n[2, 0]\n[2, 0]]", fillcolor="#e58139"] ;
454 -> 456 ;
457 [label="gini = 0.0\nsamples = 3\nvalue = [[3, 0]\n[3, 0]\n[3, 0]\n[0, 3]\n[3, 0]\n[3, 0]\n[3, 0]]", fillcolor="#e58139"] ;
453 -> 457 ;
458 [label="citric acid <= 0.34\ngini = 0.16\nsamples = 5\nvalue = [[5, 0]\n[4, 1]\n[2, 3]\n[5, 0]\n[4, 1]\n[5, 0]\n[5, 0]]", fillcolor="#f8dfcc"] ;
452 -> 458 ;
459 [label="fixed acidity <= 8.2\ngini = 0.19\nsamples = 3\nvalue = [[3, 0]\n[2, 1]\n[2, 1]\n[3, 0]\n[2, 1]\n[3, 0]\n[3, 0]]", fillcolor="#fcf1e8"] ;
458 -> 459 ;
460 [label="gini = 0.0\nsamples = 1\nvalue = [[1, 0]\n[1, 0]\n[1, 0]\n[1, 0]\n[0, 1]\n[1, 0]\n[1, 0]]", fillcolor="#e58139"] ;
459 -> 460 ;
461 [label="pH <= 2.9\ngini = 0.143\nsamples = 2\nvalue = [[2, 0]\n[1, 1]\n[1, 1]\n[2, 0]\n[2, 0]\n[2, 0]\n[2, 0]]", fillcolor="#f6d5bc"] ;
459 -> 461 ;
462 [label="gini = 0.0\nsamples = 1\nvalue = [[1, 0]\n[0, 1]\n[1, 0]\n[1, 0]\n[1, 0]\n[1, 0]\n[1, 0]]", fillcolor="#e58139"] ;
461 -> 462 ;
463 [label="gini = 0.0\nsamples = 1\nvalue = [[1, 0]\n[1, 0]\n[0, 1]\n[1, 0]\n[1, 0]\n[1, 0]\n[1, 0]]", fillcolor="#e58139"] ;
461 -> 463 ;
464 [label="gini = 0.0\nsamples = 2\nvalue = [[2, 0]\n[2, 0]\n[0, 2]\n[2, 0]\n[2, 0]\n[2, 0]\n[2, 0]]", fillcolor="#e58139"] ;
458 -> 464 ;
465 [label="free sulfur dioxide <= 30.0\ngini = 0.119\nsamples = 15\nvalue = [[15, 0]\n[15, 0]\n[14, 1]\n[4, 11]\n[12, 3]\n[15, 0]\n[15, 0]]", fillcolor="#f3c7a7"] ;
451 -> 465 ;
466 [label="gini = 0.0\nsamples = 8\nvalue = [[8, 0]\n[8, 0]\n[8, 0]\n[0, 8]\n[8, 0]\n[8, 0]\n[8, 0]]", fillcolor="#e58139"] ;
465 -> 466 ;
467 [label="volatile acidity <= 0.185\ngini = 0.175\nsamples = 7\nvalue = [[7, 0]\n[7, 0]\n[6, 1]\n[4, 3]\n[4, 3]\n[7, 0]\n[7, 0]]", fillcolor="#fae7da"] ;
465 -> 467 ;
468 [label="gini = 0.0\nsamples = 3\nvalue = [[3, 0]\n[3, 0]\n[3, 0]\n[3, 0]\n[0, 3]\n[3, 0]\n[3, 0]]", fillcolor="#e58139"] ;
467 -> 468 ;
469 [label="alcohol <= 10.3\ngini = 0.107\nsamples = 4\nvalue = [[4, 0]\n[4, 0]\n[3, 1]\n[1, 3]\n[4, 0]\n[4, 0]\n[4, 0]]", fillcolor="#f2c09c"] ;
467 -> 469 ;
470 [label="gini = 0.0\nsamples = 3\nvalue = [[3, 0]\n[3, 0]\n[3, 0]\n[0, 3]\n[3, 0]\n[3, 0]\n[3, 0]]", fillcolor="#e58139"] ;
469 -> 470 ;
471 [label="gini = 0.0\nsamples = 1\nvalue = [[1, 0]\n[1, 0]\n[0, 1]\n[1, 0]\n[1, 0]\n[1, 0]\n[1, 0]]", fillcolor="#e58139"] ;
469 -> 471 ;
472 [label="residual sugar <= 11.15\ngini = 0.091\nsamples = 5\nvalue = [[5, 0]\n[5, 0]\n[5, 0]\n[5, 0]\n[1, 4]\n[4, 1]\n[5, 0]]", fillcolor="#f0b78d"] ;
450 -> 472 ;
473 [label="gini = 0.0\nsamples = 4\nvalue = [[4, 0]\n[4, 0]\n[4, 0]\n[4, 0]\n[0, 4]\n[4, 0]\n[4, 0]]", fillcolor="#e58139"] ;
472 -> 473 ;
474 [label="gini = 0.0\nsamples = 1\nvalue = [[1, 0]\n[1, 0]\n[1, 0]\n[1, 0]\n[1, 0]\n[0, 1]\n[1, 0]]", fillcolor="#e58139"] ;
472 -> 474 ;
475 [label="total sulfur dioxide <= 170.0\ngini = 0.171\nsamples = 43\nvalue = [[43, 0]\n[41, 2]\n[22, 21]\n[26, 17]\n[40, 3]\n[43, 0]\n[43, 0]]", fillcolor="#fae5d6"] ;
449 -> 475 ;
476 [label="free sulfur dioxide <= 36.5\ngini = 0.16\nsamples = 41\nvalue = [[41, 0]\n[41, 0]\n[20, 21]\n[24, 17]\n[38, 3]\n[41, 0]\n[41, 0]]", fillcolor="#f8dfcc"] ;
475 -> 476 ;
477 [label="pH <= 3.425\ngini = 0.163\nsamples = 30\nvalue = [[30, 0]\n[30, 0]\n[19, 11]\n[14, 16]\n[27, 3]\n[30, 0]\n[30, 0]]", fillcolor="#f9e1cf"] ;
476 -> 477 ;
478 [label="fixed acidity <= 7.35\ngini = 0.137\nsamples = 25\nvalue = [[25, 0]\n[25, 0]\n[15, 10]\n[10, 15]\n[25, 0]\n[25, 0]\n[25, 0]]", fillcolor="#f6d1b7"] ;
477 -> 478 ;
479 [label="volatile acidity <= 0.245\ngini = 0.117\nsamples = 21\nvalue = [[21, 0]\n[21, 0]\n[15, 6]\n[6, 15]\n[21, 0]\n[21, 0]\n[21, 0]]", fillcolor="#f3c5a4"] ;
478 -> 479 ;
480 [label="sulphates <= 0.395\ngini = 0.14\nsamples = 7\nvalue = [[7, 0]\n[7, 0]\n[3, 4]\n[4, 3]\n[7, 0]\n[7, 0]\n[7, 0]]", fillcolor="#f6d3ba"] ;
479 -> 480 ;
481 [label="gini = 0.0\nsamples = 3\nvalue = [[3, 0]\n[3, 0]\n[0, 3]\n[3, 0]\n[3, 0]\n[3, 0]\n[3, 0]]", fillcolor="#e58139"] ;
480 -> 481 ;
482 [label="citric acid <= 0.36\ngini = 0.107\nsamples = 4\nvalue = [[4, 0]\n[4, 0]\n[3, 1]\n[1, 3]\n[4, 0]\n[4, 0]\n[4, 0]]", fillcolor="#f2c09c"] ;
480 -> 482 ;
483 [label="gini = 0.0\nsamples = 3\nvalue = [[3, 0]\n[3, 0]\n[3, 0]\n[0, 3]\n[3, 0]\n[3, 0]\n[3, 0]]", fillcolor="#e58139"] ;
482 -> 483 ;
484 [label="gini = 0.0\nsamples = 1\nvalue = [[1, 0]\n[1, 0]\n[0, 1]\n[1, 0]\n[1, 0]\n[1, 0]\n[1, 0]]", fillcolor="#e58139"] ;
482 -> 484 ;
485 [label="free sulfur dioxide <= 22.5\ngini = 0.07\nsamples = 14\nvalue = [[14, 0]\n[14, 0]\n[12, 2]\n[2, 12]\n[14, 0]\n[14, 0]\n[14, 0]]", fillcolor="#edaa79"] ;
479 -> 485 ;
486 [label="residual sugar <= 1.45\ngini = 0.127\nsamples = 3\nvalue = [[3, 0]\n[3, 0]\n[1, 2]\n[2, 1]\n[3, 0]\n[3, 0]\n[3, 0]]", fillcolor="#f4cbae"] ;
485 -> 486 ;
487 [label="gini = 0.0\nsamples = 1\nvalue = [[1, 0]\n[1, 0]\n[1, 0]\n[0, 1]\n[1, 0]\n[1, 0]\n[1, 0]]", fillcolor="#e58139"] ;
486 -> 487 ;
488 [label="gini = 0.0\nsamples = 2\nvalue = [[2, 0]\n[2, 0]\n[0, 2]\n[2, 0]\n[2, 0]\n[2, 0]\n[2, 0]]", fillcolor="#e58139"] ;
486 -> 488 ;
489 [label="gini = 0.0\nsamples = 11\nvalue = [[11, 0]\n[11, 0]\n[11, 0]\n[0, 11]\n[11, 0]\n[11, 0]\n[11, 0]]", fillcolor="#e58139"] ;
485 -> 489 ;
490 [label="gini = 0.0\nsamples = 4\nvalue = [[4, 0]\n[4, 0]\n[0, 4]\n[4, 0]\n[4, 0]\n[4, 0]\n[4, 0]]", fillcolor="#e58139"] ;
478 -> 490 ;
491 [label="fixed acidity <= 5.35\ngini = 0.16\nsamples = 5\nvalue = [[5, 0]\n[5, 0]\n[4, 1]\n[4, 1]\n[2, 3]\n[5, 0]\n[5, 0]]", fillcolor="#f8dfcc"] ;
477 -> 491 ;
492 [label="gini = 0.0\nsamples = 1\nvalue = [[1, 0]\n[1, 0]\n[1, 0]\n[0, 1]\n[1, 0]\n[1, 0]\n[1, 0]]", fillcolor="#e58139"] ;
491 -> 492 ;
493 [label="alcohol <= 10.2\ngini = 0.107\nsamples = 4\nvalue = [[4, 0]\n[4, 0]\n[3, 1]\n[4, 0]\n[1, 3]\n[4, 0]\n[4, 0]]", fillcolor="#f2c09c"] ;
491 -> 493 ;
494 [label="gini = 0.0\nsamples = 2\nvalue = [[2, 0]\n[2, 0]\n[2, 0]\n[2, 0]\n[0, 2]\n[2, 0]\n[2, 0]]", fillcolor="#e58139"] ;
493 -> 494 ;
495 [label="fixed acidity <= 7.0\ngini = 0.143\nsamples = 2\nvalue = [[2, 0]\n[2, 0]\n[1, 1]\n[2, 0]\n[1, 1]\n[2, 0]\n[2, 0]]", fillcolor="#f6d5bc"] ;
493 -> 495 ;
496 [label="gini = 0.0\nsamples = 1\nvalue = [[1, 0]\n[1, 0]\n[0, 1]\n[1, 0]\n[1, 0]\n[1, 0]\n[1, 0]]", fillcolor="#e58139"] ;
495 -> 496 ;
497 [label="gini = 0.0\nsamples = 1\nvalue = [[1, 0]\n[1, 0]\n[1, 0]\n[1, 0]\n[0, 1]\n[1, 0]\n[1, 0]]", fillcolor="#e58139"] ;
495 -> 497 ;
498 [label="sulphates <= 0.49\ngini = 0.047\nsamples = 11\nvalue = [[11, 0]\n[11, 0]\n[1, 10]\n[10, 1]\n[11, 0]\n[11, 0]\n[11, 0]]", fillcolor="#eb9d64"] ;
476 -> 498 ;
499 [label="gini = 0.0\nsamples = 10\nvalue = [[10, 0]\n[10, 0]\n[0, 10]\n[10, 0]\n[10, 0]\n[10, 0]\n[10, 0]]", fillcolor="#e58139"] ;
498 -> 499 ;
500 [label="gini = 0.0\nsamples = 1\nvalue = [[1, 0]\n[1, 0]\n[1, 0]\n[0, 1]\n[1, 0]\n[1, 0]\n[1, 0]]", fillcolor="#e58139"] ;
498 -> 500 ;
501 [label="gini = 0.0\nsamples = 2\nvalue = [[2, 0]\n[0, 2]\n[2, 0]\n[2, 0]\n[2, 0]\n[2, 0]\n[2, 0]]", fillcolor="#e58139"] ;
475 -> 501 ;
502 [label="total sulfur dioxide <= 169.5\ngini = 0.131\nsamples = 62\nvalue = [[62, 0]\n[62, 0]\n[51, 11]\n[18, 44]\n[57, 5]\n[60, 2]\n[62, 0]]", fillcolor="#f5cdb1"] ;
430 -> 502 ;
503 [label="citric acid <= 0.225\ngini = 0.116\nsamples = 49\nvalue = [[49, 0]\n[49, 0]\n[44, 5]\n[12, 37]\n[44, 5]\n[47, 2]\n[49, 0]]", fillcolor="#f3c5a4"] ;
502 -> 503 ;
504 [label="volatile acidity <= 0.3\ngini = 0.14\nsamples = 7\nvalue = [[7, 0]\n[7, 0]\n[3, 4]\n[4, 3]\n[7, 0]\n[7, 0]\n[7, 0]]", fillcolor="#f6d3ba"] ;
503 -> 504 ;
505 [label="gini = 0.0\nsamples = 2\nvalue = [[2, 0]\n[2, 0]\n[2, 0]\n[0, 2]\n[2, 0]\n[2, 0]\n[2, 0]]", fillcolor="#e58139"] ;
504 -> 505 ;
506 [label="density <= 0.996\ngini = 0.091\nsamples = 5\nvalue = [[5, 0]\n[5, 0]\n[1, 4]\n[4, 1]\n[5, 0]\n[5, 0]\n[5, 0]]", fillcolor="#f0b78d"] ;
504 -> 506 ;
507 [label="gini = 0.0\nsamples = 1\nvalue = [[1, 0]\n[1, 0]\n[1, 0]\n[0, 1]\n[1, 0]\n[1, 0]\n[1, 0]]", fillcolor="#e58139"] ;
506 -> 507 ;
508 [label="gini = 0.0\nsamples = 4\nvalue = [[4, 0]\n[4, 0]\n[0, 4]\n[4, 0]\n[4, 0]\n[4, 0]\n[4, 0]]", fillcolor="#e58139"] ;
506 -> 508 ;
509 [label="residual sugar <= 5.475\ngini = 0.094\nsamples = 42\nvalue = [[42, 0]\n[42, 0]\n[41, 1]\n[8, 34]\n[37, 5]\n[40, 2]\n[42, 0]]", fillcolor="#f0b88f"] ;
503 -> 509 ;
510 [label="gini = 0.0\nsamples = 1\nvalue = [[1, 0]\n[1, 0]\n[1, 0]\n[1, 0]\n[0, 1]\n[1, 0]\n[1, 0]]", fillcolor="#e58139"] ;
509 -> 510 ;
511 [label="volatile acidity <= 0.13\ngini = 0.086\nsamples = 41\nvalue = [[41, 0]\n[41, 0]\n[40, 1]\n[7, 34]\n[37, 4]\n[39, 2]\n[41, 0]]", fillcolor="#efb388"] ;
509 -> 511 ;
512 [label="gini = 0.0\nsamples = 2\nvalue = [[2, 0]\n[2, 0]\n[2, 0]\n[2, 0]\n[2, 0]\n[0, 2]\n[2, 0]]", fillcolor="#e58139"] ;
511 -> 512 ;
513 [label="total sulfur dioxide <= 146.5\ngini = 0.065\nsamples = 39\nvalue = [[39, 0]\n[39, 0]\n[38, 1]\n[5, 34]\n[35, 4]\n[39, 0]\n[39, 0]]", fillcolor="#eda775"] ;
511 -> 513 ;
514 [label="fixed acidity <= 7.7\ngini = 0.109\nsamples = 21\nvalue = [[21, 0]\n[21, 0]\n[20, 1]\n[5, 16]\n[17, 4]\n[21, 0]\n[21, 0]]", fillcolor="#f2c19d"] ;
513 -> 514 ;
515 [label="density <= 0.995\ngini = 0.061\nsamples = 17\nvalue = [[17, 0]\n[17, 0]\n[16, 1]\n[2, 15]\n[16, 1]\n[17, 0]\n[17, 0]]", fillcolor="#eca571"] ;
514 -> 515 ;
516 [label="gini = 0.0\nsamples = 8\nvalue = [[8, 0]\n[8, 0]\n[8, 0]\n[0, 8]\n[8, 0]\n[8, 0]\n[8, 0]]", fillcolor="#e58139"] ;
515 -> 516 ;
517 [label="volatile acidity <= 0.2\ngini = 0.106\nsamples = 9\nvalue = [[9, 0]\n[9, 0]\n[8, 1]\n[2, 7]\n[8, 1]\n[9, 0]\n[9, 0]]", fillcolor="#f2bf9a"] ;
515 -> 517 ;
518 [label="chlorides <= 0.037\ngini = 0.143\nsamples = 2\nvalue = [[2, 0]\n[2, 0]\n[2, 0]\n[1, 1]\n[1, 1]\n[2, 0]\n[2, 0]]", fillcolor="#f6d5bc"] ;
517 -> 518 ;
519 [label="gini = 0.0\nsamples = 1\nvalue = [[1, 0]\n[1, 0]\n[1, 0]\n[1, 0]\n[0, 1]\n[1, 0]\n[1, 0]]", fillcolor="#e58139"] ;
518 -> 519 ;
520 [label="gini = 0.0\nsamples = 1\nvalue = [[1, 0]\n[1, 0]\n[1, 0]\n[0, 1]\n[1, 0]\n[1, 0]\n[1, 0]]", fillcolor="#e58139"] ;
518 -> 520 ;
521 [label="volatile acidity <= 0.26\ngini = 0.07\nsamples = 7\nvalue = [[7, 0]\n[7, 0]\n[6, 1]\n[1, 6]\n[7, 0]\n[7, 0]\n[7, 0]]", fillcolor="#edaa79"] ;
517 -> 521 ;
522 [label="gini = 0.0\nsamples = 4\nvalue = [[4, 0]\n[4, 0]\n[4, 0]\n[0, 4]\n[4, 0]\n[4, 0]\n[4, 0]]", fillcolor="#e58139"] ;
521 -> 522 ;
523 [label="citric acid <= 0.33\ngini = 0.127\nsamples = 3\nvalue = [[3, 0]\n[3, 0]\n[2, 1]\n[1, 2]\n[3, 0]\n[3, 0]\n[3, 0]]", fillcolor="#f4cbae"] ;
521 -> 523 ;
524 [label="gini = 0.0\nsamples = 2\nvalue = [[2, 0]\n[2, 0]\n[2, 0]\n[0, 2]\n[2, 0]\n[2, 0]\n[2, 0]]", fillcolor="#e58139"] ;
523 -> 524 ;
525 [label="gini = 0.0\nsamples = 1\nvalue = [[1, 0]\n[1, 0]\n[0, 1]\n[1, 0]\n[1, 0]\n[1, 0]\n[1, 0]]", fillcolor="#e58139"] ;
523 -> 525 ;
526 [label="free sulfur dioxide <= 48.0\ngini = 0.107\nsamples = 4\nvalue = [[4, 0]\n[4, 0]\n[4, 0]\n[3, 1]\n[1, 3]\n[4, 0]\n[4, 0]]", fillcolor="#f2c09c"] ;
514 -> 526 ;
527 [label="gini = 0.0\nsamples = 3\nvalue = [[3, 0]\n[3, 0]\n[3, 0]\n[3, 0]\n[0, 3]\n[3, 0]\n[3, 0]]", fillcolor="#e58139"] ;
526 -> 527 ;
528 [label="gini = 0.0\nsamples = 1\nvalue = [[1, 0]\n[1, 0]\n[1, 0]\n[0, 1]\n[1, 0]\n[1, 0]\n[1, 0]]", fillcolor="#e58139"] ;
526 -> 528 ;
529 [label="gini = 0.0\nsamples = 18\nvalue = [[18, 0]\n[18, 0]\n[18, 0]\n[0, 18]\n[18, 0]\n[18, 0]\n[18, 0]]", fillcolor="#e58139"] ;
513 -> 529 ;
530 [label="fixed acidity <= 6.85\ngini = 0.142\nsamples = 13\nvalue = [[13, 0]\n[13, 0]\n[7, 6]\n[6, 7]\n[13, 0]\n[13, 0]\n[13, 0]]", fillcolor="#f6d4bc"] ;
502 -> 530 ;
531 [label="volatile acidity <= 0.23\ngini = 0.117\nsamples = 7\nvalue = [[7, 0]\n[7, 0]\n[2, 5]\n[5, 2]\n[7, 0]\n[7, 0]\n[7, 0]]", fillcolor="#f3c5a4"] ;
530 -> 531 ;
532 [label="gini = 0.0\nsamples = 1\nvalue = [[1, 0]\n[1, 0]\n[1, 0]\n[0, 1]\n[1, 0]\n[1, 0]\n[1, 0]]", fillcolor="#e58139"] ;
531 -> 532 ;
533 [label="citric acid <= 0.34\ngini = 0.079\nsamples = 6\nvalue = [[6, 0]\n[6, 0]\n[1, 5]\n[5, 1]\n[6, 0]\n[6, 0]\n[6, 0]]", fillcolor="#efaf82"] ;
531 -> 533 ;
534 [label="gini = 0.0\nsamples = 1\nvalue = [[1, 0]\n[1, 0]\n[1, 0]\n[0, 1]\n[1, 0]\n[1, 0]\n[1, 0]]", fillcolor="#e58139"] ;
533 -> 534 ;
535 [label="gini = 0.0\nsamples = 5\nvalue = [[5, 0]\n[5, 0]\n[0, 5]\n[5, 0]\n[5, 0]\n[5, 0]\n[5, 0]]", fillcolor="#e58139"] ;
533 -> 535 ;
536 [label="sulphates <= 0.43\ngini = 0.079\nsamples = 6\nvalue = [[6, 0]\n[6, 0]\n[5, 1]\n[1, 5]\n[6, 0]\n[6, 0]\n[6, 0]]", fillcolor="#efaf82"] ;
530 -> 536 ;
537 [label="gini = 0.0\nsamples = 1\nvalue = [[1, 0]\n[1, 0]\n[0, 1]\n[1, 0]\n[1, 0]\n[1, 0]\n[1, 0]]", fillcolor="#e58139"] ;
536 -> 537 ;
538 [label="gini = 0.0\nsamples = 5\nvalue = [[5, 0]\n[5, 0]\n[5, 0]\n[0, 5]\n[5, 0]\n[5, 0]\n[5, 0]]", fillcolor="#e58139"] ;
536 -> 538 ;
539 [label="residual sugar <= 16.95\ngini = 0.158\nsamples = 62\nvalue = [[62, 0]\n[60, 2]\n[29, 33]\n[37, 25]\n[61, 1]\n[62, 0]\n[61, 1]]", fillcolor="#f8ddca"] ;
429 -> 539 ;
540 [label="residual sugar <= 10.65\ngini = 0.148\nsamples = 51\nvalue = [[51, 0]\n[49, 2]\n[19, 32]\n[36, 15]\n[50, 1]\n[51, 0]\n[50, 1]]", fillcolor="#f7d8c1"] ;
539 -> 540 ;
541 [label="chlorides <= 0.035\ngini = 0.166\nsamples = 10\nvalue = [[10, 0]\n[9, 1]\n[8, 2]\n[4, 6]\n[10, 0]\n[10, 0]\n[9, 1]]", fillcolor="#f9e2d1"] ;
540 -> 541 ;
542 [label="alcohol <= 9.75\ngini = 0.127\nsamples = 3\nvalue = [[3, 0]\n[3, 0]\n[1, 2]\n[3, 0]\n[3, 0]\n[3, 0]\n[2, 1]]", fillcolor="#f4cbae"] ;
541 -> 542 ;
543 [label="gini = 0.0\nsamples = 2\nvalue = [[2, 0]\n[2, 0]\n[0, 2]\n[2, 0]\n[2, 0]\n[2, 0]\n[2, 0]]", fillcolor="#e58139"] ;
542 -> 543 ;
544 [label="gini = 0.0\nsamples = 1\nvalue = [[1, 0]\n[1, 0]\n[1, 0]\n[1, 0]\n[1, 0]\n[1, 0]\n[0, 1]]", fillcolor="#e58139"] ;
542 -> 544 ;
545 [label="pH <= 3.39\ngini = 0.07\nsamples = 7\nvalue = [[7, 0]\n[6, 1]\n[7, 0]\n[1, 6]\n[7, 0]\n[7, 0]\n[7, 0]]", fillcolor="#edaa79"] ;
541 -> 545 ;
546 [label="gini = 0.0\nsamples = 5\nvalue = [[5, 0]\n[5, 0]\n[5, 0]\n[0, 5]\n[5, 0]\n[5, 0]\n[5, 0]]", fillcolor="#e58139"] ;
545 -> 546 ;
547 [label="fixed acidity <= 7.2\ngini = 0.143\nsamples = 2\nvalue = [[2, 0]\n[1, 1]\n[2, 0]\n[1, 1]\n[2, 0]\n[2, 0]\n[2, 0]]", fillcolor="#f6d5bc"] ;
545 -> 547 ;
548 [label="gini = 0.0\nsamples = 1\nvalue = [[1, 0]\n[1, 0]\n[1, 0]\n[0, 1]\n[1, 0]\n[1, 0]\n[1, 0]]", fillcolor="#e58139"] ;
547 -> 548 ;
549 [label="gini = 0.0\nsamples = 1\nvalue = [[1, 0]\n[0, 1]\n[1, 0]\n[1, 0]\n[1, 0]\n[1, 0]\n[1, 0]]", fillcolor="#e58139"] ;
547 -> 549 ;
550 [label="sulphates <= 0.495\ngini = 0.119\nsamples = 41\nvalue = [[41, 0]\n[40, 1]\n[11, 30]\n[32, 9]\n[40, 1]\n[41, 0]\n[41, 0]]", fillcolor="#f3c6a6"] ;
540 -> 550 ;
551 [label="residual sugar <= 13.8\ngini = 0.086\nsamples = 34\nvalue = [[34, 0]\n[33, 1]\n[6, 28]\n[29, 5]\n[34, 0]\n[34, 0]\n[34, 0]]", fillcolor="#efb388"] ;
550 -> 551 ;
552 [label="chlorides <= 0.038\ngini = 0.024\nsamples = 23\nvalue = [[23, 0]\n[22, 1]\n[1, 22]\n[23, 0]\n[23, 0]\n[23, 0]\n[23, 0]]", fillcolor="#e88f4f"] ;
551 -> 552 ;
553 [label="gini = 0.0\nsamples = 18\nvalue = [[18, 0]\n[18, 0]\n[0, 18]\n[18, 0]\n[18, 0]\n[18, 0]\n[18, 0]]", fillcolor="#e58139"] ;
552 -> 553 ;
554 [label="fixed acidity <= 7.55\ngini = 0.091\nsamples = 5\nvalue = [[5, 0]\n[4, 1]\n[1, 4]\n[5, 0]\n[5, 0]\n[5, 0]\n[5, 0]]", fillcolor="#f0b78d"] ;
552 -> 554 ;
555 [label="gini = 0.0\nsamples = 3\nvalue = [[3, 0]\n[3, 0]\n[0, 3]\n[3, 0]\n[3, 0]\n[3, 0]\n[3, 0]]", fillcolor="#e58139"] ;
554 -> 555 ;
556 [label="total sulfur dioxide <= 165.0\ngini = 0.143\nsamples = 2\nvalue = [[2, 0]\n[1, 1]\n[1, 1]\n[2, 0]\n[2, 0]\n[2, 0]\n[2, 0]]", fillcolor="#f6d5bc"] ;
554 -> 556 ;
557 [label="gini = 0.0\nsamples = 1\nvalue = [[1, 0]\n[1, 0]\n[0, 1]\n[1, 0]\n[1, 0]\n[1, 0]\n[1, 0]]", fillcolor="#e58139"] ;
556 -> 557 ;
558 [label="gini = 0.0\nsamples = 1\nvalue = [[1, 0]\n[0, 1]\n[1, 0]\n[1, 0]\n[1, 0]\n[1, 0]\n[1, 0]]", fillcolor="#e58139"] ;
556 -> 558 ;
559 [label="residual sugar <= 15.0\ngini = 0.142\nsamples = 11\nvalue = [[11, 0]\n[11, 0]\n[5, 6]\n[6, 5]\n[11, 0]\n[11, 0]\n[11, 0]]", fillcolor="#f6d4bb"] ;
551 -> 559 ;
560 [label="gini = 0.0\nsamples = 4\nvalue = [[4, 0]\n[4, 0]\n[4, 0]\n[0, 4]\n[4, 0]\n[4, 0]\n[4, 0]]", fillcolor="#e58139"] ;
559 -> 560 ;
561 [label="citric acid <= 0.44\ngini = 0.07\nsamples = 7\nvalue = [[7, 0]\n[7, 0]\n[1, 6]\n[6, 1]\n[7, 0]\n[7, 0]\n[7, 0]]", fillcolor="#edaa79"] ;
559 -> 561 ;
562 [label="gini = 0.0\nsamples = 6\nvalue = [[6, 0]\n[6, 0]\n[0, 6]\n[6, 0]\n[6, 0]\n[6, 0]\n[6, 0]]", fillcolor="#e58139"] ;
561 -> 562 ;
563 [label="gini = 0.0\nsamples = 1\nvalue = [[1, 0]\n[1, 0]\n[1, 0]\n[0, 1]\n[1, 0]\n[1, 0]\n[1, 0]]", fillcolor="#e58139"] ;
561 -> 563 ;
564 [label="alcohol <= 9.3\ngini = 0.163\nsamples = 7\nvalue = [[7, 0]\n[7, 0]\n[5, 2]\n[3, 4]\n[6, 1]\n[7, 0]\n[7, 0]]", fillcolor="#f9e1cf"] ;
550 -> 564 ;
565 [label="gini = 0.0\nsamples = 2\nvalue = [[2, 0]\n[2, 0]\n[0, 2]\n[2, 0]\n[2, 0]\n[2, 0]\n[2, 0]]", fillcolor="#e58139"] ;
564 -> 565 ;
566 [label="fixed acidity <= 6.5\ngini = 0.091\nsamples = 5\nvalue = [[5, 0]\n[5, 0]\n[5, 0]\n[1, 4]\n[4, 1]\n[5, 0]\n[5, 0]]", fillcolor="#f0b78d"] ;
564 -> 566 ;
567 [label="gini = 0.0\nsamples = 1\nvalue = [[1, 0]\n[1, 0]\n[1, 0]\n[1, 0]\n[0, 1]\n[1, 0]\n[1, 0]]", fillcolor="#e58139"] ;
566 -> 567 ;
568 [label="gini = 0.0\nsamples = 4\nvalue = [[4, 0]\n[4, 0]\n[4, 0]\n[0, 4]\n[4, 0]\n[4, 0]\n[4, 0]]", fillcolor="#e58139"] ;
566 -> 568 ;
569 [label="pH <= 2.965\ngini = 0.047\nsamples = 11\nvalue = [[11, 0]\n[11, 0]\n[10, 1]\n[1, 10]\n[11, 0]\n[11, 0]\n[11, 0]]", fillcolor="#eb9d64"] ;
539 -> 569 ;
570 [label="gini = 0.0\nsamples = 1\nvalue = [[1, 0]\n[1, 0]\n[0, 1]\n[1, 0]\n[1, 0]\n[1, 0]\n[1, 0]]", fillcolor="#e58139"] ;
569 -> 570 ;
571 [label="gini = 0.0\nsamples = 10\nvalue = [[10, 0]\n[10, 0]\n[10, 0]\n[0, 10]\n[10, 0]\n[10, 0]\n[10, 0]]", fillcolor="#e58139"] ;
569 -> 571 ;
572 [label="sulphates <= 0.595\ngini = 0.173\nsamples = 86\nvalue = [[86, 0]\n[85, 1]\n[70, 16]\n[39, 47]\n[65, 21]\n[85, 1]\n[86, 0]]", fillcolor="#fae6d8"] ;
428 -> 572 ;
573 [label="volatile acidity <= 0.282\ngini = 0.116\nsamples = 37\nvalue = [[37, 0]\n[37, 0]\n[36, 1]\n[10, 27]\n[28, 9]\n[37, 0]\n[37, 0]]", fillcolor="#f3c5a4"] ;
572 -> 573 ;
574 [label="sulphates <= 0.545\ngini = 0.148\nsamples = 24\nvalue = [[24, 0]\n[24, 0]\n[23, 1]\n[10, 14]\n[15, 9]\n[24, 0]\n[24, 0]]", fillcolor="#f7d8c1"] ;
573 -> 574 ;
575 [label="chlorides <= 0.037\ngini = 0.143\nsamples = 6\nvalue = [[6, 0]\n[6, 0]\n[5, 1]\n[5, 1]\n[2, 4]\n[6, 0]\n[6, 0]]", fillcolor="#f6d5bc"] ;
574 -> 575 ;
576 [label="pH <= 3.295\ngini = 0.143\nsamples = 2\nvalue = [[2, 0]\n[2, 0]\n[1, 1]\n[1, 1]\n[2, 0]\n[2, 0]\n[2, 0]]", fillcolor="#f6d5bc"] ;
575 -> 576 ;
577 [label="gini = 0.0\nsamples = 1\nvalue = [[1, 0]\n[1, 0]\n[0, 1]\n[1, 0]\n[1, 0]\n[1, 0]\n[1, 0]]", fillcolor="#e58139"] ;
576 -> 577 ;
578 [label="gini = 0.0\nsamples = 1\nvalue = [[1, 0]\n[1, 0]\n[1, 0]\n[0, 1]\n[1, 0]\n[1, 0]\n[1, 0]]", fillcolor="#e58139"] ;
576 -> 578 ;
579 [label="gini = 0.0\nsamples = 4\nvalue = [[4, 0]\n[4, 0]\n[4, 0]\n[4, 0]\n[0, 4]\n[4, 0]\n[4, 0]]", fillcolor="#e58139"] ;
575 -> 579 ;
580 [label="sulphates <= 0.565\ngini = 0.115\nsamples = 18\nvalue = [[18, 0]\n[18, 0]\n[18, 0]\n[5, 13]\n[13, 5]\n[18, 0]\n[18, 0]]", fillcolor="#f3c4a2"] ;
574 -> 580 ;
581 [label="free sulfur dioxide <= 60.0\ngini = 0.051\nsamples = 10\nvalue = [[10, 0]\n[10, 0]\n[10, 0]\n[1, 9]\n[9, 1]\n[10, 0]\n[10, 0]]", fillcolor="#eb9f68"] ;
580 -> 581 ;
582 [label="gini = 0.0\nsamples = 8\nvalue = [[8, 0]\n[8, 0]\n[8, 0]\n[0, 8]\n[8, 0]\n[8, 0]\n[8, 0]]", fillcolor="#e58139"] ;
581 -> 582 ;
583 [label="alcohol <= 10.25\ngini = 0.143\nsamples = 2\nvalue = [[2, 0]\n[2, 0]\n[2, 0]\n[1, 1]\n[1, 1]\n[2, 0]\n[2, 0]]", fillcolor="#f6d5bc"] ;
581 -> 583 ;
584 [label="gini = 0.0\nsamples = 1\nvalue = [[1, 0]\n[1, 0]\n[1, 0]\n[0, 1]\n[1, 0]\n[1, 0]\n[1, 0]]", fillcolor="#e58139"] ;
583 -> 584 ;
585 [label="gini = 0.0\nsamples = 1\nvalue = [[1, 0]\n[1, 0]\n[1, 0]\n[1, 0]\n[0, 1]\n[1, 0]\n[1, 0]]", fillcolor="#e58139"] ;
583 -> 585 ;
586 [label="total sulfur dioxide <= 110.0\ngini = 0.143\nsamples = 8\nvalue = [[8, 0]\n[8, 0]\n[8, 0]\n[4, 4]\n[4, 4]\n[8, 0]\n[8, 0]]", fillcolor="#f6d5bc"] ;
580 -> 586 ;
587 [label="gini = 0.0\nsamples = 4\nvalue = [[4, 0]\n[4, 0]\n[4, 0]\n[0, 4]\n[4, 0]\n[4, 0]\n[4, 0]]", fillcolor="#e58139"] ;
586 -> 587 ;
588 [label="gini = 0.0\nsamples = 4\nvalue = [[4, 0]\n[4, 0]\n[4, 0]\n[4, 0]\n[0, 4]\n[4, 0]\n[4, 0]]", fillcolor="#e58139"] ;
586 -> 588 ;
589 [label="gini = 0.0\nsamples = 13\nvalue = [[13, 0]\n[13, 0]\n[13, 0]\n[0, 13]\n[13, 0]\n[13, 0]\n[13, 0]]", fillcolor="#e58139"] ;
573 -> 589 ;
590 [label="total sulfur dioxide <= 188.0\ngini = 0.194\nsamples = 49\nvalue = [[49, 0]\n[48, 1]\n[34, 15]\n[29, 20]\n[37, 12]\n[48, 1]\n[49, 0]]", fillcolor="#fcf3eb"] ;
572 -> 590 ;
591 [label="volatile acidity <= 0.355\ngini = 0.186\nsamples = 40\nvalue = [[40, 0]\n[39, 1]\n[33, 7]\n[21, 19]\n[28, 12]\n[39, 1]\n[40, 0]]", fillcolor="#fceee4"] ;
590 -> 591 ;
592 [label="density <= 0.992\ngini = 0.194\nsamples = 33\nvalue = [[33, 0]\n[32, 1]\n[27, 6]\n[20, 13]\n[21, 12]\n[32, 1]\n[33, 0]]", fillcolor="#fcf2eb"] ;
591 -> 592 ;
593 [label="gini = 0.0\nsamples = 2\nvalue = [[2, 0]\n[2, 0]\n[0, 2]\n[2, 0]\n[2, 0]\n[2, 0]\n[2, 0]]", fillcolor="#e58139"] ;
592 -> 593 ;
594 [label="pH <= 3.02\ngini = 0.187\nsamples = 31\nvalue = [[31, 0]\n[30, 1]\n[27, 4]\n[18, 13]\n[19, 12]\n[30, 1]\n[31, 0]]", fillcolor="#fcefe5"] ;
592 -> 594 ;
595 [label="gini = 0.0\nsamples = 3\nvalue = [[3, 0]\n[3, 0]\n[3, 0]\n[3, 0]\n[0, 3]\n[3, 0]\n[3, 0]]", fillcolor="#e58139"] ;
594 -> 595 ;
596 [label="alcohol <= 9.6\ngini = 0.188\nsamples = 28\nvalue = [[28, 0]\n[27, 1]\n[24, 4]\n[15, 13]\n[19, 9]\n[27, 1]\n[28, 0]]", fillcolor="#fcefe6"] ;
594 -> 596 ;
597 [label="fixed acidity <= 6.55\ngini = 0.152\nsamples = 8\nvalue = [[8, 0]\n[8, 0]\n[7, 1]\n[6, 2]\n[3, 5]\n[8, 0]\n[8, 0]]", fillcolor="#f7dac5"] ;
596 -> 597 ;
598 [label="density <= 0.996\ngini = 0.143\nsamples = 2\nvalue = [[2, 0]\n[2, 0]\n[1, 1]\n[1, 1]\n[2, 0]\n[2, 0]\n[2, 0]]", fillcolor="#f6d5bc"] ;
597 -> 598 ;
599 [label="gini = 0.0\nsamples = 1\nvalue = [[1, 0]\n[1, 0]\n[1, 0]\n[0, 1]\n[1, 0]\n[1, 0]\n[1, 0]]", fillcolor="#e58139"] ;
598 -> 599 ;
600 [label="gini = 0.0\nsamples = 1\nvalue = [[1, 0]\n[1, 0]\n[0, 1]\n[1, 0]\n[1, 0]\n[1, 0]\n[1, 0]]", fillcolor="#e58139"] ;
598 -> 600 ;
601 [label="pH <= 3.305\ngini = 0.079\nsamples = 6\nvalue = [[6, 0]\n[6, 0]\n[6, 0]\n[5, 1]\n[1, 5]\n[6, 0]\n[6, 0]]", fillcolor="#efaf82"] ;
597 -> 601 ;
602 [label="gini = 0.0\nsamples = 5\nvalue = [[5, 0]\n[5, 0]\n[5, 0]\n[5, 0]\n[0, 5]\n[5, 0]\n[5, 0]]", fillcolor="#e58139"] ;
601 -> 602 ;
603 [label="gini = 0.0\nsamples = 1\nvalue = [[1, 0]\n[1, 0]\n[1, 0]\n[0, 1]\n[1, 0]\n[1, 0]\n[1, 0]]", fillcolor="#e58139"] ;
601 -> 603 ;
604 [label="chlorides <= 0.037\ngini = 0.18\nsamples = 20\nvalue = [[20, 0]\n[19, 1]\n[17, 3]\n[9, 11]\n[16, 4]\n[19, 1]\n[20, 0]]", fillcolor="#fbeadf"] ;
596 -> 604 ;
605 [label="sulphates <= 0.66\ngini = 0.19\nsamples = 9\nvalue = [[9, 0]\n[8, 1]\n[6, 3]\n[5, 4]\n[9, 0]\n[8, 1]\n[9, 0]]", fillcolor="#fcf1e8"] ;
604 -> 605 ;
606 [label="residual sugar <= 1.5\ngini = 0.179\nsamples = 4\nvalue = [[4, 0]\n[3, 1]\n[2, 2]\n[4, 0]\n[4, 0]\n[3, 1]\n[4, 0]]", fillcolor="#fbeadd"] ;
605 -> 606 ;
607 [label="gini = 0.0\nsamples = 1\nvalue = [[1, 0]\n[1, 0]\n[0, 1]\n[1, 0]\n[1, 0]\n[1, 0]\n[1, 0]]", fillcolor="#e58139"] ;
606 -> 607 ;
608 [label="citric acid <= 0.14\ngini = 0.19\nsamples = 3\nvalue = [[3, 0]\n[2, 1]\n[2, 1]\n[3, 0]\n[3, 0]\n[2, 1]\n[3, 0]]", fillcolor="#fcf1e8"] ;
606 -> 608 ;
609 [label="gini = 0.0\nsamples = 1\nvalue = [[1, 0]\n[1, 0]\n[0, 1]\n[1, 0]\n[1, 0]\n[1, 0]\n[1, 0]]", fillcolor="#e58139"] ;
608 -> 609 ;
610 [label="pH <= 3.285\ngini = 0.143\nsamples = 2\nvalue = [[2, 0]\n[1, 1]\n[2, 0]\n[2, 0]\n[2, 0]\n[1, 1]\n[2, 0]]", fillcolor="#f6d5bc"] ;
608 -> 610 ;
611 [label="gini = 0.0\nsamples = 1\nvalue = [[1, 0]\n[1, 0]\n[1, 0]\n[1, 0]\n[1, 0]\n[0, 1]\n[1, 0]]", fillcolor="#e58139"] ;
610 -> 611 ;
612 [label="gini = 0.0\nsamples = 1\nvalue = [[1, 0]\n[0, 1]\n[1, 0]\n[1, 0]\n[1, 0]\n[1, 0]\n[1, 0]]", fillcolor="#e58139"] ;
610 -> 612 ;
613 [label="citric acid <= 0.385\ngini = 0.091\nsamples = 5\nvalue = [[5, 0]\n[5, 0]\n[4, 1]\n[1, 4]\n[5, 0]\n[5, 0]\n[5, 0]]", fillcolor="#f0b78d"] ;
605 -> 613 ;
614 [label="gini = 0.0\nsamples = 4\nvalue = [[4, 0]\n[4, 0]\n[4, 0]\n[0, 4]\n[4, 0]\n[4, 0]\n[4, 0]]", fillcolor="#e58139"] ;
613 -> 614 ;
615 [label="gini = 0.0\nsamples = 1\nvalue = [[1, 0]\n[1, 0]\n[0, 1]\n[1, 0]\n[1, 0]\n[1, 0]\n[1, 0]]", fillcolor="#e58139"] ;
613 -> 615 ;
616 [label="volatile acidity <= 0.235\ngini = 0.132\nsamples = 11\nvalue = [[11, 0]\n[11, 0]\n[11, 0]\n[4, 7]\n[7, 4]\n[11, 0]\n[11, 0]]", fillcolor="#f5ceb3"] ;
604 -> 616 ;
617 [label="citric acid <= 0.45\ngini = 0.107\nsamples = 4\nvalue = [[4, 0]\n[4, 0]\n[4, 0]\n[3, 1]\n[1, 3]\n[4, 0]\n[4, 0]]", fillcolor="#f2c09c"] ;
616 -> 617 ;
618 [label="gini = 0.0\nsamples = 3\nvalue = [[3, 0]\n[3, 0]\n[3, 0]\n[3, 0]\n[0, 3]\n[3, 0]\n[3, 0]]", fillcolor="#e58139"] ;
617 -> 618 ;
619 [label="gini = 0.0\nsamples = 1\nvalue = [[1, 0]\n[1, 0]\n[1, 0]\n[0, 1]\n[1, 0]\n[1, 0]\n[1, 0]]", fillcolor="#e58139"] ;
617 -> 619 ;
620 [label="alcohol <= 10.3\ngini = 0.07\nsamples = 7\nvalue = [[7, 0]\n[7, 0]\n[7, 0]\n[1, 6]\n[6, 1]\n[7, 0]\n[7, 0]]", fillcolor="#edaa79"] ;
616 -> 620 ;
621 [label="gini = 0.0\nsamples = 4\nvalue = [[4, 0]\n[4, 0]\n[4, 0]\n[0, 4]\n[4, 0]\n[4, 0]\n[4, 0]]", fillcolor="#e58139"] ;
620 -> 621 ;
622 [label="residual sugar <= 1.85\ngini = 0.127\nsamples = 3\nvalue = [[3, 0]\n[3, 0]\n[3, 0]\n[1, 2]\n[2, 1]\n[3, 0]\n[3, 0]]", fillcolor="#f4cbae"] ;
620 -> 622 ;
623 [label="gini = 0.0\nsamples = 1\nvalue = [[1, 0]\n[1, 0]\n[1, 0]\n[1, 0]\n[0, 1]\n[1, 0]\n[1, 0]]", fillcolor="#e58139"] ;
622 -> 623 ;
624 [label="gini = 0.0\nsamples = 2\nvalue = [[2, 0]\n[2, 0]\n[2, 0]\n[0, 2]\n[2, 0]\n[2, 0]\n[2, 0]]", fillcolor="#e58139"] ;
622 -> 624 ;
625 [label="chlorides <= 0.033\ngini = 0.07\nsamples = 7\nvalue = [[7, 0]\n[7, 0]\n[6, 1]\n[1, 6]\n[7, 0]\n[7, 0]\n[7, 0]]", fillcolor="#edaa79"] ;
591 -> 625 ;
626 [label="gini = 0.0\nsamples = 1\nvalue = [[1, 0]\n[1, 0]\n[0, 1]\n[1, 0]\n[1, 0]\n[1, 0]\n[1, 0]]", fillcolor="#e58139"] ;
625 -> 626 ;
627 [label="gini = 0.0\nsamples = 6\nvalue = [[6, 0]\n[6, 0]\n[6, 0]\n[0, 6]\n[6, 0]\n[6, 0]\n[6, 0]]", fillcolor="#e58139"] ;
625 -> 627 ;
628 [label="citric acid <= 0.225\ngini = 0.056\nsamples = 9\nvalue = [[9, 0]\n[9, 0]\n[1, 8]\n[8, 1]\n[9, 0]\n[9, 0]\n[9, 0]]", fillcolor="#eca26d"] ;
590 -> 628 ;
629 [label="volatile acidity <= 0.365\ngini = 0.143\nsamples = 2\nvalue = [[2, 0]\n[2, 0]\n[1, 1]\n[1, 1]\n[2, 0]\n[2, 0]\n[2, 0]]", fillcolor="#f6d5bc"] ;
628 -> 629 ;
630 [label="gini = 0.0\nsamples = 1\nvalue = [[1, 0]\n[1, 0]\n[0, 1]\n[1, 0]\n[1, 0]\n[1, 0]\n[1, 0]]", fillcolor="#e58139"] ;
629 -> 630 ;
631 [label="gini = 0.0\nsamples = 1\nvalue = [[1, 0]\n[1, 0]\n[1, 0]\n[0, 1]\n[1, 0]\n[1, 0]\n[1, 0]]", fillcolor="#e58139"] ;
629 -> 631 ;
632 [label="gini = 0.0\nsamples = 7\nvalue = [[7, 0]\n[7, 0]\n[0, 7]\n[7, 0]\n[7, 0]\n[7, 0]\n[7, 0]]", fillcolor="#e58139"] ;
628 -> 632 ;
633 [label="free sulfur dioxide <= 16.5\ngini = 0.193\nsamples = 343\nvalue = [[342, 1]\n[337, 6]\n[288, 55]\n[187, 156]\n[242, 101]\n[319, 24]\n[343, 0]]", fillcolor="#fcf2eb"] ;
377 -> 633 ;
634 [label="citric acid <= 0.225\ngini = 0.202\nsamples = 56\nvalue = [[56, 0]\n[52, 4]\n[35, 21]\n[39, 17]\n[43, 13]\n[55, 1]\n[56, 0]]", fillcolor="#fdf7f3"] ;
633 -> 634 ;
635 [label="residual sugar <= 7.2\ngini = 0.127\nsamples = 3\nvalue = [[3, 0]\n[1, 2]\n[3, 0]\n[2, 1]\n[3, 0]\n[3, 0]\n[3, 0]]", fillcolor="#f4cbae"] ;
634 -> 635 ;
636 [label="gini = 0.0\nsamples = 2\nvalue = [[2, 0]\n[0, 2]\n[2, 0]\n[2, 0]\n[2, 0]\n[2, 0]\n[2, 0]]", fillcolor="#e58139"] ;
635 -> 636 ;
637 [label="gini = 0.0\nsamples = 1\nvalue = [[1, 0]\n[1, 0]\n[1, 0]\n[0, 1]\n[1, 0]\n[1, 0]\n[1, 0]]", fillcolor="#e58139"] ;
635 -> 637 ;
638 [label="residual sugar <= 9.3\ngini = 0.197\nsamples = 53\nvalue = [[53, 0]\n[51, 2]\n[32, 21]\n[37, 16]\n[40, 13]\n[52, 1]\n[53, 0]]", fillcolor="#fdf4ee"] ;
634 -> 638 ;
639 [label="sulphates <= 0.485\ngini = 0.189\nsamples = 41\nvalue = [[41, 0]\n[40, 1]\n[22, 19]\n[33, 8]\n[29, 12]\n[40, 1]\n[41, 0]]", fillcolor="#fcefe7"] ;
638 -> 639 ;
640 [label="volatile acidity <= 0.485\ngini = 0.192\nsamples = 23\nvalue = [[23, 0]\n[22, 1]\n[17, 6]\n[17, 6]\n[13, 10]\n[23, 0]\n[23, 0]]", fillcolor="#fcf2ea"] ;
639 -> 640 ;
641 [label="residual sugar <= 5.0\ngini = 0.181\nsamples = 20\nvalue = [[20, 0]\n[19, 1]\n[17, 3]\n[14, 6]\n[10, 10]\n[20, 0]\n[20, 0]]", fillcolor="#fbebe0"] ;
640 -> 641 ;
642 [label="volatile acidity <= 0.265\ngini = 0.143\nsamples = 6\nvalue = [[6, 0]\n[5, 1]\n[5, 1]\n[2, 4]\n[6, 0]\n[6, 0]\n[6, 0]]", fillcolor="#f6d5bc"] ;
641 -> 642 ;
643 [label="volatile acidity <= 0.235\ngini = 0.091\nsamples = 5\nvalue = [[5, 0]\n[5, 0]\n[4, 1]\n[1, 4]\n[5, 0]\n[5, 0]\n[5, 0]]", fillcolor="#f0b78d"] ;
642 -> 643 ;
644 [label="density <= 0.992\ngini = 0.143\nsamples = 2\nvalue = [[2, 0]\n[2, 0]\n[1, 1]\n[1, 1]\n[2, 0]\n[2, 0]\n[2, 0]]", fillcolor="#f6d5bc"] ;
643 -> 644 ;
645 [label="gini = 0.0\nsamples = 1\nvalue = [[1, 0]\n[1, 0]\n[1, 0]\n[0, 1]\n[1, 0]\n[1, 0]\n[1, 0]]", fillcolor="#e58139"] ;
644 -> 645 ;
646 [label="gini = 0.0\nsamples = 1\nvalue = [[1, 0]\n[1, 0]\n[0, 1]\n[1, 0]\n[1, 0]\n[1, 0]\n[1, 0]]", fillcolor="#e58139"] ;
644 -> 646 ;
647 [label="gini = 0.0\nsamples = 3\nvalue = [[3, 0]\n[3, 0]\n[3, 0]\n[0, 3]\n[3, 0]\n[3, 0]\n[3, 0]]", fillcolor="#e58139"] ;
643 -> 647 ;
